#! FIELDS energy b1.bias der_energy
#! SET min_energy -25000
#! SET max_energy -23500
#! SET nbins_energy  1001
#! SET periodic_energy false
 -25000.000000000 -102.430571334   -0.256083049
 -24998.500000000 -102.052660143   -0.247980074
 -24997.000000000 -101.686109109   -0.240921282
 -24995.500000000 -101.329417656   -0.234819945
 -24994.000000000 -100.981211433   -0.229594454
 -24992.500000000 -100.640234799   -0.225168108
 -24991.000000000 -100.305343608   -0.221468912
 -24989.500000000  -99.975498304   -0.218429378
 -24988.000000000  -99.649757299   -0.215986335
 -24986.500000000  -99.327270642   -0.214080739
 -24985.000000000  -99.007273971   -0.212657489
 -24983.500000000  -98.689082729   -0.211665249
 -24982.000000000  -98.372086648   -0.211056274
 -24980.500000000  -98.055744490   -0.210786242
 -24979.000000000  -97.739579034   -0.210814089
 -24977.500000000  -97.423172315   -0.211101851
 -24976.000000000  -97.106161080   -0.211614509
 -24974.500000000  -96.788232496   -0.212319839
 -24973.000000000  -96.469120057   -0.213188267
 -24971.500000000  -96.148599716   -0.214192733
 -24970.000000000  -95.826486222   -0.215308547
 -24968.500000000  -95.502629658   -0.216513267
 -24967.000000000  -95.176912165   -0.217786567
 -24965.500000000  -94.849244863   -0.219110117
 -24964.000000000  -94.519564943   -0.220467467
 -24962.500000000  -94.187832934   -0.221843930
 -24961.000000000  -93.854030139   -0.223226475
 -24959.500000000  -93.518156230   -0.224603625
 -24958.000000000  -93.180226997   -0.225965353
 -24956.500000000  -92.840272242   -0.227302984
 -24955.000000000  -92.498333819   -0.228609108
 -24953.500000000  -92.154463810   -0.229877485
 -24952.000000000  -91.808722828   -0.231102967
 -24950.500000000  -91.461178446   -0.232281407
 -24949.000000000  -91.111903748   -0.233409592
 -24947.500000000  -90.760975990   -0.234485162
 -24946.000000000  -90.408475370   -0.235506540
 -24944.500000000  -90.054483906   -0.236472867
 -24943.000000000  -89.699084408   -0.237383937
 -24941.500000000  -89.342359541   -0.238240134
 -24940.000000000  -88.984390990   -0.239042379
 -24938.500000000  -88.625258690   -0.239792068
 -24937.000000000  -88.265040156   -0.240491028
 -24935.500000000  -87.903809873   -0.241141462
 -24934.000000000  -87.541638770   -0.241745905
 -24932.500000000  -87.178593748   -0.242307179
 -24931.000000000  -86.814737287   -0.242828354
 -24929.500000000  -86.450127100   -0.243312708
 -24928.000000000  -86.084815851   -0.243763690
 -24926.500000000  -85.718850924   -0.244184887
 -24925.000000000  -85.352274237   -0.244579993
 -24923.500000000  -84.985122108   -0.244952775
 -24922.000000000  -84.617425163   -0.245307054
 -24920.500000000  -84.249208279   -0.245646668
 -24919.000000000  -83.880490569   -0.245975461
 -24917.500000000  -83.511285398   -0.246297249
 -24916.000000000  -83.141600436   -0.246615808
 -24914.500000000  -82.771437729   -0.246934854
 -24913.000000000  -82.400793809   -0.247258025
 -24911.500000000  -82.029659819   -0.247588864
 -24910.000000000  -81.658021662   -0.247930810
 -24908.500000000  -81.285860174   -0.248287181
 -24907.000000000  -80.913151309   -0.248661167
 -24905.500000000  -80.539866339   -0.249055816
 -24904.000000000  -80.165972075   -0.249474030
 -24902.500000000  -79.791431091   -0.249918554
 -24901.000000000  -79.416201965   -0.250391969
 -24899.500000000  -79.040239526   -0.250896693
 -24898.000000000  -78.663495108   -0.251434968
 -24896.500000000  -78.285916807   -0.252008865
 -24895.000000000  -77.907449752   -0.252620275
 -24893.500000000  -77.528036366   -0.253270910
 -24892.000000000  -77.147616640   -0.253962303
 -24890.500000000  -76.766128399   -0.254695806
 -24889.000000000  -76.383507578   -0.255472590
 -24887.500000000  -75.999688487   -0.256293651
 -24886.000000000  -75.614604077   -0.257159803
 -24884.500000000  -75.228186207   -0.258071690
 -24883.000000000  -74.840365903   -0.259029780
 -24881.500000000  -74.451073613   -0.260034374
 -24880.000000000  -74.060239459   -0.261085607
 -24878.500000000  -73.667793482   -0.262183454
 -24877.000000000  -73.273665879   -0.263327731
 -24875.500000000  -72.877787239   -0.264518103
 -24874.000000000  -72.480088763   -0.265754086
 -24872.500000000  -72.080502485   -0.267035056
 -24871.000000000  -71.678961480   -0.268360250
 -24869.500000000  -71.275400067   -0.269728775
 -24868.000000000  -70.869753997   -0.271139612
 -24866.500000000  -70.461960643   -0.272591622
 -24865.000000000  -70.051959170   -0.274083553
 -24863.500000000  -69.639690702   -0.275614045
 -24862.000000000  -69.225098481   -0.277181639
 -24860.500000000  -68.808128012   -0.278784776
 -24859.000000000  -68.388727201   -0.280421814
 -24857.500000000  -67.966846483   -0.282091024
 -24856.000000000  -67.542438942   -0.283790604
 -24854.500000000  -67.115460421   -0.285518680
 -24853.000000000  -66.685869621   -0.287273315
 -24851.500000000  -66.253628192   -0.289052515
 -24850.000000000  -65.818700816   -0.290854233
 -24848.500000000  -65.381055277   -0.292676379
 -24847.000000000  -64.940662530   -0.294516821
 -24845.500000000  -64.497496747   -0.296373395
 -24844.000000000  -64.051535373   -0.298243909
 -24842.500000000  -63.602759156   -0.300126148
 -24841.000000000  -63.151152182   -0.302017880
 -24839.500000000  -62.696701890   -0.303916863
 -24838.000000000  -62.239399092   -0.305820847
 -24836.500000000  -61.779237975   -0.307727580
 -24835.000000000  -61.316216100   -0.309634817
 -24833.500000000  -60.850334392   -0.311540318
 -24832.000000000  -60.381597126   -0.313441857
 -24830.500000000  -59.910011905   -0.315337226
 -24829.000000000  -59.435589627   -0.317224237
 -24827.500000000  -58.958344455   -0.319100728
 -24826.000000000  -58.478293771   -0.320964566
 -24824.500000000  -57.995458133   -0.322813652
 -24823.000000000  -57.509861223   -0.324645922
 -24821.500000000  -57.021529786   -0.326459354
 -24820.000000000  -56.530493573   -0.328251965
 -24818.500000000  -56.036785269   -0.330021822
 -24817.000000000  -55.540440428   -0.331767037
 -24815.500000000  -55.041497396   -0.333485776
 -24814.000000000  -54.539997229   -0.335176257
 -24812.500000000  -54.035983617   -0.336836754
 -24811.000000000  -53.529502796   -0.338465597
 -24809.500000000  -53.020603458   -0.340061179
 -24808.000000000  -52.509336664   -0.341621952
 -24806.500000000  -51.995755750   -0.343146431
 -24805.000000000  -51.479916229   -0.344633196
 -24803.500000000  -50.961875699   -0.346080890
 -24802.000000000  -50.441693739   -0.347488226
 -24800.500000000  -49.919431812   -0.348853981
 -24799.000000000  -49.395153163   -0.350177002
 -24797.500000000  -48.868922717   -0.351456203
 -24796.000000000  -48.340806973   -0.352690568
 -24794.500000000  -47.810873907   -0.353879148
 -24793.000000000  -47.279192861   -0.355021067
 -24791.500000000  -46.745834443   -0.356115515
 -24790.000000000  -46.210870423   -0.357161752
 -24788.500000000  -45.674373628   -0.358159109
 -24787.000000000  -45.136417840   -0.359106982
 -24785.500000000  -44.597077693   -0.360004837
 -24784.000000000  -44.056428572   -0.360852208
 -24782.500000000  -43.514546511   -0.361648696
 -24781.000000000  -42.971508095   -0.362393965
 -24779.500000000  -42.427390361   -0.363087747
 -24778.000000000  -41.882270701   -0.363729838
 -24776.500000000  -41.336226766   -0.364320095
 -24775.000000000  -40.789336375   -0.364858438
 -24773.500000000  -40.241677420   -0.365344849
 -24772.000000000  -39.693327777   -0.365779366
 -24770.500000000  -39.144365220   -0.366162089
 -24769.000000000  -38.594867332   -0.366493170
 -24767.500000000  -38.044911426   -0.366772820
 -24766.000000000  -37.494574456   -0.367001302
 -24764.500000000  -36.943932948   -0.367178929
 -24763.000000000  -36.393062913   -0.367306068
 -24761.500000000  -35.842039784   -0.367383130
 -24760.000000000  -35.290938333   -0.367410576
 -24758.500000000  -34.739832613   -0.367388911
 -24757.000000000  -34.188795882   -0.367318684
 -24755.500000000  -33.637900548   -0.367200484
 -24754.000000000  -33.087218103   -0.367034940
 -24752.500000000  -32.536819066   -0.366822721
 -24751.000000000  -31.986772928   -0.366564528
 -24749.500000000  -31.437148101   -0.366261099
 -24748.000000000  -30.888011866   -0.365913202
 -24746.500000000  -30.339430328   -0.365521638
 -24745.000000000  -29.791468372   -0.365087234
 -24743.500000000  -29.244189619   -0.364610844
 -24742.000000000  -28.697656392   -0.364093348
 -24740.500000000  -28.151929678   -0.363535647
 -24739.000000000  -27.607069093   -0.362938664
 -24737.500000000  -27.063132857   -0.362303340
 -24736.000000000  -26.520177765   -0.361630634
 -24734.500000000  -25.978259159   -0.360921522
 -24733.000000000  -25.437430909   -0.360176991
 -24731.500000000  -24.897745395   -0.359398041
 -24730.000000000  -24.359253489   -0.358585684
 -24728.500000000  -23.822004537   -0.357740938
 -24727.000000000  -23.286046355   -0.356864830
 -24725.500000000  -22.751425214   -0.355958389
 -24724.000000000  -22.218185835   -0.355022653
 -24722.500000000  -21.686371386   -0.354058657
 -24721.000000000  -21.156023476   -0.353067439
 -24719.500000000  -20.627182161   -0.352050037
 -24718.000000000  -20.099885940   -0.351007485
 -24716.500000000  -19.574171765   -0.349940814
 -24715.000000000  -19.050075045   -0.348851050
 -24713.500000000  -18.527629653   -0.347739212
 -24712.000000000  -18.006867940   -0.346606313
 -24710.500000000  -17.487820743   -0.345453356
 -24709.000000000  -16.970517405   -0.344281333
 -24707.500000000  -16.454985785   -0.343091228
 -24706.000000000  -15.941252277   -0.341884010
 -24704.500000000  -15.429341834   -0.340660635
 -24703.000000000  -14.919277980   -0.339422046
 -24701.500000000  -14.411082840   -0.338169170
 -24700.000000000  -13.904777157   -0.336902919
 -24698.500000000  -13.400380322   -0.335624187
 -24697.000000000  -12.897910398   -0.334333851
 -24695.500000000  -12.397384143   -0.333032768
 -24694.000000000  -11.898817045   -0.331721779
 -24692.500000000  -11.402223348   -0.330401703
 -24691.000000000  -10.907616080   -0.329073338
 -24689.500000000  -10.415007087   -0.327737464
 -24688.000000000   -9.924407064   -0.326394837
 -24686.500000000   -9.435825585   -0.325046192
 -24685.000000000   -8.949271141   -0.323692241
 -24683.500000000   -8.464751169   -0.322333676
 -24682.000000000   -7.982272088   -0.320971162
 -24680.500000000   -7.501839334   -0.319605344
 -24679.000000000   -7.023457396   -0.318236843
 -24677.500000000   -6.547129848   -0.316866255
 -24676.000000000   -6.072859388   -0.315494153
 -24674.500000000   -5.600647872   -0.314121086
 -24673.000000000   -5.130496350   -0.312747579
 -24671.500000000   -4.662405103   -0.311374134
 -24670.000000000   -4.196373680   -0.310001226
 -24668.500000000   -3.732400929   -0.308629310
 -24667.000000000   -3.270485040   -0.307258814
 -24665.500000000   -2.810623575   -0.305890143
 -24664.000000000   -2.352813508   -0.304523679
 -24662.500000000   -1.897051254   -0.303159781
 -24661.000000000   -1.443332714   -0.301798783
 -24659.500000000   -0.991653299   -0.300440997
 -24658.000000000   -0.542007972   -0.299086712
 -24656.500000000   -0.094391277   -0.297736196
 -24655.000000000    0.351202622   -0.296389691
 -24653.500000000    0.794779914   -0.295047422
 -24652.000000000    1.236347107   -0.293709590
 -24650.500000000    1.675910992   -0.292376374
 -24649.000000000    2.113478618   -0.291047935
 -24647.500000000    2.549057257   -0.289724413
 -24646.000000000    2.982654376   -0.288405927
 -24644.500000000    3.414277606   -0.287092578
 -24643.000000000    3.843934718   -0.285784447
 -24641.500000000    4.271633590   -0.284481600
 -24640.000000000    4.697382183   -0.283184081
 -24638.500000000    5.121188513   -0.281891920
 -24637.000000000    5.543060629   -0.280605130
 -24635.500000000    5.963006586   -0.279323705
 -24634.000000000    6.381034419   -0.278047628
 -24632.500000000    6.797152127   -0.276776865
 -24631.000000000    7.211367645   -0.275511366
 -24629.500000000    7.623688826   -0.274251070
 -24628.000000000    8.034123419   -0.272995902
 -24626.500000000    8.442679052   -0.271745774
 -24625.000000000    8.849363213   -0.270500588
 -24623.500000000    9.254183230   -0.269260231
 -24622.000000000    9.657146260   -0.268024583
 -24620.500000000   10.058259269   -0.266793513
 -24619.000000000   10.457529017   -0.265566879
 -24617.500000000   10.854962049   -0.264344532
 -24616.000000000   11.250564678   -0.263126314
 -24614.500000000   11.644342974   -0.261912061
 -24613.000000000   12.036302755   -0.260701598
 -24611.500000000   12.426449575   -0.259494749
 -24610.000000000   12.814788715   -0.258291327
 -24608.500000000   13.201325176   -0.257091144
 -24607.000000000   13.586063670   -0.255894005
 -24605.500000000   13.969008615   -0.254699712
 -24604.000000000   14.350164129   -0.253508063
 -24602.500000000   14.729534024   -0.252318853
 -24601.000000000   15.107121805   -0.251131875
 -24599.500000000   15.482930661   -0.249946920
 -24598.000000000   15.856963471   -0.248763777
 -24596.500000000   16.229222794   -0.247582236
 -24595.000000000   16.599710875   -0.246402085
 -24593.500000000   16.968429640   -0.245223113
 -24592.000000000   17.335380699   -0.244045110
 -24590.500000000   17.700565348   -0.242867865
 -24589.000000000   18.063984568   -0.241691171
 -24587.500000000   18.425639032   -0.240514822
 -24586.000000000   18.785529104   -0.239338614
 -24584.500000000   19.143654845   -0.238162348
 -24583.000000000   19.500016019   -0.236985825
 -24581.500000000   19.854612096   -0.235808852
 -24580.000000000   20.207442256   -0.234631240
 -24578.500000000   20.558505402   -0.233452801
 -24577.000000000   20.907800157   -0.232273357
 -24575.500000000   21.255324881   -0.231092730
 -24574.000000000   21.601077671   -0.229910750
 -24572.500000000   21.945056373   -0.228727253
 -24571.000000000   22.287258590   -0.227542077
 -24569.500000000   22.627681690   -0.226355071
 -24568.000000000   22.966322815   -0.225166088
 -24566.500000000   23.303178893   -0.223974986
 -24565.000000000   23.638246646   -0.222781631
 -24563.500000000   23.971522597   -0.221585898
 -24562.000000000   24.303003089   -0.220387665
 -24560.500000000   24.632684285   -0.219186820
 -24559.000000000   24.960562189   -0.217983257
 -24557.500000000   25.286632649   -0.216776879
 -24556.000000000   25.610891373   -0.215567595
 -24554.500000000   25.933333940   -0.214355322
 -24553.000000000   26.253955807   -0.213139985
 -24551.500000000   26.572752329   -0.211921516
 -24550.000000000   26.889718761   -0.210699857
 -24548.500000000   27.204850278   -0.209474954
 -24547.000000000   27.518141980   -0.208246765
 -24545.500000000   27.829588912   -0.207015253
 -24544.000000000   28.139186064   -0.205780390
 -24542.500000000   28.446928396   -0.204542156
 -24541.000000000   28.752810840   -0.203300537
 -24539.500000000   29.056828314   -0.202055530
 -24538.000000000   29.358975736   -0.200807136
 -24536.500000000   29.659248034   -0.199555366
 -24535.000000000   29.957640156   -0.198300238
 -24533.500000000   30.254147082   -0.197041777
 -24532.000000000   30.548763837   -0.195780016
 -24530.500000000   30.841485499   -0.194514993
 -24529.000000000   31.132307209   -0.193246756
 -24527.500000000   31.421224186   -0.191975358
 -24526.000000000   31.708231732   -0.190700859
 -24524.500000000   31.993325246   -0.189423326
 -24523.000000000   32.276500231   -0.188142833
 -24521.500000000   32.557752304   -0.186859458
 -24520.000000000   32.837077208   -0.185573288
 -24518.500000000   33.114470815   -0.184284413
 -24517.000000000   33.389929142   -0.182992930
 -24515.500000000   33.663448353   -0.181698942
 -24514.000000000   33.935024770   -0.180402557
 -24512.500000000   34.204654882   -0.179103887
 -24511.000000000   34.472335347   -0.177803049
 -24509.500000000   34.738063007   -0.176500166
 -24508.000000000   35.001834887   -0.175195364
 -24506.500000000   35.263648206   -0.173888774
 -24505.000000000   35.523500382   -0.172580530
 -24503.500000000   35.781389037   -0.171270770
 -24502.000000000   36.037312003   -0.169959635
 -24500.500000000   36.291267326   -0.168647270
 -24499.000000000   36.543253271   -0.167333822
 -24497.500000000   36.793268326   -0.166019442
 -24496.000000000   37.041311208   -0.164704283
 -24494.500000000   37.287380861   -0.163388498
 -24493.000000000   37.531476467   -0.162072244
 -24491.500000000   37.773597439   -0.160755681
 -24490.000000000   38.013743433   -0.159438967
 -24488.500000000   38.251914344   -0.158122263
 -24487.000000000   38.488110309   -0.156805732
 -24485.500000000   38.722331707   -0.155489535
 -24484.000000000   38.954579163   -0.154173836
 -24482.500000000   39.184853545   -0.152858798
 -24481.000000000   39.413155968   -0.151544584
 -24479.500000000   39.639487790   -0.150231357
 -24478.000000000   39.863850613   -0.148919278
 -24476.500000000   40.086246281   -0.147608511
 -24475.000000000   40.306676882   -0.146299216
 -24473.500000000   40.525144744   -0.144991551
 -24472.000000000   40.741652431   -0.143685676
 -24470.500000000   40.956202745   -0.142381747
 -24469.000000000   41.168798722   -0.141079918
 -24467.500000000   41.379443627   -0.139780343
 -24466.000000000   41.588140954   -0.138483173
 -24464.500000000   41.794894422   -0.137188555
 -24463.000000000   41.999707968   -0.135896635
 -24461.500000000   42.202585747   -0.134607556
 -24460.000000000   42.403532128   -0.133321459
 -24458.500000000   42.602551685   -0.132038481
 -24457.000000000   42.799649197   -0.130758755
 -24455.500000000   42.994829641   -0.129482412
 -24454.000000000   43.188098188   -0.128209579
 -24452.500000000   43.379460194   -0.126940379
 -24451.000000000   43.568921202   -0.125674932
 -24449.500000000   43.756486926   -0.124413354
 -24448.000000000   43.942163255   -0.123155757
 -24446.500000000   44.125956241   -0.121902247
 -24445.000000000   44.307872092   -0.120652929
 -24443.500000000   44.487917172   -0.119407901
 -24442.000000000   44.666097987   -0.118167258
 -24440.500000000   44.842421184   -0.116931090
 -24439.000000000   45.016893539   -0.115699484
 -24437.500000000   45.189521956   -0.114472519
 -24436.000000000   45.360313455   -0.113250272
 -24434.500000000   45.529275169   -0.112032816
 -24433.000000000   45.696414331   -0.110820216
 -24431.500000000   45.861738276   -0.109612535
 -24430.000000000   46.025254425   -0.108409830
 -24428.500000000   46.186970281   -0.107212154
 -24427.000000000   46.346893423   -0.106019553
 -24425.500000000   46.505031499   -0.104832071
 -24424.000000000   46.661392216   -0.103649746
 -24422.500000000   46.815983332   -0.102472610
 -24421.000000000   46.968812655   -0.101300692
 -24419.500000000   47.119888027   -0.100134014
 -24418.000000000   47.269217326   -0.098972595
 -24416.500000000   47.416808450   -0.097816450
 -24415.000000000   47.562669316   -0.096665586
 -24413.500000000   47.706807851   -0.095520008
 -24412.000000000   47.849231984   -0.094379716
 -24410.500000000   47.989949640   -0.093244705
 -24409.000000000   48.128968736   -0.092114966
 -24407.500000000   48.266297167   -0.090990484
 -24406.000000000   48.401942807   -0.089871241
 -24404.500000000   48.535913499   -0.088757215
 -24403.000000000   48.668217047   -0.087648379
 -24401.500000000   48.798861216   -0.086544702
 -24400.000000000   48.927853717   -0.085446150
 -24398.500000000   49.055202208   -0.084352683
 -24397.000000000   49.180914286   -0.083264258
 -24395.500000000   49.304997481   -0.082180830
 -24394.000000000   49.427459251   -0.081102349
 -24392.500000000   49.548306975   -0.080028761
 -24391.000000000   49.667547951   -0.078960008
 -24389.500000000   49.785189388   -0.077896032
 -24388.000000000   49.901238404   -0.076836769
 -24386.500000000   50.015702018   -0.075782152
 -24385.000000000   50.128587148   -0.074732112
 -24383.500000000   50.239900608   -0.073686578
 -24382.000000000   50.349649098   -0.072645475
 -24380.500000000   50.457839210   -0.071608726
 -24379.000000000   50.564477413   -0.070576251
 -24377.500000000   50.669570059   -0.069547969
 -24376.000000000   50.773123375   -0.068523797
 -24374.500000000   50.875143461   -0.067503648
 -24373.000000000   50.975636286   -0.066487435
 -24371.500000000   51.074607690   -0.065475070
 -24370.000000000   51.172063373   -0.064466461
 -24368.500000000   51.268008904   -0.063461517
 -24367.000000000   51.362449709   -0.062460144
 -24365.500000000   51.455391074   -0.061462248
 -24364.000000000   51.546838144   -0.060467734
 -24362.500000000   51.636795920   -0.059476507
 -24361.000000000   51.725269258   -0.058488468
 -24359.500000000   51.812262870   -0.057503521
 -24358.000000000   51.897781319   -0.056521569
 -24356.500000000   51.981829024   -0.055542513
 -24355.000000000   52.064410256   -0.054566255
 -24353.500000000   52.145529139   -0.053592697
 -24352.000000000   52.225189649   -0.052621742
 -24350.500000000   52.303395617   -0.051653291
 -24349.000000000   52.380150727   -0.050687248
 -24347.500000000   52.455458517   -0.049723516
 -24346.000000000   52.529322382   -0.048761998
 -24344.500000000   52.601745572   -0.047802600
 -24343.000000000   52.672731195   -0.046845227
 -24341.500000000   52.742282217   -0.045889784
 -24340.000000000   52.810401467   -0.044936181
 -24338.500000000   52.877091634   -0.043984326
 -24337.000000000   52.942355273   -0.043034128
 -24335.500000000   53.006194803   -0.042085500
 -24334.000000000   53.068612513   -0.041138354
 -24332.500000000   53.129610562   -0.040192605
 -24331.000000000   53.189190983   -0.039248169
 -24329.500000000   53.247355684   -0.038304964
 -24328.000000000   53.304106452   -0.037362911
 -24326.500000000   53.359444954   -0.036421931
 -24325.000000000   53.413372742   -0.035481947
 -24323.500000000   53.465891256   -0.034542886
 -24322.000000000   53.517001825   -0.033604676
 -24320.500000000   53.566705673   -0.032667246
 -24319.000000000   53.615003921   -0.031730530
 -24317.500000000   53.661897588   -0.030794462
 -24316.000000000   53.707387600   -0.029858980
 -24314.500000000   53.751474789   -0.028924022
 -24313.000000000   53.794159898   -0.027989530
 -24311.500000000   53.835443586   -0.027055450
 -24310.000000000   53.875326428   -0.026121728
 -24308.500000000   53.913808923   -0.025188313
 -24307.000000000   53.950891497   -0.024255158
 -24305.500000000   53.986574505   -0.023322217
 -24304.000000000   54.020858234   -0.022389447
 -24302.500000000   54.053742911   -0.021456808
 -24301.000000000   54.085228705   -0.020524263
 -24299.500000000   54.115315728   -0.019591775
 -24298.000000000   54.144004043   -0.018659314
 -24296.500000000   54.171293667   -0.017726849
 -24295.000000000   54.197184573   -0.016794352
 -24293.500000000   54.221676695   -0.015861799
 -24292.000000000   54.244769932   -0.014929169
 -24290.500000000   54.266464153   -0.013996441
 -24289.000000000   54.286759197   -0.013063598
 -24287.500000000   54.305654882   -0.012130625
 -24286.000000000   54.323151003   -0.011197512
 -24284.500000000   54.339247341   -0.010264246
 -24283.000000000   54.353943662   -0.009330822
 -24281.500000000   54.367239726   -0.008397235
 -24280.000000000   54.379135283   -0.007463480
 -24278.500000000   54.389630084   -0.006529559
 -24277.000000000   54.398723877   -0.005595472
 -24275.500000000   54.406416418   -0.004661223
 -24274.000000000   54.412707467   -0.003726818
 -24272.500000000   54.417596797   -0.002792265
 -24271.000000000   54.421084192   -0.001857573
 -24269.500000000   54.423169453   -0.000922755
 -24268.000000000   54.423852399    0.000012177
 -24266.500000000   54.423132872    0.000947207
 -24265.000000000   54.421010737    0.001882318
 -24263.500000000   54.417485886    0.002817492
 -24262.000000000   54.412558239    0.003752709
 -24260.500000000   54.406227749    0.004687947
 -24259.000000000   54.398494400    0.005623183
 -24257.500000000   54.389358213    0.006558393
 -24256.000000000   54.378819246    0.007493552
 -24254.500000000   54.366877595    0.008428634
 -24253.000000000   54.353533397    0.009363610
 -24251.500000000   54.338786832    0.010298452
 -24250.000000000   54.322638124    0.011233130
 -24248.500000000   54.305087539    0.012167615
 -24247.000000000   54.286135392    0.013101874
 -24245.500000000   54.265782045    0.014035877
 -24244.000000000   54.244027906    0.014969591
 -24242.500000000   54.220873433    0.015902983
 -24241.000000000   54.196319134    0.016836020
 -24239.500000000   54.170365567    0.017768668
 -24238.000000000   54.143013340    0.018700894
 -24236.500000000   54.114263113    0.019632664
 -24235.000000000   54.084115595    0.020563942
 -24233.500000000   54.052571548    0.021494697
 -24232.000000000   54.019631784    0.022424892
 -24230.500000000   53.985297168    0.023354495
 -24229.000000000   53.949568614    0.024283471
 -24227.500000000   53.912447086    0.025211787
 -24226.000000000   53.873933600    0.026139410
 -24224.500000000   53.834029219    0.027066307
 -24223.000000000   53.792735056    0.027992447
 -24221.500000000   53.750052273    0.028917797
 -24220.000000000   53.705982077    0.029842326
 -24218.500000000   53.660525722    0.030766003
 -24217.000000000   53.613684508    0.031688800
 -24215.500000000   53.565459776    0.032610687
 -24214.000000000   53.515852915    0.033531637
 -24212.500000000   53.464865349    0.034451621
 -24211.000000000   53.412498547    0.035370614
 -24209.500000000   53.358754015    0.036288590
 -24208.000000000   53.303633296    0.037205526
 -24206.500000000   53.247137969    0.038121398
 -24205.000000000   53.189269645    0.039036184
 -24203.500000000   53.130029971    0.039949863
 -24202.000000000   53.069420620    0.040862415
 -24200.500000000   53.007443298    0.041773822
 -24199.000000000   52.944099736    0.042684066
 -24197.500000000   52.879391689    0.043593132
 -24196.000000000   52.813320937    0.044501004
 -24194.500000000   52.745889279    0.045407670
 -24193.000000000   52.677098537    0.046313116
 -24191.500000000   52.606950548    0.047217332
 -24190.000000000   52.535447163    0.048120308
 -24188.500000000   52.462590248    0.049022036
 -24187.000000000   52.388381682    0.049922509
 -24185.500000000   52.312823350    0.050821722
 -24184.000000000   52.235917147    0.051719670
 -24182.500000000   52.157664973    0.052616351
 -24181.000000000   52.078068731    0.053511761
 -24179.500000000   51.997130324    0.054405902
 -24178.000000000   51.914851658    0.055298774
 -24176.500000000   51.831234635    0.056190380
 -24175.000000000   51.746281151    0.057080722
 -24173.500000000   51.659993099    0.057969805
 -24172.000000000   51.572372362    0.058857635
 -24170.500000000   51.483420816    0.059744220
 -24169.000000000   51.393140322    0.060629566
 -24167.500000000   51.301532731    0.061513684
 -24166.000000000   51.208599880    0.062396583
 -24164.500000000   51.114343586    0.063278275
 -24163.000000000   51.018765652    0.064158772
 -24161.500000000   50.921867862    0.065038087
 -24160.000000000   50.823651977    0.065916233
 -24158.500000000   50.724119738    0.066793227
 -24157.000000000   50.623272864    0.067669083
 -24155.500000000   50.521113048    0.068543818
 -24154.000000000   50.417641961    0.069417449
 -24152.500000000   50.312861244    0.070289994
 -24151.000000000   50.206772514    0.071161470
 -24149.500000000   50.099377359    0.072031896
 -24148.000000000   49.990677340    0.072901293
 -24146.500000000   49.880673987    0.073769678
 -24145.000000000   49.769368802    0.074637072
 -24143.500000000   49.656763256    0.075503496
 -24142.000000000   49.542858789    0.076368969
 -24140.500000000   49.427656814    0.077233512
 -24139.000000000   49.311158708    0.078097146
 -24137.500000000   49.193365821    0.078959891
 -24136.000000000   49.074279470    0.079821767
 -24134.500000000   48.953900943    0.080682796
 -24133.000000000   48.832231497    0.081542996
 -24131.500000000   48.709272358    0.082402389
 -24130.000000000   48.585024723    0.083260994
 -24128.500000000   48.459489760    0.084118830
 -24127.000000000   48.332668608    0.084975916
 -24125.500000000   48.204562379    0.085832270
 -24124.000000000   48.075172156    0.086687909
 -24122.500000000   47.944498999    0.087542852
 -24121.000000000   47.812543940    0.088397115
 -24119.500000000   47.679307988    0.089250712
 -24118.000000000   47.544792129    0.090103659
 -24116.500000000   47.408997329    0.090955970
 -24115.000000000   47.271924530    0.091807658
 -24113.500000000   47.133574660    0.092658735
 -24112.000000000   46.993948625    0.093509212
 -24110.500000000   46.853047318    0.094359099
 -24109.000000000   46.710871617    0.095208405
 -24107.500000000   46.567422389    0.096057138
 -24106.000000000   46.422700487    0.096905303
 -24104.500000000   46.276706760    0.097752907
 -24103.000000000   46.129442045    0.098599953
 -24101.500000000   45.980907179    0.099446443
 -24100.000000000   45.831102993    0.100292379
 -24098.500000000   45.680030318    0.101137761
 -24097.000000000   45.527689987    0.101982587
 -24095.500000000   45.374082837    0.102826854
 -24094.000000000   45.219209708    0.103670556
 -24092.500000000   45.063071452    0.104513690
 -24091.000000000   44.905668929    0.105356245
 -24089.500000000   44.747003010    0.106198214
 -24088.000000000   44.587074585    0.107039586
 -24086.500000000   44.425884557    0.107880348
 -24085.000000000   44.263433852    0.108720487
 -24083.500000000   44.099723416    0.109559987
 -24082.000000000   43.934754219    0.110398831
 -24080.500000000   43.768527259    0.111237001
 -24079.000000000   43.601043562    0.112074477
 -24077.500000000   43.432304186    0.112911237
 -24076.000000000   43.262310220    0.113747258
 -24074.500000000   43.091062793    0.114582515
 -24073.000000000   42.918563069    0.115416983
 -24071.500000000   42.744812254    0.116250632
 -24070.000000000   42.569811595    0.117083436
 -24068.500000000   42.393562385    0.117915362
 -24067.000000000   42.216065964    0.118746379
 -24065.500000000   42.037323718    0.119576454
 -24064.000000000   41.857337089    0.120405553
 -24062.500000000   41.676107566    0.121233639
 -24061.000000000   41.493636697    0.122060675
 -24059.500000000   41.309926085    0.122886624
 -24058.000000000   41.124977390    0.123711445
 -24056.500000000   40.938792333    0.124535099
 -24055.000000000   40.751372696    0.125357544
 -24053.500000000   40.562720325    0.126178738
 -24052.000000000   40.372837130    0.126998637
 -24050.500000000   40.181725084    0.127817197
 -24049.000000000   39.989386230    0.128634373
 -24047.500000000   39.795822678    0.129450120
 -24046.000000000   39.601036607    0.130264392
 -24044.500000000   39.405030265    0.131077140
 -24043.000000000   39.207805971    0.131888319
 -24041.500000000   39.009366116    0.132697880
 -24040.000000000   38.809713163    0.133505775
 -24038.500000000   38.608849647    0.134311956
 -24037.000000000   38.406778176    0.135116374
 -24035.500000000   38.203501430    0.135918981
 -24034.000000000   37.999022164    0.136719727
 -24032.500000000   37.793343205    0.137518563
 -24031.000000000   37.586467453    0.138315443
 -24029.500000000   37.378397880    0.139110315
 -24028.000000000   37.169137534    0.139903134
 -24026.500000000   36.958689530    0.140693850
 -24025.000000000   36.747057058    0.141482417
 -24023.500000000   36.534243377    0.142268788
 -24022.000000000   36.320251816    0.143052916
 -24020.500000000   36.105085774    0.143834756
 -24019.000000000   35.888748715    0.144614263
 -24017.500000000   35.671244173    0.145391393
 -24016.000000000   35.452575745    0.146166104
 -24014.500000000   35.232747093    0.146938352
 -24013.000000000   35.011761939    0.147708098
 -24011.500000000   34.789624069    0.148475301
 -24010.000000000   34.566337326    0.149239923
 -24008.500000000   34.341905610    0.150001926
 -24007.000000000   34.116332876    0.150761274
 -24005.500000000   33.889623133    0.151517932
 -24004.000000000   33.661780441    0.152271868
 -24002.500000000   33.432808907    0.153023049
 -24001.000000000   33.202712686    0.153771445
 -23999.500000000   32.971495977    0.154517029
 -23998.000000000   32.739163020    0.155259772
 -23996.500000000   32.505718095    0.155999649
 -23995.000000000   32.271165518    0.156736638
 -23993.500000000   32.035509637    0.157470716
 -23992.000000000   31.798754835    0.158201864
 -23990.500000000   31.560905521    0.158930063
 -23989.000000000   31.321966130    0.159655297
 -23987.500000000   31.081941120    0.160377552
 -23986.000000000   30.840834969    0.161096816
 -23984.500000000   30.598652174    0.161813077
 -23983.000000000   30.355397245    0.162526327
 -23981.500000000   30.111074702    0.163236560
 -23980.000000000   29.865689077    0.163943770
 -23978.500000000   29.619244905    0.164647954
 -23977.000000000   29.371746728    0.165349112
 -23975.500000000   29.123199084    0.166047243
 -23974.000000000   28.873606511    0.166742351
 -23972.500000000   28.622973542    0.167434439
 -23971.000000000   28.371304702    0.168123513
 -23969.500000000   28.118604505    0.168809582
 -23968.000000000   27.864877453    0.169492655
 -23966.500000000   27.610128034    0.170172742
 -23965.000000000   27.354360715    0.170849856
 -23963.500000000   27.097579946    0.171524010
 -23962.000000000   26.839790156    0.172195221
 -23960.500000000   26.580995746    0.172863505
 -23959.000000000   26.321201094    0.173528880
 -23957.500000000   26.060410551    0.174191365
 -23956.000000000   25.798628436    0.174850979
 -23954.500000000   25.535859038    0.175507744
 -23953.000000000   25.272106616    0.176161683
 -23951.500000000   25.007375392    0.176812817
 -23950.000000000   24.741669556    0.177461170
 -23948.500000000   24.474993261    0.178106766
 -23947.000000000   24.207350625    0.178749629
 -23945.500000000   23.938745729    0.179389783
 -23944.000000000   23.669182618    0.180027254
 -23942.500000000   23.398665298    0.180662065
 -23941.000000000   23.127197739    0.181294242
 -23939.500000000   22.854783876    0.181923809
 -23938.000000000   22.581427605    0.182550790
 -23936.500000000   22.307132788    0.183175207
 -23935.000000000   22.031903254    0.183797083
 -23933.500000000   21.755742797    0.184416441
 -23932.000000000   21.478655180    0.185033301
 -23930.500000000   21.200644135    0.185647681
 -23929.000000000   20.921713367    0.186259601
 -23927.500000000   20.641866554    0.186869077
 -23926.000000000   20.361107351    0.187476123
 -23924.500000000   20.079439393    0.188080753
 -23923.000000000   19.796866295    0.188682977
 -23921.500000000   19.513391659    0.189282805
 -23920.000000000   19.229019075    0.189880243
 -23918.500000000   18.943752124    0.190475294
 -23917.000000000   18.657594384    0.191067961
 -23915.500000000   18.370549435    0.191658240
 -23914.000000000   18.082620859    0.192246128
 -23912.500000000   17.793812250    0.192831617
 -23911.000000000   17.504127214    0.193414695
 -23909.500000000   17.213569378    0.193995347
 -23908.000000000   16.922142394    0.194573556
 -23906.500000000   16.629849943    0.195149299
 -23905.000000000   16.336695744    0.195722549
 -23903.500000000   16.042683557    0.196293277
 -23902.000000000   15.747817191    0.196861447
 -23900.500000000   15.452100512    0.197427022
 -23899.000000000   15.155537446    0.197989956
 -23897.500000000   14.858131987    0.198550203
 -23896.000000000   14.559888206    0.199107710
 -23894.500000000   14.260810257    0.199662417
 -23893.000000000   13.960902384    0.200214264
 -23891.500000000   13.660168929    0.200763182
 -23890.000000000   13.358614339    0.201309098
 -23888.500000000   13.056243175    0.201851934
 -23887.000000000   12.753060118    0.202391607
 -23885.500000000   12.449069980    0.202928028
 -23884.000000000   12.144277708    0.203461102
 -23882.500000000   11.838688397    0.203990731
 -23881.000000000   11.532307292    0.204516808
 -23879.500000000   11.225139803    0.205039224
 -23878.000000000   10.917191509    0.205557862
 -23876.500000000   10.608468168    0.206072600
 -23875.000000000   10.298975721    0.206583313
 -23873.500000000    9.988720309    0.207089866
 -23872.000000000    9.677708272    0.207592122
 -23870.500000000    9.365946162    0.208089939
 -23869.000000000    9.053440751    0.208583166
 -23867.500000000    8.740199036    0.209071651
 -23866.000000000    8.426228249    0.209555234
 -23864.500000000    8.111535866    0.210033752
 -23863.000000000    7.796129610    0.210507036
 -23861.500000000    7.480017462    0.210974912
 -23860.000000000    7.163207667    0.211437202
 -23858.500000000    6.845708740    0.211893723
 -23857.000000000    6.527529474    0.212344289
 -23855.500000000    6.208678945    0.212788709
 -23854.000000000    5.889166517    0.213226788
 -23852.500000000    5.569001851    0.213658327
 -23851.000000000    5.248194907    0.214083125
 -23849.500000000    4.926755951    0.214500976
 -23848.000000000    4.604695556    0.214911673
 -23846.500000000    4.282024613    0.215315006
 -23845.000000000    3.958754327    0.215710761
 -23843.500000000    3.634896225    0.216098725
 -23842.000000000    3.310462156    0.216478680
 -23840.500000000    2.985464298    0.216850409
 -23839.000000000    2.659915153    0.217213693
 -23837.500000000    2.333827553    0.217568312
 -23836.000000000    2.007214658    0.217914048
 -23834.500000000    1.680089960    0.218250681
 -23833.000000000    1.352467276    0.218577992
 -23831.500000000    1.024360754    0.218895762
 -23830.000000000    0.695784867    0.219203777
 -23828.500000000    0.366754410    0.219501819
 -23827.000000000    0.037284501    0.219789679
 -23825.500000000   -0.292609428    0.220067144
 -23824.000000000   -0.622911631    0.220334009
 -23822.500000000   -0.953606054    0.220590071
 -23821.000000000   -1.284676343    0.220835131
 -23819.500000000   -1.616105848    0.221068994
 -23818.000000000   -1.947877632    0.221291472
 -23816.500000000   -2.279974478    0.221502379
 -23815.000000000   -2.612378897    0.221701540
 -23813.500000000   -2.945073139    0.221888782
 -23812.000000000   -3.278039202    0.222063942
 -23810.500000000   -3.611258844    0.222226862
 -23809.000000000   -3.944713594    0.222377395
 -23807.500000000   -4.278384764    0.222515400
 -23806.000000000   -4.612253463    0.222640745
 -23804.500000000   -4.946300610    0.222753310
 -23803.000000000   -5.280506948    0.222852983
 -23801.500000000   -5.614853062    0.222939662
 -23800.000000000   -5.949319392    0.223013258
 -23798.500000000   -6.283886253    0.223073690
 -23797.000000000   -6.618533847    0.223120892
 -23795.500000000   -6.953242287    0.223154810
 -23794.000000000   -7.287991612    0.223175400
 -23792.500000000   -7.622761807    0.223182633
 -23791.000000000   -7.957532824    0.223176494
 -23789.500000000   -8.292284600    0.223156980
 -23788.000000000   -8.626997081    0.223124103
 -23786.500000000   -8.961650242    0.223077891
 -23785.000000000   -9.296224107    0.223018384
 -23783.500000000   -9.630698775    0.222945639
 -23782.000000000   -9.965054440    0.222859728
 -23780.500000000  -10.299271417    0.222760737
 -23779.000000000  -10.633330162    0.222648770
 -23777.500000000  -10.967211298    0.222523946
 -23776.000000000  -11.300895638    0.222386399
 -23774.500000000  -11.634364211    0.222236282
 -23773.000000000  -11.967598282    0.222073761
 -23771.500000000  -12.300579382    0.221899019
 -23770.000000000  -12.633289330    0.221712258
 -23768.500000000  -12.965710254    0.221513692
 -23767.000000000  -13.297824621    0.221303555
 -23765.500000000  -13.629615257    0.221082095
 -23764.000000000  -13.961065375    0.220849575
 -23762.500000000  -14.292158592    0.220606276
 -23761.000000000  -14.622878959    0.220352492
 -23759.500000000  -14.953210981    0.220088535
 -23758.000000000  -15.283139639    0.219814729
 -23756.500000000  -15.612650412    0.219531413
 -23755.000000000  -15.941729300    0.219238942
 -23753.500000000  -16.270362843    0.218937681
 -23752.000000000  -16.598538139    0.218628011
 -23750.500000000  -16.926242867    0.218310323
 -23749.000000000  -17.253465300    0.217985021
 -23747.500000000  -17.580194329    0.217652519
 -23746.000000000  -17.906419470    0.217313243
 -23744.500000000  -18.232130886    0.216967625
 -23743.000000000  -18.557319396    0.216616109
 -23741.500000000  -18.881976490    0.216259145
 -23740.000000000  -19.206094337    0.215897190
 -23738.500000000  -19.529665797    0.215530707
 -23737.000000000  -19.852684426    0.215160162
 -23735.500000000  -20.175144486    0.214786025
 -23734.000000000  -20.497040943    0.214408771
 -23732.500000000  -20.818369476    0.214028872
 -23731.000000000  -21.139126474    0.213646803
 -23729.500000000  -21.459309036    0.213263036
 -23728.000000000  -21.778914967    0.212878040
 -23726.500000000  -22.097942774    0.212492280
 -23725.000000000  -22.416391656    0.212106217
 -23723.500000000  -22.734261499    0.211720302
 -23722.000000000  -23.051552858    0.211334979
 -23720.500000000  -23.368266948    0.210950682
 -23719.000000000  -23.684405626    0.210567832
 -23717.500000000  -23.999971371    0.210186838
 -23716.000000000  -24.314967264    0.209808092
 -23714.500000000  -24.629396962    0.209431973
 -23713.000000000  -24.943264675    0.209058838
 -23711.500000000  -25.256575136    0.208689024
 -23710.000000000  -25.569333567    0.208322849
 -23708.500000000  -25.881545651    0.207960606
 -23707.000000000  -26.193217487    0.207602563
 -23705.500000000  -26.504355560    0.207248960
 -23704.000000000  -26.814966695    0.206900011
 -23702.500000000  -27.125058011    0.206555897
 -23701.000000000  -27.434636880    0.206216769
 -23699.500000000  -27.743710871    0.205882745
 -23698.000000000  -28.052287707    0.205553906
 -23696.500000000  -28.360375204    0.205230297
 -23695.000000000  -28.667981218    0.204911926
 -23693.500000000  -28.975113586    0.204598761
 -23692.000000000  -29.281780068    0.204290728
 -23690.500000000  -29.587988281    0.203987713
 -23689.000000000  -29.893745636    0.203689555
 -23687.500000000  -30.199059272    0.203396051
 -23686.000000000  -30.503935991    0.203106952
 -23684.500000000  -30.808382183    0.202821961
 -23683.000000000  -31.112403758    0.202540735
 -23681.500000000  -31.416006076    0.202262882
 -23680.000000000  -31.719193871    0.201987961
 -23678.500000000  -32.021971180    0.201715481
 -23677.000000000  -32.324341264    0.201444901
 -23675.500000000  -32.626306540    0.201175633
 -23674.000000000  -32.927868499    0.200907035
 -23672.500000000  -33.229027637    0.200638418
 -23671.000000000  -33.529783376    0.200369043
 -23669.500000000  -33.830133993    0.200098120
 -23668.000000000  -34.130076546    0.199824814
 -23666.500000000  -34.429606803    0.199548240
 -23665.000000000  -34.728719169    0.199267469
 -23663.500000000  -35.027406624    0.198981525
 -23662.000000000  -35.325660649    0.198689390
 -23660.500000000  -35.623471170    0.198390006
 -23659.000000000  -35.920826492    0.198082272
 -23657.500000000  -36.217713246    0.197765056
 -23656.000000000  -36.514116333    0.197437185
 -23654.500000000  -36.810018876    0.197097461
 -23653.000000000  -37.105402175    0.196744654
 -23651.500000000  -37.400245670    0.196377511
 -23650.000000000  -37.694526903    0.195994757
 -23648.500000000  -37.988221491    0.195595102
 -23647.000000000  -38.281303107    0.195177243
 -23645.500000000  -38.573743462    0.194739869
 -23644.000000000  -38.865512299    0.194281666
 -23642.500000000  -39.156577391    0.193801325
 -23641.000000000  -39.446904553    0.193297543
 -23639.500000000  -39.736457655    0.192769032
 -23638.000000000  -40.025198650    0.192214525
 -23636.500000000  -40.313087610    0.191632782
 -23635.000000000  -40.600082773    0.191022596
 -23633.500000000  -40.886140594    0.190382803
 -23632.000000000  -41.171215819    0.189712286
 -23630.500000000  -41.455261560    0.189009985
 -23629.000000000  -41.738229385    0.188274904
 -23627.500000000  -42.020069420    0.187506120
 -23626.000000000  -42.300730470    0.186702789
 -23624.500000000  -42.580160137    0.185864159
 -23623.000000000  -42.858304969    0.184989576
 -23621.500000000  -43.135110611    0.184078491
 -23620.000000000  -43.410521973    0.183130474
 -23618.500000000  -43.684483413    0.182145221
 -23617.000000000  -43.956938930    0.181122561
 -23615.500000000  -44.227832378    0.180062470
 -23614.000000000  -44.497107686    0.178965075
 -23612.500000000  -44.764709096    0.177830669
 -23611.000000000  -45.030581417    0.176659716
 -23609.500000000  -45.294670289    0.175452859
 -23608.000000000  -45.556922459    0.174210936
 -23606.500000000  -45.817286076    0.172934979
 -23605.000000000  -46.075710994    0.171626228
 -23603.500000000  -46.332149087    0.170286139
 -23602.000000000  -46.586554577    0.168916388
 -23600.500000000  -46.838884369    0.167518880
 -23599.000000000  -47.089098402    0.166095752
 -23597.500000000  -47.337160002    0.164649384
 -23596.000000000  -47.583036241    0.163182396
 -23594.500000000  -47.826698310    0.161697656
 -23593.000000000  -48.068121887    0.160198280
 -23591.500000000  -48.307287510    0.158687632
 -23590.000000000  -48.544180951    0.157169328
 -23588.500000000  -48.778793592    0.155647227
 -23587.000000000  -49.011122782    0.154125431
 -23585.500000000  -49.241172204    0.152608279
 -23584.000000000  -49.468952222    0.151100338
 -23582.500000000  -49.694480213    0.149606392
 -23581.000000000  -49.917780888    0.148131432
 -23579.500000000  -50.138886588    0.146680636
 -23578.000000000  -50.357837551    0.145259356
 -23576.500000000  -50.574682161    0.143873091
 -23575.000000000  -50.789477145    0.142527468
 -23573.500000000  -51.002287745    0.141228206
 -23572.000000000  -51.213187835    0.139981090
 -23570.500000000  -51.422259992    0.138791929
 -23569.000000000  -51.629595498    0.137666518
 -23567.500000000  -51.835294288    0.136610588
 -23566.000000000  -52.039464814    0.135629757
 -23564.500000000  -52.242223836    0.134729472
 -23563.000000000  -52.443696114    0.133914943
 -23561.500000000  -52.644014003    0.133191076
 -23560.000000000  -52.843316941    0.132562392
 -23558.500000000  -53.041750807    0.132032947
 -23557.000000000  -53.239467159    0.131606236
 -23555.500000000  -53.436622315    0.131285097
 -23554.000000000  -53.633376285    0.131071596
 -23552.500000000  -53.829891527    0.130966909
 -23551.000000000  -54.026331520    0.130971199
 -23549.500000000  -54.222859134    0.131083466
 -23548.000000000  -54.419634781    0.131301408
 -23546.500000000  -54.616814334    0.131621247
 -23545.000000000  -54.814546792    0.132037563
 -23543.500000000  -55.012971666    0.132543097
 -23542.000000000  -55.212216081    0.133128554
 -23540.500000000  -55.412391554    0.133782383
 -23539.000000000  -55.613590440    0.134490543
 -23537.500000000  -55.815882008    0.135236254
 -23536.000000000  -56.019308137    0.135999727
 -23534.500000000  -56.223878588    0.136757880
 -23533.000000000  -56.429565842    0.137484032
 -23531.500000000  -56.636299452    0.138147575
 -23530.000000000  -56.843959900    0.138713628
 -23528.500000000  -57.052371910    0.139142663
 -23527.000000000  -57.261297188    0.139390116
 -23525.500000000  -57.470426552    0.139405961
 -23524.000000000  -57.679371411    0.139134271
 -23522.500000000  -57.887654557    0.138512736
 -23521.000000000  -58.094700224    0.137472165
 -23519.500000000  -58.299823365    0.135935953
 -23518.000000000  -58.502218110    0.133819510
 -23516.500000000  -58.700945350    0.131029669
 -23515.000000000  -58.894919390    0.127464045
 -23513.500000000  -59.082893632    0.123010364
 -23512.000000000  -59.263445210    0.117545759
 -23510.500000000  -59.434958538    0.110936008
 -23509.000000000  -59.595607696    0.103034750
 -23507.500000000  -59.743337596    0.093682644
 -23506.000000000  -59.875843847    0.082706482
 -23504.500000000  -59.990551273    0.069918257
 -23503.000000000  -60.084590973    0.055114181
 -23501.500000000  -60.154775884    0.038073645
 -23500.000000000  -60.197574736    0.018558129
