#! FIELDS energy b1.bias der_energy
#! SET min_energy -25000
#! SET max_energy -23500
#! SET nbins_energy  1001
#! SET periodic_energy false
 -25000.000000000 -102.942250023   -0.290577461
 -24998.500000000 -102.519567945   -0.273430086
 -24997.000000000 -102.120730959   -0.258741007
 -24995.500000000 -101.742240078   -0.246262260
 -24994.000000000 -101.380953672   -0.235765129
 -24992.500000000 -101.034059493   -0.227038958
 -24991.000000000 -100.699048450   -0.219890012
 -24989.500000000 -100.373690034   -0.214140406
 -24988.000000000 -100.056009320   -0.209627085
 -24986.500000000  -99.744265450   -0.206200856
 -24985.000000000  -99.436931528   -0.203725479
 -24983.500000000  -99.132675854   -0.202076795
 -24982.000000000  -98.830344416   -0.201141913
 -24980.500000000  -98.528944579   -0.200818429
 -24979.000000000  -98.227629903   -0.201013700
 -24977.500000000  -97.925686030   -0.201644149
 -24976.000000000  -97.622517577   -0.202634615
 -24974.500000000  -97.317635978   -0.203917735
 -24973.000000000  -97.010648227   -0.205433365
 -24971.500000000  -96.701246466   -0.207128033
 -24970.000000000  -96.389198359   -0.208954426
 -24968.500000000  -96.074338233   -0.210870902
 -24967.000000000  -95.756558902   -0.212841040
 -24965.500000000  -95.435804172   -0.214833207
 -24964.000000000  -95.112061955   -0.216820162
 -24962.500000000  -94.785357967   -0.218778678
 -24961.000000000  -94.455749979   -0.220689188
 -24959.500000000  -94.123322574   -0.222535456
 -24958.000000000  -93.788182382   -0.224304272
 -24956.500000000  -93.450453765   -0.225985157
 -24955.000000000  -93.110274917   -0.227570103
 -24953.500000000  -92.767794357   -0.229053314
 -24952.000000000  -92.423167778   -0.230430979
 -24950.500000000  -92.076555242   -0.231701052
 -24949.000000000  -91.728118681   -0.232863053
 -24947.500000000  -91.378019690   -0.233917880
 -24946.000000000  -91.026417594   -0.234867636
 -24944.500000000  -90.673467758   -0.235715470
 -24943.000000000  -90.319320133   -0.236465431
 -24941.500000000  -89.964118007   -0.237122330
 -24940.000000000  -89.607996956   -0.237691619
 -24938.500000000  -89.251083975   -0.238179271
 -24937.000000000  -88.893496768   -0.238591683
 -24935.500000000  -88.535343189   -0.238935575
 -24934.000000000  -88.176720828   -0.239217903
 -24932.500000000  -87.817716705   -0.239445786
 -24931.000000000  -87.458407090   -0.239626429
 -24929.500000000  -87.098857421   -0.239767063
 -24928.000000000  -86.739122307   -0.239874883
 -24926.500000000  -86.379245620   -0.239957003
 -24925.000000000  -86.019260655   -0.240020404
 -24923.500000000  -85.659190358   -0.240071899
 -24922.000000000  -85.299047603   -0.240118097
 -24920.500000000  -84.938835527   -0.240165368
 -24919.000000000  -84.578547901   -0.240219825
 -24917.500000000  -84.218169542   -0.240287294
 -24916.000000000  -83.857676746   -0.240373300
 -24914.500000000  -83.497037763   -0.240483053
 -24913.000000000  -83.136213269   -0.240621432
 -24911.500000000  -82.775156878   -0.240792979
 -24910.000000000  -82.413815644   -0.241001892
 -24908.500000000  -82.052130588   -0.241252022
 -24907.000000000  -81.690037214   -0.241546869
 -24905.500000000  -81.327466039   -0.241889587
 -24904.000000000  -80.964343112   -0.242282978
 -24902.500000000  -80.600590532   -0.242729506
 -24901.000000000  -80.236126960   -0.243231293
 -24899.500000000  -79.870868121   -0.243790133
 -24898.000000000  -79.504727294   -0.244407495
 -24896.500000000  -79.137615794   -0.245084532
 -24895.000000000  -78.769443431   -0.245822094
 -24893.500000000  -78.400118967   -0.246620735
 -24892.000000000  -78.029550545   -0.247480727
 -24890.500000000  -77.657646107   -0.248402068
 -24889.000000000  -77.284313792   -0.249384498
 -24887.500000000  -76.909462319   -0.250427508
 -24886.000000000  -76.533001344   -0.251530357
 -24884.500000000  -76.154841807   -0.252692080
 -24883.000000000  -75.774896249   -0.253911506
 -24881.500000000  -75.393079119   -0.255187267
 -24880.000000000  -75.009307052   -0.256517814
 -24878.500000000  -74.623499138   -0.257901430
 -24877.000000000  -74.235577161   -0.259336242
 -24875.500000000  -73.845465821   -0.260820233
 -24874.000000000  -73.453092944   -0.262351257
 -24872.500000000  -73.058389662   -0.263927053
 -24871.000000000  -72.661290582   -0.265545251
 -24869.500000000  -72.261733935   -0.267203392
 -24868.000000000  -71.859661704   -0.268898933
 -24866.500000000  -71.455019742   -0.270629262
 -24865.000000000  -71.047757860   -0.272391708
 -24863.500000000  -70.637829918   -0.274183553
 -24862.000000000  -70.225193880   -0.276002040
 -24860.500000000  -69.809811869   -0.277844385
 -24859.000000000  -69.391650199   -0.279707784
 -24857.500000000  -68.970679396   -0.281589426
 -24856.000000000  -68.546874207   -0.283486497
 -24854.500000000  -68.120213594   -0.285396192
 -24853.000000000  -67.690680715   -0.287315721
 -24851.500000000  -67.258262899   -0.289242316
 -24850.000000000  -66.822951603   -0.291173240
 -24848.500000000  -66.384742366   -0.293105791
 -24847.000000000  -65.943634747   -0.295037310
 -24845.500000000  -65.499632258   -0.296965186
 -24844.000000000  -65.052742290   -0.298886861
 -24842.500000000  -64.602976026   -0.300799835
 -24841.000000000  -64.150348353   -0.302701672
 -24839.500000000  -63.694877765   -0.304590001
 -24838.000000000  -63.236586257   -0.306462521
 -24836.500000000  -62.775499219   -0.308317009
 -24835.000000000  -62.311645324   -0.310151313
 -24833.500000000  -61.845056407   -0.311963365
 -24832.000000000  -61.375767350   -0.313751177
 -24830.500000000  -60.903815951   -0.315512844
 -24829.000000000  -60.429242803   -0.317246547
 -24827.500000000  -59.952091159   -0.318950555
 -24826.000000000  -59.472406808   -0.320623224
 -24824.500000000  -58.990237937   -0.322262996
 -24823.000000000  -58.505635002   -0.323868407
 -24821.500000000  -58.018650589   -0.325438077
 -24820.000000000  -57.529339285   -0.326970720
 -24818.500000000  -57.037757543   -0.328465136
 -24817.000000000  -56.543963547   -0.329920215
 -24815.500000000  -56.048017080   -0.331334934
 -24814.000000000  -55.549979393   -0.332708358
 -24812.500000000  -55.049913078   -0.334039639
 -24811.000000000  -54.547881932   -0.335328011
 -24809.500000000  -54.043950840   -0.336572794
 -24808.000000000  -53.538185644   -0.337773390
 -24806.500000000  -53.030653024   -0.338929280
 -24805.000000000  -52.521420378   -0.340040024
 -24803.500000000  -52.010555706   -0.341105260
 -24802.000000000  -51.498127498   -0.342124699
 -24800.500000000  -50.984204618   -0.343098124
 -24799.000000000  -50.468856205   -0.344025392
 -24797.500000000  -49.952151561   -0.344906424
 -24796.000000000  -49.434160057   -0.345741209
 -24794.500000000  -48.914951031   -0.346529800
 -24793.000000000  -48.394593699   -0.347272308
 -24791.500000000  -47.873157063   -0.347968906
 -24790.000000000  -47.350709823   -0.348619821
 -24788.500000000  -46.827320302   -0.349225333
 -24787.000000000  -46.303056360   -0.349785775
 -24785.500000000  -45.777985323   -0.350301526
 -24784.000000000  -45.252173914   -0.350773013
 -24782.500000000  -44.725688184   -0.351200703
 -24781.000000000  -44.198593449   -0.351585107
 -24779.500000000  -43.670954234   -0.351926772
 -24778.000000000  -43.142834213   -0.352226281
 -24776.500000000  -42.614296162   -0.352484250
 -24775.000000000  -42.085401911   -0.352701325
 -24773.500000000  -41.556212297   -0.352878182
 -24772.000000000  -41.026787126   -0.353015519
 -24770.500000000  -40.497185137   -0.353114062
 -24769.000000000  -39.967463967   -0.353174553
 -24767.500000000  -39.437680121   -0.353197757
 -24766.000000000  -38.907888950   -0.353184453
 -24764.500000000  -38.378144621   -0.353135434
 -24763.000000000  -37.848500103   -0.353051506
 -24761.500000000  -37.319007148   -0.352933487
 -24760.000000000  -36.789716277   -0.352782199
 -24758.500000000  -36.260676770   -0.352598474
 -24757.000000000  -35.731936657   -0.352383146
 -24755.500000000  -35.203542714   -0.352137053
 -24754.000000000  -34.675540460   -0.351861033
 -24752.500000000  -34.147974159   -0.351555923
 -24751.000000000  -33.620886817   -0.351222559
 -24749.500000000  -33.094320193   -0.350861771
 -24748.000000000  -32.568314802   -0.350474386
 -24746.500000000  -32.042909924   -0.350061222
 -24745.000000000  -31.518143620   -0.349623090
 -24743.500000000  -30.994052737   -0.349160792
 -24742.000000000  -30.470672929   -0.348675120
 -24740.500000000  -29.948038674   -0.348166853
 -24739.000000000  -29.426183284   -0.347636758
 -24737.500000000  -28.905138935   -0.347085590
 -24736.000000000  -28.384936680   -0.346514088
 -24734.500000000  -27.865606475   -0.345922976
 -24733.000000000  -27.347177201   -0.345312963
 -24731.500000000  -26.829676689   -0.344684741
 -24730.000000000  -26.313131745   -0.344038984
 -24728.500000000  -25.797568174   -0.343376350
 -24727.000000000  -25.283010813   -0.342697478
 -24725.500000000  -24.769483550   -0.342002987
 -24724.000000000  -24.257009361   -0.341293478
 -24722.500000000  -23.745610333   -0.340569535
 -24721.000000000  -23.235307694   -0.339831718
 -24719.500000000  -22.726121844   -0.339080571
 -24718.000000000  -22.218072384   -0.338316616
 -24716.500000000  -21.711178146   -0.337540357
 -24715.000000000  -21.205457224   -0.336752275
 -24713.500000000  -20.700927001   -0.335952833
 -24712.000000000  -20.197604182   -0.335142475
 -24710.500000000  -19.695504823   -0.334321622
 -24709.000000000  -19.194644361   -0.333490678
 -24707.500000000  -18.695037643   -0.332650026
 -24706.000000000  -18.196698955   -0.331800030
 -24704.500000000  -17.699642052   -0.330941035
 -24703.000000000  -17.203880186   -0.330073368
 -24701.500000000  -16.709426132   -0.329197334
 -24700.000000000  -16.216292220   -0.328313225
 -24698.500000000  -15.724490358   -0.327421311
 -24697.000000000  -15.234032061   -0.326521847
 -24695.500000000  -14.744928474   -0.325615069
 -24694.000000000  -14.257190400   -0.324701198
 -24692.500000000  -13.770828323   -0.323780439
 -24691.000000000  -13.285852433   -0.322852979
 -24689.500000000  -12.802272648   -0.321918994
 -24688.000000000  -12.320098636   -0.320978641
 -24686.500000000  -11.839339837   -0.320032066
 -24685.000000000  -11.360005484   -0.319079400
 -24683.500000000  -10.882104623   -0.318120762
 -24682.000000000  -10.405646132   -0.317156257
 -24680.500000000   -9.930638737   -0.316185981
 -24679.000000000   -9.457091033   -0.315210016
 -24677.500000000   -8.985011498   -0.314228434
 -24676.000000000   -8.514408509   -0.313241297
 -24674.500000000   -8.045290358   -0.312248658
 -24673.000000000   -7.577665264   -0.311250561
 -24671.500000000   -7.111541387   -0.310247041
 -24670.000000000   -6.646926840   -0.309238125
 -24668.500000000   -6.183829700   -0.308223834
 -24667.000000000   -5.722258018   -0.307204182
 -24665.500000000   -5.262219831   -0.306179176
 -24664.000000000   -4.803723166   -0.305148818
 -24662.500000000   -4.346776053   -0.304113106
 -24661.000000000   -3.891386529   -0.303072032
 -24659.500000000   -3.437562645   -0.302025585
 -24658.000000000   -2.985312469   -0.300973751
 -24656.500000000   -2.534644095   -0.299916512
 -24655.000000000   -2.085565646   -0.298853848
 -24653.500000000   -1.638085273   -0.297785739
 -24652.000000000   -1.192211163   -0.296712161
 -24650.500000000   -0.747951536   -0.295633091
 -24649.000000000   -0.305314650   -0.294548503
 -24647.500000000    0.135691202   -0.293458374
 -24646.000000000    0.575057690   -0.292362680
 -24644.500000000    1.012776448   -0.291261397
 -24643.000000000    1.448839077   -0.290154504
 -24641.500000000    1.883237144   -0.289041979
 -24640.000000000    2.315962190   -0.287923805
 -24638.500000000    2.747005725   -0.286799964
 -24637.000000000    3.176359240   -0.285670442
 -24635.500000000    3.604014205   -0.284535228
 -24634.000000000    4.029962075   -0.283394315
 -24632.500000000    4.454194297   -0.282247697
 -24631.000000000    4.876702312   -0.281095373
 -24629.500000000    5.297477563   -0.279937345
 -24628.000000000    5.716511499   -0.278773621
 -24626.500000000    6.133795583   -0.277604211
 -24625.000000000    6.549321297   -0.276429131
 -24623.500000000    6.963080149   -0.275248399
 -24622.000000000    7.375063681   -0.274062041
 -24620.500000000    7.785263475   -0.272870087
 -24619.000000000    8.193671160   -0.271672569
 -24617.500000000    8.600278420   -0.270469528
 -24616.000000000    9.005077004   -0.269261007
 -24614.500000000    9.408058728   -0.268047057
 -24613.000000000    9.809215487   -0.266827731
 -24611.500000000   10.208539264   -0.265603090
 -24610.000000000   10.606022133   -0.264373199
 -24608.500000000   11.001656271   -0.263138127
 -24607.000000000   11.395433963   -0.261897951
 -24605.500000000   11.787347612   -0.260652751
 -24604.000000000   12.177389746   -0.259402612
 -24602.500000000   12.565553024   -0.258147626
 -24601.000000000   12.951830246   -0.256887887
 -24599.500000000   13.336214360   -0.255623498
 -24598.000000000   13.718698468   -0.254354563
 -24596.500000000   14.099275832   -0.253081193
 -24595.000000000   14.477939886   -0.251803502
 -24593.500000000   14.854684237   -0.250521610
 -24592.000000000   15.229502675   -0.249235639
 -24590.500000000   15.602389180   -0.247945719
 -24589.000000000   15.973337925   -0.246651981
 -24587.500000000   16.342343283   -0.245354561
 -24586.000000000   16.709399836   -0.244053597
 -24584.500000000   17.074502375   -0.242749234
 -24583.000000000   17.437645910   -0.241441617
 -24581.500000000   17.798825673   -0.240130895
 -24580.000000000   18.158037119   -0.238817221
 -24578.500000000   18.515275938   -0.237500751
 -24577.000000000   18.870538053   -0.236181642
 -24575.500000000   19.223819625   -0.234860054
 -24574.000000000   19.575117057   -0.233536150
 -24572.500000000   19.924426998   -0.232210093
 -24571.000000000   20.271746342   -0.230882049
 -24569.500000000   20.617072236   -0.229552187
 -24568.000000000   20.960402078   -0.228220674
 -24566.500000000   21.301733519   -0.226887681
 -24565.000000000   21.641064467   -0.225553378
 -24563.500000000   21.978393085   -0.224217937
 -24562.000000000   22.313717793   -0.222881528
 -24560.500000000   22.647037271   -0.221544324
 -24559.000000000   22.978350455   -0.220206497
 -24557.500000000   23.307656537   -0.218868219
 -24556.000000000   23.634954970   -0.217529659
 -24554.500000000   23.960245459   -0.216190989
 -24553.000000000   24.283527967   -0.214852379
 -24551.500000000   24.604802710   -0.213513996
 -24550.000000000   24.924070153   -0.212176008
 -24548.500000000   25.241331014   -0.210838581
 -24547.000000000   25.556586257   -0.209501878
 -24545.500000000   25.869837090   -0.208166061
 -24544.000000000   26.181084964   -0.206831291
 -24542.500000000   26.490331566   -0.205497726
 -24541.000000000   26.797578820   -0.204165519
 -24539.500000000   27.102828881   -0.202834826
 -24538.000000000   27.406084129   -0.201505795
 -24536.500000000   27.707347169   -0.200178573
 -24535.000000000   28.006620824   -0.198853304
 -24533.500000000   28.303908129   -0.197530130
 -24532.000000000   28.599212330   -0.196209188
 -24530.500000000   28.892536874   -0.194890611
 -24529.000000000   29.183885409   -0.193574529
 -24527.500000000   29.473261774   -0.192261071
 -24526.000000000   29.760669994   -0.190950357
 -24524.500000000   30.046114278   -0.189642508
 -24523.000000000   30.329599007   -0.188337637
 -24521.500000000   30.611128734   -0.187035856
 -24520.000000000   30.890708172   -0.185737270
 -24518.500000000   31.168342193   -0.184441982
 -24517.000000000   31.444035815   -0.183150089
 -24515.500000000   31.717794204   -0.181861685
 -24514.000000000   31.989622658   -0.180576858
 -24512.500000000   32.259526609   -0.179295693
 -24511.000000000   32.527511607   -0.178018269
 -24509.500000000   32.793583323   -0.176744661
 -24508.000000000   33.057747533   -0.175474940
 -24506.500000000   33.320010118   -0.174209171
 -24505.000000000   33.580377053   -0.172947415
 -24503.500000000   33.838854399   -0.171689730
 -24502.000000000   34.095448303   -0.170436166
 -24500.500000000   34.350164981   -0.169186771
 -24499.000000000   34.603010720   -0.167941586
 -24497.500000000   34.853991866   -0.166700651
 -24496.000000000   35.103114816   -0.165463999
 -24494.500000000   35.350386017   -0.164231657
 -24493.000000000   35.595811954   -0.163003650
 -24491.500000000   35.839399145   -0.161779999
 -24490.000000000   36.081154135   -0.160560717
 -24488.500000000   36.321083488   -0.159345818
 -24487.000000000   36.559193782   -0.158135306
 -24485.500000000   36.795491601   -0.156929185
 -24484.000000000   37.029983531   -0.155727453
 -24482.500000000   37.262676153   -0.154530105
 -24481.000000000   37.493576034   -0.153337131
 -24479.500000000   37.722689726   -0.152148517
 -24478.000000000   37.950023758   -0.150964247
 -24476.500000000   38.175584630   -0.149784300
 -24475.000000000   38.399378807   -0.148608650
 -24473.500000000   38.621412716   -0.147437271
 -24472.000000000   38.841692740   -0.146270131
 -24470.500000000   39.060225211   -0.145107195
 -24469.000000000   39.277016409   -0.143948427
 -24467.500000000   39.492072555   -0.142793785
 -24466.000000000   39.705399804   -0.141643225
 -24464.500000000   39.917004249   -0.140496703
 -24463.000000000   40.126891907   -0.139354168
 -24461.500000000   40.335068722   -0.138215570
 -24460.000000000   40.541540559   -0.137080855
 -24458.500000000   40.746313201   -0.135949967
 -24457.000000000   40.949392345   -0.134822848
 -24455.500000000   41.150783601   -0.133699439
 -24454.000000000   41.350492485   -0.132579676
 -24452.500000000   41.548524421   -0.131463497
 -24451.000000000   41.744884736   -0.130350837
 -24449.500000000   41.939578659   -0.129241630
 -24448.000000000   42.132611317   -0.128135807
 -24446.500000000   42.323987737   -0.127033299
 -24445.000000000   42.513712837   -0.125934037
 -24443.500000000   42.701791436   -0.124837950
 -24442.000000000   42.888228240   -0.123744967
 -24440.500000000   43.073027852   -0.122655015
 -24439.000000000   43.256194763   -0.121568021
 -24437.500000000   43.437733357   -0.120483913
 -24436.000000000   43.617647907   -0.119402617
 -24434.500000000   43.795942576   -0.118324060
 -24433.000000000   43.972621418   -0.117248168
 -24431.500000000   44.147688377   -0.116174869
 -24430.000000000   44.321147286   -0.115104090
 -24428.500000000   44.493001870   -0.114035757
 -24427.000000000   44.663255745   -0.112969800
 -24425.500000000   44.831912421   -0.111906145
 -24424.000000000   44.998975298   -0.110844724
 -24422.500000000   45.164447674   -0.109785465
 -24421.000000000   45.328332740   -0.108728299
 -24419.500000000   45.490633585   -0.107673160
 -24418.000000000   45.651353198   -0.106619978
 -24416.500000000   45.810494466   -0.105568690
 -24415.000000000   45.968060182   -0.104519230
 -24413.500000000   46.124053038   -0.103471535
 -24412.000000000   46.278475638   -0.102425544
 -24410.500000000   46.431330490   -0.101381196
 -24409.000000000   46.582620017   -0.100338432
 -24407.500000000   46.732346551   -0.099297197
 -24406.000000000   46.880512344   -0.098257434
 -24404.500000000   47.027119563   -0.097219091
 -24403.000000000   47.172170299   -0.096182115
 -24401.500000000   47.315666566   -0.095146456
 -24400.000000000   47.457610304   -0.094112068
 -24398.500000000   47.598003383   -0.093078904
 -24397.000000000   47.736847607   -0.092046921
 -24395.500000000   47.874144714   -0.091016076
 -24394.000000000   48.009896383   -0.089986329
 -24392.500000000   48.144104233   -0.088957644
 -24391.000000000   48.276769829   -0.087929985
 -24389.500000000   48.407894684   -0.086903318
 -24388.000000000   48.537480263   -0.085877611
 -24386.500000000   48.665527984   -0.084852837
 -24385.000000000   48.792039226   -0.083828968
 -24383.500000000   48.917015327   -0.082805978
 -24382.000000000   49.040457589   -0.081783846
 -24380.500000000   49.162367284   -0.080762551
 -24379.000000000   49.282745652   -0.079742074
 -24377.500000000   49.401593908   -0.078722400
 -24376.000000000   49.518913245   -0.077703513
 -24374.500000000   49.634704836   -0.076685403
 -24373.000000000   49.748969836   -0.075668058
 -24371.500000000   49.861709387   -0.074651470
 -24370.000000000   49.972924622   -0.073635634
 -24368.500000000   50.082616663   -0.072620545
 -24367.000000000   50.190786631   -0.071606202
 -24365.500000000   50.297435641   -0.070592603
 -24364.000000000   50.402564811   -0.069579749
 -24362.500000000   50.506175263   -0.068567645
 -24361.000000000   50.608268123   -0.067556295
 -24359.500000000   50.708844527   -0.066545704
 -24358.000000000   50.807905621   -0.065535882
 -24356.500000000   50.905452563   -0.064526838
 -24355.000000000   51.001486531   -0.063518583
 -24353.500000000   51.096008714   -0.062511130
 -24352.000000000   51.189020327   -0.061504491
 -24350.500000000   51.280522603   -0.060498683
 -24349.000000000   51.370516799   -0.059493721
 -24347.500000000   51.459004199   -0.058489623
 -24346.000000000   51.545986110   -0.057486407
 -24344.500000000   51.631463872   -0.056484093
 -24343.000000000   51.715438851   -0.055482701
 -24341.500000000   51.797912448   -0.054482253
 -24340.000000000   51.878886092   -0.053482769
 -24338.500000000   51.958361248   -0.052484273
 -24337.000000000   52.036339416   -0.051486788
 -24335.500000000   52.112822129   -0.050490337
 -24334.000000000   52.187810956   -0.049494945
 -24332.500000000   52.261307506   -0.048500636
 -24331.000000000   52.333313420   -0.047507436
 -24329.500000000   52.403830379   -0.046515368
 -24328.000000000   52.472860103   -0.045524458
 -24326.500000000   52.540404346   -0.044534732
 -24325.000000000   52.606464903   -0.043546214
 -24323.500000000   52.671043605   -0.042558930
 -24322.000000000   52.734142322   -0.041572904
 -24320.500000000   52.795762958   -0.040588161
 -24319.000000000   52.855907458   -0.039604725
 -24317.500000000   52.914577799   -0.038622620
 -24316.000000000   52.971775996   -0.037641870
 -24314.500000000   53.027504098   -0.036662497
 -24313.000000000   53.081764187   -0.035684524
 -24311.500000000   53.134558381   -0.034707973
 -24310.000000000   53.185888826   -0.033732863
 -24308.500000000   53.235757701   -0.032759215
 -24307.000000000   53.284167213   -0.031787049
 -24305.500000000   53.331119599   -0.030816383
 -24304.000000000   53.376617121   -0.029847234
 -24302.500000000   53.420662067   -0.028879618
 -24301.000000000   53.463256748   -0.027913550
 -24299.500000000   53.504403498   -0.026949045
 -24298.000000000   53.544104671   -0.025986115
 -24296.500000000   53.582362638   -0.025024773
 -24295.000000000   53.619179788   -0.024065028
 -24293.500000000   53.654558525   -0.023106890
 -24292.000000000   53.688501264   -0.022150366
 -24290.500000000   53.721010433   -0.021195463
 -24289.000000000   53.752088467   -0.020242187
 -24287.500000000   53.781737808   -0.019290539
 -24286.000000000   53.809960901   -0.018340524
 -24284.500000000   53.836760197   -0.017392142
 -24283.000000000   53.862138142   -0.016445391
 -24281.500000000   53.886097184   -0.015500270
 -24280.000000000   53.908639764   -0.014556774
 -24278.500000000   53.929768317   -0.013614899
 -24277.000000000   53.949485269   -0.012674638
 -24275.500000000   53.967793035   -0.011735983
 -24274.000000000   53.984694015   -0.010798923
 -24272.500000000   54.000190596   -0.009863448
 -24271.000000000   54.014285144   -0.008929544
 -24269.500000000   54.026980006   -0.007997197
 -24268.000000000   54.038277506   -0.007066392
 -24266.500000000   54.048179943   -0.006137111
 -24265.000000000   54.056689590   -0.005209335
 -24263.500000000   54.063808690   -0.004283044
 -24262.000000000   54.069539454   -0.003358217
 -24260.500000000   54.073884062   -0.002434831
 -24259.000000000   54.076844655   -0.001512861
 -24257.500000000   54.078423341   -0.000592282
 -24256.000000000   54.078622184    0.000326932
 -24254.500000000   54.077443212    0.001244811
 -24253.000000000   54.074888405    0.002161383
 -24251.500000000   54.070959702    0.003076678
 -24250.000000000   54.065658993    0.003990729
 -24248.500000000   54.058988121    0.004903567
 -24247.000000000   54.050948881    0.005815227
 -24245.500000000   54.041543013    0.006725742
 -24244.000000000   54.030772210    0.007635148
 -24242.500000000   54.018638105    0.008543482
 -24241.000000000   54.005142282    0.009450780
 -24239.500000000   53.990286266    0.010357079
 -24238.000000000   53.974071524    0.011262419
 -24236.500000000   53.956499468    0.012166839
 -24235.000000000   53.937571449    0.013070377
 -24233.500000000   53.917288758    0.013973074
 -24232.000000000   53.895652629    0.014874969
 -24230.500000000   53.872664231    0.015776104
 -24229.000000000   53.848324676    0.016676520
 -24227.500000000   53.822635011    0.017576257
 -24226.000000000   53.795596224    0.018475356
 -24224.500000000   53.767209240    0.019373860
 -24223.000000000   53.737474923    0.020271808
 -24221.500000000   53.706394074    0.021169242
 -24220.000000000   53.673967433    0.022066203
 -24218.500000000   53.640195681    0.022962731
 -24217.000000000   53.605079435    0.023858868
 -24215.500000000   53.568619255    0.024754651
 -24214.000000000   53.530815638    0.025650121
 -24212.500000000   53.491669027    0.026545318
 -24211.000000000   53.451179803    0.027440278
 -24209.500000000   53.409348293    0.028335039
 -24208.000000000   53.366174766    0.029229639
 -24206.500000000   53.321659439    0.030124113
 -24205.000000000   53.275802472    0.031018496
 -24203.500000000   53.228603978    0.031912823
 -24202.000000000   53.180064015    0.032807126
 -24200.500000000   53.130182596    0.033701437
 -24199.000000000   53.078959685    0.034595787
 -24197.500000000   53.026395201    0.035490206
 -24196.000000000   52.972489019    0.036384722
 -24194.500000000   52.917240975    0.037279361
 -24193.000000000   52.860650861    0.038174150
 -24191.500000000   52.802718437    0.039069113
 -24190.000000000   52.743443424    0.039964272
 -24188.500000000   52.682825513    0.040859648
 -24187.000000000   52.620864362    0.041755261
 -24185.500000000   52.557559602    0.042651129
 -24184.000000000   52.492910840    0.043547267
 -24182.500000000   52.426917658    0.044443691
 -24181.000000000   52.359579619    0.045340413
 -24179.500000000   52.290896266    0.046237443
 -24178.000000000   52.220867130    0.047134792
 -24176.500000000   52.149491728    0.048032466
 -24175.000000000   52.076769567    0.048930471
 -24173.500000000   52.002700149    0.049828809
 -24172.000000000   51.927282971    0.050727484
 -24170.500000000   51.850517529    0.051626494
 -24169.000000000   51.772403322    0.052525837
 -24167.500000000   51.692939852    0.053425510
 -24166.000000000   51.612126631    0.054325505
 -24164.500000000   51.529963180    0.055225815
 -24163.000000000   51.446449035    0.056126429
 -24161.500000000   51.361583746    0.057027336
 -24160.000000000   51.275366887    0.057928522
 -24158.500000000   51.187798050    0.058829970
 -24157.000000000   51.098876854    0.059731664
 -24155.500000000   51.008602947    0.060633582
 -24154.000000000   50.916976006    0.061535704
 -24152.500000000   50.823995744    0.062438007
 -24151.000000000   50.729661908    0.063340464
 -24149.500000000   50.633974287    0.064243049
 -24148.000000000   50.536932710    0.065145734
 -24146.500000000   50.438537052    0.066048487
 -24145.000000000   50.338787233    0.066951276
 -24143.500000000   50.237683223    0.067854067
 -24142.000000000   50.135225047    0.068756826
 -24140.500000000   50.031412781    0.069659515
 -24139.000000000   49.926246558    0.070562095
 -24137.500000000   49.819726571    0.071464526
 -24136.000000000   49.711853073    0.072366768
 -24134.500000000   49.602626382    0.073268778
 -24133.000000000   49.492046877    0.074170512
 -24131.500000000   49.380115008    0.075071924
 -24130.000000000   49.266831289    0.075972969
 -24128.500000000   49.152196308    0.076873600
 -24127.000000000   49.036210722    0.077773767
 -24125.500000000   48.918875261    0.078673424
 -24124.000000000   48.800190732    0.079572518
 -24122.500000000   48.680158013    0.080471000
 -24121.000000000   48.558778063    0.081368819
 -24119.500000000   48.436051913    0.082265923
 -24118.000000000   48.311980678    0.083162259
 -24116.500000000   48.186565547    0.084057775
 -24115.000000000   48.059807791    0.084952417
 -24113.500000000   47.931708759    0.085846133
 -24112.000000000   47.802269882    0.086738869
 -24110.500000000   47.671492670    0.087630571
 -24109.000000000   47.539378711    0.088521187
 -24107.500000000   47.405929677    0.089410663
 -24106.000000000   47.271147318    0.090298947
 -24104.500000000   47.135033461    0.091185984
 -24103.000000000   46.997590014    0.092071724
 -24101.500000000   46.858818964    0.092956114
 -24100.000000000   46.718722373    0.093839103
 -24098.500000000   46.577302379    0.094720642
 -24097.000000000   46.434561197    0.095600680
 -24095.500000000   46.290501115    0.096479168
 -24094.000000000   46.145124493    0.097356058
 -24092.500000000   45.998433762    0.098231305
 -24091.000000000   45.850431422    0.099104862
 -24089.500000000   45.701120042    0.099976685
 -24088.000000000   45.550502255    0.100846731
 -24086.500000000   45.398580758    0.101714958
 -24085.000000000   45.245358310    0.102581326
 -24083.500000000   45.090837728    0.103445797
 -24082.000000000   44.935021887    0.104308333
 -24080.500000000   44.777913715    0.105168899
 -24079.000000000   44.619516192    0.106027461
 -24077.500000000   44.459832348    0.106883989
 -24076.000000000   44.298865258    0.107738452
 -24074.500000000   44.136618040    0.108590822
 -24073.000000000   43.973093852    0.109441073
 -24071.500000000   43.808295891    0.110289183
 -24070.000000000   43.642227385    0.111135129
 -24068.500000000   43.474891595    0.111978892
 -24067.000000000   43.306291807    0.112820456
 -24065.500000000   43.136431335    0.113659804
 -24064.000000000   42.965313508    0.114496926
 -24062.500000000   42.792941676    0.115331810
 -24061.000000000   42.619319201    0.116164449
 -24059.500000000   42.444449455    0.116994837
 -24058.000000000   42.268335816    0.117822973
 -24056.500000000   42.090981664    0.118648854
 -24055.000000000   41.912390380    0.119472484
 -24053.500000000   41.732565337    0.120293866
 -24052.000000000   41.551509902    0.121113008
 -24050.500000000   41.369227429    0.121929919
 -24049.000000000   41.185721255    0.122744610
 -24047.500000000   41.000994700    0.123557097
 -24046.000000000   40.815051058    0.124367396
 -24044.500000000   40.627893598    0.125175525
 -24043.000000000   40.439525557    0.125981507
 -24041.500000000   40.249950140    0.126785364
 -24040.000000000   40.059170513    0.127587124
 -24038.500000000   39.867189802    0.128386815
 -24037.000000000   39.674011089    0.129184466
 -24035.500000000   39.479637407    0.129980112
 -24034.000000000   39.284071739    0.130773786
 -24032.500000000   39.087317017    0.131565525
 -24031.000000000   38.889376112    0.132355369
 -24029.500000000   38.690251839    0.133143357
 -24028.000000000   38.489946948    0.133929532
 -24026.500000000   38.288464126    0.134713939
 -24025.000000000   38.085805991    0.135496624
 -24023.500000000   37.881975093    0.136277632
 -24022.000000000   37.676973908    0.137057014
 -24020.500000000   37.470804840    0.137834819
 -24019.000000000   37.263470215    0.138611098
 -24017.500000000   37.054972282    0.139385904
 -24016.000000000   36.845313211    0.140159291
 -24014.500000000   36.634495092    0.140931311
 -24013.000000000   36.422519933    0.141702021
 -24011.500000000   36.209389658    0.142471475
 -24010.000000000   35.995106108    0.143239729
 -24008.500000000   35.779671042    0.144006840
 -24007.000000000   35.563086130    0.144772865
 -24005.500000000   35.345352963    0.145537858
 -24004.000000000   35.126473042    0.146301878
 -24002.500000000   34.906447789    0.147064979
 -24001.000000000   34.685278537    0.147827217
 -23999.500000000   34.462966541    0.148588648
 -23998.000000000   34.239512970    0.149349325
 -23996.500000000   34.014918916    0.150109302
 -23995.000000000   33.789185390    0.150868630
 -23993.500000000   33.562313325    0.151627361
 -23992.000000000   33.334303580    0.152385545
 -23990.500000000   33.105156940    0.153143229
 -23989.000000000   32.874874121    0.153900458
 -23987.500000000   32.643455769    0.154657279
 -23986.000000000   32.410902468    0.155413732
 -23984.500000000   32.177214738    0.156169857
 -23983.000000000   31.942393042    0.156925692
 -23981.500000000   31.706437790    0.157681271
 -23980.000000000   31.469349340    0.158436627
 -23978.500000000   31.231128007    0.159191787
 -23977.000000000   30.991774063    0.159946779
 -23975.500000000   30.751287745    0.160701624
 -23974.000000000   30.509669256    0.161456341
 -23972.500000000   30.266918778    0.162210946
 -23971.000000000   30.023036469    0.162965450
 -23969.500000000   29.778022474    0.163719861
 -23968.000000000   29.531876930    0.164474183
 -23966.500000000   29.284599971    0.165228414
 -23965.000000000   29.036191735    0.165982550
 -23963.500000000   28.786652374    0.166736580
 -23962.000000000   28.535982055    0.167490490
 -23960.500000000   28.284180973    0.168244262
 -23959.000000000   28.031249352    0.168997870
 -23957.500000000   27.777187460    0.169751285
 -23956.000000000   27.521995610    0.170504473
 -23954.500000000   27.265674173    0.171257395
 -23953.000000000   27.008223582    0.172010004
 -23951.500000000   26.749644343    0.172762250
 -23950.000000000   26.489937042    0.173514077
 -23948.500000000   26.229102354    0.174265422
 -23947.000000000   25.967141052    0.175016218
 -23945.500000000   25.704054012    0.175766391
 -23944.000000000   25.439842230    0.176515861
 -23942.500000000   25.174506822    0.177264544
 -23941.000000000   24.908049039    0.178012346
 -23939.500000000   24.640470271    0.178759172
 -23938.000000000   24.371772063    0.179504917
 -23936.500000000   24.101956116    0.180249471
 -23935.000000000   23.831024303    0.180992719
 -23933.500000000   23.558978674    0.181734538
 -23932.000000000   23.285821467    0.182474801
 -23930.500000000   23.011555115    0.183213375
 -23929.000000000   22.736182258    0.183950118
 -23927.500000000   22.459705750    0.184684884
 -23926.000000000   22.182128669    0.185417523
 -23924.500000000   21.903454325    0.186147876
 -23923.000000000   21.623686267    0.186875779
 -23921.500000000   21.342828296    0.187601064
 -23920.000000000   21.060884471    0.188323556
 -23918.500000000   20.777859115    0.189043074
 -23917.000000000   20.493756828    0.189759433
 -23915.500000000   20.208582491    0.190472442
 -23914.000000000   19.922341275    0.191181905
 -23912.500000000   19.635038648    0.191887622
 -23911.000000000   19.346680385    0.192589386
 -23909.500000000   19.057272570    0.193286989
 -23908.000000000   18.766821607    0.193980214
 -23906.500000000   18.475334225    0.194668844
 -23905.000000000   18.182817483    0.195352657
 -23903.500000000   17.889278778    0.196031424
 -23902.000000000   17.594725847    0.196704918
 -23900.500000000   17.299166776    0.197372905
 -23899.000000000   17.002610003    0.198035149
 -23897.500000000   16.705064321    0.198691410
 -23896.000000000   16.406538884    0.199341449
 -23894.500000000   16.107043208    0.199985021
 -23893.000000000   15.806587177    0.200621881
 -23891.500000000   15.505181043    0.201251783
 -23890.000000000   15.202835430    0.201874479
 -23888.500000000   14.899561333    0.202489720
 -23887.000000000   14.595370122    0.203097257
 -23885.500000000   14.290273540    0.203696839
 -23884.000000000   13.984283706    0.204288219
 -23882.500000000   13.677413111    0.204871146
 -23881.000000000   13.369674619    0.205445373
 -23879.500000000   13.061081466    0.206010653
 -23878.000000000   12.751647256    0.206566741
 -23876.500000000   12.441385960    0.207113395
 -23875.000000000   12.130311910    0.207650373
 -23873.500000000   11.818439799    0.208177437
 -23872.000000000   11.505784672    0.208694354
 -23870.500000000   11.192361925    0.209200893
 -23869.000000000   10.878187296    0.209696826
 -23867.500000000   10.563276861    0.210181931
 -23866.000000000   10.247647025    0.210655992
 -23864.500000000    9.931314516    0.211118795
 -23863.000000000    9.614296374    0.211570134
 -23861.500000000    9.296609946    0.212009809
 -23860.000000000    8.978272875    0.212437627
 -23858.500000000    8.659303088    0.212853400
 -23857.000000000    8.339718787    0.213256950
 -23855.500000000    8.019538437    0.213648104
 -23854.000000000    7.698780754    0.214026699
 -23852.500000000    7.377464695    0.214392582
 -23851.000000000    7.055609439    0.214745605
 -23849.500000000    6.733234379    0.215085632
 -23848.000000000    6.410359104    0.215412538
 -23846.500000000    6.087003386    0.215726205
 -23845.000000000    5.763187162    0.216026527
 -23843.500000000    5.438930523    0.216313411
 -23842.000000000    5.114253692    0.216586771
 -23840.500000000    4.789177008    0.216846536
 -23839.000000000    4.463720911    0.217092646
 -23837.500000000    4.137905923    0.217325051
 -23836.000000000    3.811752627    0.217543718
 -23834.500000000    3.485281651    0.217748622
 -23833.000000000    3.158513647    0.217939754
 -23831.500000000    2.831469272    0.218117119
 -23830.000000000    2.504169167    0.218280732
 -23828.500000000    2.176633937    0.218430625
 -23827.000000000    1.848884131    0.218566842
 -23825.500000000    1.520940220    0.218689443
 -23824.000000000    1.192822575    0.218798500
 -23822.500000000    0.864551447    0.218894103
 -23821.000000000    0.536146944    0.218976352
 -23819.500000000    0.207629011    0.219045364
 -23818.000000000   -0.120982596    0.219101272
 -23816.500000000   -0.449668326    0.219144222
 -23815.000000000   -0.778408861    0.219174374
 -23813.500000000   -1.107185137    0.219191905
 -23812.000000000   -1.435978360    0.219197005
 -23810.500000000   -1.764770039    0.219189880
 -23809.000000000   -2.093541998    0.219170749
 -23807.500000000   -2.422276401    0.219139848
 -23806.000000000   -2.750955779    0.219097423
 -23804.500000000   -3.079563041    0.219043739
 -23803.000000000   -3.408081504    0.218979072
 -23801.500000000   -3.736494909    0.218903712
 -23800.000000000   -4.064787445    0.218817963
 -23798.500000000   -4.392943762    0.218722143
 -23797.000000000   -4.720949001    0.218616580
 -23795.500000000   -5.048788802    0.218501617
 -23794.000000000   -5.376449329    0.218377609
 -23792.500000000   -5.703917287    0.218244920
 -23791.000000000   -6.031179938    0.218103929
 -23789.500000000   -6.358225116    0.217955022
 -23788.000000000   -6.685041245    0.217798598
 -23786.500000000   -7.011617353    0.217635063
 -23785.000000000   -7.337943086    0.217464834
 -23783.500000000   -7.664008720    0.217288336
 -23782.000000000   -7.989805174    0.217106000
 -23780.500000000   -8.315324022    0.216918267
 -23779.000000000   -8.640557499    0.216725582
 -23777.500000000   -8.965498516    0.216528395
 -23776.000000000   -9.290140662    0.216327164
 -23774.500000000   -9.614478215    0.216122347
 -23773.000000000   -9.938506143    0.215914409
 -23771.500000000  -10.262220112    0.215703813
 -23770.000000000  -10.585616487    0.215491027
 -23768.500000000  -10.908692332    0.215276518
 -23767.000000000  -11.231445412    0.215060752
 -23765.500000000  -11.553874190    0.214844194
 -23764.000000000  -11.875977828    0.214627306
 -23762.500000000  -12.197756174    0.214410549
 -23761.000000000  -12.519209766    0.214194375
 -23759.500000000  -12.840339817    0.213979235
 -23758.000000000  -13.161148208    0.213765569
 -23756.500000000  -13.481637480    0.213553813
 -23755.000000000  -13.801810816    0.213344393
 -23753.500000000  -14.121672033    0.213137722
 -23752.000000000  -14.441225560    0.212934206
 -23750.500000000  -14.760476425    0.212734237
 -23749.000000000  -15.079430233    0.212538193
 -23747.500000000  -15.398093148    0.212346438
 -23746.000000000  -15.716471867    0.212159321
 -23744.500000000  -16.034573596    0.211977172
 -23743.000000000  -16.352406025    0.211800306
 -23741.500000000  -16.669977301    0.211629015
 -23740.000000000  -16.987295995    0.211463573
 -23738.500000000  -17.304371072    0.211304233
 -23737.000000000  -17.621211861    0.211151224
 -23735.500000000  -17.937828013    0.211004752
 -23734.000000000  -18.254229474    0.210864996
 -23732.500000000  -18.570426439    0.210732113
 -23731.000000000  -18.886429315    0.210606230
 -23729.500000000  -19.202248680    0.210487447
 -23728.000000000  -19.517895242    0.210375835
 -23726.500000000  -19.833379790    0.210271434
 -23725.000000000  -20.148713155    0.210174255
 -23723.500000000  -20.463906157    0.210084277
 -23722.000000000  -20.778969560    0.210001444
 -23720.500000000  -21.093914019    0.209925670
 -23719.000000000  -21.408750037    0.209856831
 -23717.500000000  -21.723487903    0.209794773
 -23716.000000000  -22.038137649    0.209739301
 -23714.500000000  -22.352708988    0.209690190
 -23713.000000000  -22.667211266    0.209647173
 -23711.500000000  -22.981653404    0.209609949
 -23710.000000000  -23.296043842    0.209578180
 -23708.500000000  -23.610390483    0.209551488
 -23707.000000000  -23.924700637    0.209529459
 -23705.500000000  -24.238980966    0.209511641
 -23704.000000000  -24.553237421    0.209497544
 -23702.500000000  -24.867475193    0.209486638
 -23701.000000000  -25.181698649    0.209478359
 -23699.500000000  -25.495911281    0.209472102
 -23698.000000000  -25.810115645    0.209467226
 -23696.500000000  -26.124313311    0.209463054
 -23695.000000000  -26.438504802    0.209458872
 -23693.500000000  -26.752689546    0.209453930
 -23692.000000000  -27.066865819    0.209447444
 -23690.500000000  -27.381030697    0.209438596
 -23689.000000000  -27.695180001    0.209426535
 -23687.500000000  -28.009308254    0.209410378
 -23686.000000000  -28.323408632    0.209389213
 -23684.500000000  -28.637472917    0.209362096
 -23683.000000000  -28.951491459    0.209328058
 -23681.500000000  -29.265453132    0.209286103
 -23680.000000000  -29.579345300    0.209235212
 -23678.500000000  -29.893153778    0.209174341
 -23677.000000000  -30.206862803    0.209102430
 -23675.500000000  -30.520455007    0.209018397
 -23674.000000000  -30.833911387    0.208921148
 -23672.500000000  -31.147211287    0.208809572
 -23671.000000000  -31.460332380    0.208682550
 -23669.500000000  -31.773250652    0.208538956
 -23668.000000000  -32.085940394    0.208377655
 -23666.500000000  -32.398374198    0.208197516
 -23665.000000000  -32.710522954    0.207997403
 -23663.500000000  -33.022355856    0.207776189
 -23662.000000000  -33.333840409    0.207532753
 -23660.500000000  -33.644942447    0.207265985
 -23659.000000000  -33.955626152    0.206974793
 -23657.500000000  -34.265854076    0.206658100
 -23656.000000000  -34.575587176    0.206314855
 -23654.500000000  -34.884784852    0.205944032
 -23653.000000000  -35.193404987    0.205544637
 -23651.500000000  -35.501403997    0.205115710
 -23650.000000000  -35.808736891    0.204656332
 -23648.500000000  -36.115357330    0.204165627
 -23647.000000000  -36.421217695    0.203642768
 -23645.500000000  -36.726269167    0.203086979
 -23644.000000000  -37.030461808    0.202497544
 -23642.500000000  -37.333744649    0.201873809
 -23641.000000000  -37.636065790    0.201215186
 -23639.500000000  -37.937372502    0.200521157
 -23638.000000000  -38.237611338    0.199791284
 -23636.500000000  -38.536728251    0.199025207
 -23635.000000000  -38.834668720    0.198222654
 -23633.500000000  -39.131377881    0.197383441
 -23632.000000000  -39.426800667    0.196507481
 -23630.500000000  -39.720881953    0.195594785
 -23629.000000000  -40.013566711    0.194645471
 -23627.500000000  -40.304800166    0.193659761
 -23626.000000000  -40.594527964    0.192637994
 -23624.500000000  -40.882696344    0.191580623
 -23623.000000000  -41.169252315    0.190488221
 -23621.500000000  -41.454143840    0.189361488
 -23620.000000000  -41.737320025    0.188201250
 -23618.500000000  -42.018731315    0.187008465
 -23617.000000000  -42.298329689    0.185784222
 -23615.500000000  -42.576068865    0.184529750
 -23614.000000000  -42.851904506    0.183246415
 -23612.500000000  -43.125794431    0.181935724
 -23611.000000000  -43.397698823    0.180599326
 -23609.500000000  -43.667580447    0.179239012
 -23608.000000000  -43.935404865    0.177856717
 -23606.500000000  -44.201140646    0.176454522
 -23605.000000000  -44.464759588    0.175034646
 -23603.500000000  -44.726236925    0.173599455
 -23602.000000000  -44.985551544    0.172151451
 -23600.500000000  -45.242686189    0.170693274
 -23599.000000000  -45.497627664    0.169227698
 -23597.500000000  -45.750367034    0.167757628
 -23596.000000000  -46.000899813    0.166286092
 -23594.500000000  -46.249226148    0.164816236
 -23593.000000000  -46.495350990    0.163351320
 -23591.500000000  -46.739284258    0.161894707
 -23590.000000000  -46.981040988    0.160449852
 -23588.500000000  -47.220641465    0.159020300
 -23587.000000000  -47.458111344    0.157609663
 -23585.500000000  -47.693481749    0.156221618
 -23584.000000000  -47.926789355    0.154859887
 -23582.500000000  -48.158076441    0.153528221
 -23581.000000000  -48.387390932    0.152230386
 -23579.500000000  -48.614786398    0.150970145
 -23578.000000000  -48.840322034    0.149751234
 -23576.500000000  -49.064062611    0.148577342
 -23575.000000000  -49.286078381    0.147452088
 -23573.500000000  -49.506444955    0.146378993
 -23572.000000000  -49.725243141    0.145361456
 -23570.500000000  -49.942558728    0.144402721
 -23569.000000000  -50.158482239    0.143505846
 -23567.500000000  -50.373108621    0.142673670
 -23566.000000000  -50.586536892    0.141908772
 -23564.500000000  -50.798869726    0.141213440
 -23563.000000000  -51.010212977    0.140589622
 -23561.500000000  -51.220675139    0.140038884
 -23560.000000000  -51.430366745    0.139562364
 -23558.500000000  -51.639399679    0.139160723
 -23557.000000000  -51.847886426    0.138834087
 -23555.500000000  -52.055939225    0.138581998
 -23554.000000000  -52.263669152    0.138403349
 -23552.500000000  -52.471185098    0.138296325
 -23551.000000000  -52.678592658    0.138258334
 -23549.500000000  -52.885992912    0.138285938
 -23548.000000000  -53.093481109    0.138374783
 -23546.500000000  -53.301145225    0.138519518
 -23545.000000000  -53.509064414    0.138713714
 -23543.500000000  -53.717307324    0.138949780
 -23542.000000000  -53.925930291    0.139218874
 -23540.500000000  -54.134975389    0.139510805
 -23539.000000000  -54.344468336    0.139813942
 -23537.500000000  -54.554416254    0.140115102
 -23536.000000000  -54.764805266    0.140399450
 -23534.500000000  -54.975597928    0.140650381
 -23533.000000000  -55.186730487    0.140849402
 -23531.500000000  -55.398109965    0.140976014
 -23530.000000000  -55.609611043    0.141007577
 -23528.500000000  -55.821072757    0.140919180
 -23527.000000000  -56.032294985    0.140683500
 -23525.500000000  -56.243034721    0.140270656
 -23524.000000000  -56.453002124    0.139648057
 -23522.500000000  -56.661856336    0.138780245
 -23521.000000000  -56.869201061    0.137628731
 -23519.500000000  -57.074579890    0.136151825
 -23518.000000000  -57.277471364    0.134304456
 -23516.500000000  -57.477283773    0.132037992
 -23515.000000000  -57.673349665    0.129300045
 -23513.500000000  -57.864920068    0.126034277
 -23512.000000000  -58.051158411    0.122180192
 -23510.500000000  -58.231134127    0.117672923
 -23509.000000000  -58.403815939    0.112443015
 -23507.500000000  -58.568064799    0.106416194
 -23506.000000000  -58.722626489    0.099513133
 -23504.500000000  -58.866123858    0.091649207
 -23503.000000000  -58.997048689    0.082734243
 -23501.500000000  -59.113753177    0.072672256
 -23500.000000000  -59.214441020    0.061361184
