#! FIELDS energy b1.bias der_energy
#! SET min_energy -25000
#! SET max_energy -23500
#! SET nbins_energy  1001
#! SET periodic_energy false
 -25000.000000000 -102.238971867   -0.216775541
 -24998.500000000 -101.917001628   -0.212719766
 -24997.000000000 -101.600251247   -0.209787224
 -24995.500000000 -101.287159826   -0.207815488
 -24994.000000000 -100.976397646   -0.206658532
 -24992.500000000 -100.666842512   -0.206185479
 -24991.000000000 -100.357557921   -0.206279430
 -24989.500000000 -100.047772934   -0.206836353
 -24988.000000000  -99.736863652   -0.207764058
 -24986.500000000  -99.424336198   -0.208981218
 -24985.000000000  -99.109811104   -0.210416468
 -24983.500000000  -98.793009017   -0.212007549
 -24982.000000000  -98.473737636   -0.213700522
 -24980.500000000  -98.151879803   -0.215449019
 -24979.000000000  -97.827382665   -0.217213553
 -24977.500000000  -97.500247842   -0.218960878
 -24976.000000000  -97.170522527   -0.220663381
 -24974.500000000  -96.838291451   -0.222298532
 -24973.000000000  -96.503669661   -0.223848359
 -24971.500000000  -96.166796041   -0.225298973
 -24970.000000000  -95.827827529   -0.226640120
 -24968.500000000  -95.486933979   -0.227864767
 -24967.000000000  -95.144293612   -0.228968729
 -24965.500000000  -94.800089018   -0.229950311
 -24964.000000000  -94.454503662   -0.230809991
 -24962.500000000  -94.107718848   -0.231550120
 -24961.000000000  -93.759911122   -0.232174654
 -24959.500000000  -93.411250049   -0.232688901
 -24958.000000000  -93.061896359   -0.233099300
 -24956.500000000  -92.712000407   -0.233413210
 -24955.000000000  -92.361700937   -0.233638724
 -24953.500000000  -92.011124109   -0.233784503
 -24952.000000000  -91.660382765   -0.233859617
 -24950.500000000  -91.309575920   -0.233873412
 -24949.000000000  -90.958788440   -0.233835386
 -24947.500000000  -90.608090900   -0.233755081
 -24946.000000000  -90.257539592   -0.233641982
 -24944.500000000  -89.907176674   -0.233505437
 -24943.000000000  -89.557030435   -0.233354577
 -24941.500000000  -89.207115667   -0.233198258
 -24940.000000000  -88.857434125   -0.233044998
 -24938.500000000  -88.507975066   -0.232902937
 -24937.000000000  -88.158715849   -0.232779791
 -24935.500000000  -87.809622593   -0.232682828
 -24934.000000000  -87.460650873   -0.232618833
 -24932.500000000  -87.111746454   -0.232594098
 -24931.000000000  -86.762846050   -0.232614401
 -24929.500000000  -86.413878095   -0.232684999
 -24928.000000000  -86.064763532   -0.232810624
 -24926.500000000  -85.715416598   -0.232995483
 -24925.000000000  -85.365745616   -0.233243258
 -24923.500000000  -85.015653775   -0.233557115
 -24922.000000000  -84.665039894   -0.233939711
 -24920.500000000  -84.313799183   -0.234393209
 -24919.000000000  -83.961823971   -0.234919286
 -24917.500000000  -83.609004423   -0.235519154
 -24916.000000000  -83.255229224   -0.236193577
 -24914.500000000  -82.900386243   -0.236942884
 -24913.000000000  -82.544363163   -0.237766997
 -24911.500000000  -82.187048078   -0.238665446
 -24910.000000000  -81.828330069   -0.239637394
 -24908.500000000  -81.468099735   -0.240681656
 -24907.000000000  -81.106249694   -0.241796724
 -24905.500000000  -80.742675058   -0.242980792
 -24904.000000000  -80.377273858   -0.244231772
 -24902.500000000  -80.009947453   -0.245547323
 -24901.000000000  -79.640600886   -0.246924874
 -24899.500000000  -79.269143221   -0.248361640
 -24898.000000000  -78.895487839   -0.249854654
 -24896.500000000  -78.519552702   -0.251400778
 -24895.000000000  -78.141260586   -0.252996736
 -24893.500000000  -77.760539279   -0.254639122
 -24892.000000000  -77.377321756   -0.256324432
 -24890.500000000  -76.991546315   -0.258049075
 -24889.000000000  -76.603156691   -0.259809397
 -24887.500000000  -76.212102136   -0.261601695
 -24886.000000000  -75.818337484   -0.263422236
 -24884.500000000  -75.421823177   -0.265267277
 -24883.000000000  -75.022525277   -0.267133072
 -24881.500000000  -74.620415449   -0.269015895
 -24880.000000000  -74.215470928   -0.270912050
 -24878.500000000  -73.807674461   -0.272817884
 -24877.000000000  -73.397014234   -0.274729803
 -24875.500000000  -72.983483777   -0.276644276
 -24874.000000000  -72.567081856   -0.278557852
 -24872.500000000  -72.147812352   -0.280467169
 -24871.000000000  -71.725684116   -0.282368957
 -24869.500000000  -71.300710826   -0.284260056
 -24868.000000000  -70.872910820   -0.286137413
 -24866.500000000  -70.442306925   -0.287998096
 -24865.000000000  -70.008926276   -0.289839295
 -24863.500000000  -69.572800125   -0.291658329
 -24862.000000000  -69.133963647   -0.293452651
 -24860.500000000  -68.692455736   -0.295219850
 -24859.000000000  -68.248318798   -0.296957654
 -24857.500000000  -67.801598540   -0.298663933
 -24856.000000000  -67.352343756   -0.300336702
 -24854.500000000  -66.900606112   -0.301974118
 -24853.000000000  -66.446439930   -0.303574484
 -24851.500000000  -65.989901964   -0.305136248
 -24850.000000000  -65.531051193   -0.306658002
 -24848.500000000  -65.069948597   -0.308138483
 -24847.000000000  -64.606656946   -0.309576567
 -24845.500000000  -64.141240589   -0.310971272
 -24844.000000000  -63.673765244   -0.312321754
 -24842.500000000  -63.204297796   -0.313627303
 -24841.000000000  -62.732906093   -0.314887341
 -24839.500000000  -62.259658754   -0.316101421
 -24838.000000000  -61.784624973   -0.317269219
 -24836.500000000  -61.307874340   -0.318390534
 -24835.000000000  -60.829476658   -0.319465280
 -24833.500000000  -60.349501771   -0.320493487
 -24832.000000000  -59.868019400   -0.321475292
 -24830.500000000  -59.385098977   -0.322410937
 -24829.000000000  -58.900809501   -0.323300761
 -24827.500000000  -58.415219387   -0.324145201
 -24826.000000000  -57.928396330   -0.324944780
 -24824.500000000  -57.440407176   -0.325700106
 -24823.000000000  -56.951317796   -0.326411867
 -24821.500000000  -56.461192977   -0.327080825
 -24820.000000000  -55.970096308   -0.327707810
 -24818.500000000  -55.478090087   -0.328293716
 -24817.000000000  -54.985235225   -0.328839494
 -24815.500000000  -54.491591165   -0.329346151
 -24814.000000000  -53.997215807   -0.329814738
 -24812.500000000  -53.502165437   -0.330246354
 -24811.000000000  -53.006494667   -0.330642130
 -24809.500000000  -52.510256383   -0.331003235
 -24808.000000000  -52.013501699   -0.331330864
 -24806.500000000  -51.516279920   -0.331626235
 -24805.000000000  -51.018638505   -0.331890586
 -24803.500000000  -50.520623048   -0.332125167
 -24802.000000000  -50.022277258   -0.332331241
 -24800.500000000  -49.523642947   -0.332510073
 -24799.000000000  -49.024760025   -0.332662933
 -24797.500000000  -48.525666503   -0.332791085
 -24796.000000000  -48.026398495   -0.332895789
 -24794.500000000  -47.526990235   -0.332978294
 -24793.000000000  -47.027474094   -0.333039836
 -24791.500000000  -46.527880600   -0.333081632
 -24790.000000000  -46.028238470   -0.333104883
 -24788.500000000  -45.528574637   -0.333110763
 -24787.000000000  -45.028914292   -0.333100421
 -24785.500000000  -44.529280924   -0.333074979
 -24784.000000000  -44.029696361   -0.333035526
 -24782.500000000  -43.530180823   -0.332983119
 -24781.000000000  -43.030752971   -0.332918778
 -24779.500000000  -42.531429962   -0.332843488
 -24778.000000000  -42.032227508   -0.332758192
 -24776.500000000  -41.533159936   -0.332663794
 -24775.000000000  -41.034240247   -0.332561154
 -24773.500000000  -40.535480186   -0.332451089
 -24772.000000000  -40.036890304   -0.332334373
 -24770.500000000  -39.538480028   -0.332211732
 -24769.000000000  -39.040257729   -0.332083846
 -24767.500000000  -38.542230795   -0.331951348
 -24766.000000000  -38.044405696   -0.331814825
 -24764.500000000  -37.546788064   -0.331674813
 -24763.000000000  -37.049382757   -0.331531801
 -24761.500000000  -36.552193938   -0.331386232
 -24760.000000000  -36.055225143   -0.331238498
 -24758.500000000  -35.558479354   -0.331088944
 -24757.000000000  -35.061959072   -0.330937867
 -24755.500000000  -34.565666388   -0.330785518
 -24754.000000000  -34.069603052   -0.330632100
 -24752.500000000  -33.573770542   -0.330477772
 -24751.000000000  -33.078170133   -0.330322646
 -24749.500000000  -32.582802967   -0.330166790
 -24748.000000000  -32.087670114   -0.330010230
 -24746.500000000  -31.592772636   -0.329852949
 -24745.000000000  -31.098111656   -0.329694888
 -24743.500000000  -30.603688410   -0.329535950
 -24742.000000000  -30.109504312   -0.329375999
 -24740.500000000  -29.615561007   -0.329214861
 -24739.000000000  -29.121860427   -0.329052327
 -24737.500000000  -28.628404846   -0.328888154
 -24736.000000000  -28.135196924   -0.328722066
 -24734.500000000  -27.642239759   -0.328553756
 -24733.000000000  -27.149536934   -0.328382888
 -24731.500000000  -26.657092555   -0.328209098
 -24730.000000000  -26.164911295   -0.328031996
 -24728.500000000  -25.672998430   -0.327851168
 -24727.000000000  -25.181359874   -0.327666176
 -24725.500000000  -24.690002213   -0.327476563
 -24724.000000000  -24.198932734   -0.327281852
 -24722.500000000  -23.708159453   -0.327081550
 -24721.000000000  -23.217691136   -0.326875146
 -24719.500000000  -22.727537325   -0.326662119
 -24718.000000000  -22.237708357   -0.326441933
 -24716.500000000  -21.748215376   -0.326214044
 -24715.000000000  -21.259070353   -0.325977898
 -24713.500000000  -20.770286090   -0.325732936
 -24712.000000000  -20.281876235   -0.325478593
 -24710.500000000  -19.793855285   -0.325214301
 -24709.000000000  -19.306238590   -0.324939492
 -24707.500000000  -18.819042353   -0.324653596
 -24706.000000000  -18.332283630   -0.324356046
 -24704.500000000  -17.845980325   -0.324046279
 -24703.000000000  -17.360151183   -0.323723735
 -24701.500000000  -16.874815784   -0.323387863
 -24700.000000000  -16.389994531   -0.323038117
 -24698.500000000  -15.905708637   -0.322673964
 -24697.000000000  -15.421980107   -0.322294877
 -24695.500000000  -14.938831728   -0.321900345
 -24694.000000000  -14.456287044   -0.321489869
 -24692.500000000  -13.974370338   -0.321062962
 -24691.000000000  -13.493106607   -0.320619157
 -24689.500000000  -13.012521542   -0.320158001
 -24688.000000000  -12.532641498   -0.319679058
 -24686.500000000  -12.053493470   -0.319181913
 -24685.000000000  -11.575105059   -0.318666169
 -24683.500000000  -11.097504450   -0.318131451
 -24682.000000000  -10.620720371   -0.317577404
 -24680.500000000  -10.144782069   -0.317003695
 -24679.000000000   -9.669719271   -0.316410016
 -24677.500000000   -9.195562151   -0.315796079
 -24676.000000000   -8.722341295   -0.315161623
 -24674.500000000   -8.250087662   -0.314506410
 -24673.000000000   -7.778832551   -0.313830227
 -24671.500000000   -7.308607560   -0.313132887
 -24670.000000000   -6.839444550   -0.312414228
 -24668.500000000   -6.371375603   -0.311674115
 -24667.000000000   -5.904432986   -0.310912438
 -24665.500000000   -5.438649113   -0.310129113
 -24664.000000000   -4.974056499   -0.309324085
 -24662.500000000   -4.510687726   -0.308497321
 -24661.000000000   -4.048575404   -0.307648820
 -24659.500000000   -3.587752126   -0.306778602
 -24658.000000000   -3.128250433   -0.305886716
 -24656.500000000   -2.670102774   -0.304973239
 -24655.000000000   -2.213341464   -0.304038269
 -24653.500000000   -1.757998651   -0.303081933
 -24652.000000000   -1.304106272   -0.302104384
 -24650.500000000   -0.851696019   -0.301105796
 -24649.000000000   -0.400799301   -0.300086372
 -24647.500000000    0.048552792   -0.299046337
 -24646.000000000    0.496329527   -0.297985938
 -24644.500000000    0.942500561   -0.296905448
 -24643.000000000    1.387035974   -0.295805161
 -24641.500000000    1.829906304   -0.294685393
 -24640.000000000    2.271082580   -0.293546481
 -24638.500000000    2.710536353   -0.292388782
 -24637.000000000    3.148239723   -0.291212676
 -24635.500000000    3.584165373   -0.290018557
 -24634.000000000    4.018286596   -0.288806842
 -24632.500000000    4.450577318   -0.287577964
 -24631.000000000    4.881012130   -0.286332371
 -24629.500000000    5.309566307   -0.285070530
 -24628.000000000    5.736215835   -0.283792921
 -24626.500000000    6.160937433   -0.282500039
 -24625.000000000    6.583708569   -0.281192392
 -24623.500000000    7.004507486   -0.279870501
 -24622.000000000    7.423313217   -0.278534899
 -24620.500000000    7.840105599   -0.277186128
 -24619.000000000    8.254865294   -0.275824742
 -24617.500000000    8.667573797   -0.274451301
 -24616.000000000    9.078213454   -0.273066375
 -24614.500000000    9.486767468   -0.271670541
 -24613.000000000    9.893219914   -0.270264381
 -24611.500000000   10.297555743   -0.268848483
 -24610.000000000   10.699760789   -0.267423437
 -24608.500000000   11.099821779   -0.265989840
 -24607.000000000   11.497726331   -0.264548287
 -24605.500000000   11.893462962   -0.263099378
 -24604.000000000   12.287021087   -0.261643712
 -24602.500000000   12.678391017   -0.260181885
 -24601.000000000   13.067563962   -0.258714497
 -24599.500000000   13.454532025   -0.257242142
 -24598.000000000   13.839288199   -0.255765410
 -24596.500000000   14.221826362   -0.254284891
 -24595.000000000   14.602141271   -0.252801168
 -24593.500000000   14.980228552   -0.251314817
 -24592.000000000   15.356084695   -0.249826410
 -24590.500000000   15.729707038   -0.248336512
 -24589.000000000   16.101093762   -0.246845677
 -24587.500000000   16.470243874   -0.245354454
 -24586.000000000   16.837157198   -0.243863380
 -24584.500000000   17.201834354   -0.242372985
 -24583.000000000   17.564276750   -0.240883784
 -24581.500000000   17.924486558   -0.239396285
 -24580.000000000   18.282466703   -0.237910982
 -24578.500000000   18.638220841   -0.236428355
 -24577.000000000   18.991753342   -0.234948875
 -24575.500000000   19.343069267   -0.233472996
 -24574.000000000   19.692174350   -0.232001158
 -24572.500000000   20.039074976   -0.230533789
 -24571.000000000   20.383778158   -0.229071300
 -24569.500000000   20.726291514   -0.227614087
 -24568.000000000   21.066623247   -0.226162530
 -24566.500000000   21.404782114   -0.224716993
 -24565.000000000   21.740777411   -0.223277825
 -24563.500000000   22.074618939   -0.221845356
 -24562.000000000   22.406316985   -0.220419899
 -24560.500000000   22.735882292   -0.219001753
 -24559.000000000   23.063326039   -0.217591196
 -24557.500000000   23.388659806   -0.216188490
 -24556.000000000   23.711895556   -0.214793879
 -24554.500000000   24.033045603   -0.213407589
 -24553.000000000   24.352122588   -0.212029829
 -24551.500000000   24.669139451   -0.210660789
 -24550.000000000   24.984109402   -0.209300641
 -24548.500000000   25.297045899   -0.207949541
 -24547.000000000   25.607962616   -0.206607623
 -24545.500000000   25.916873419   -0.205275008
 -24544.000000000   26.223792341   -0.203951795
 -24542.500000000   26.528733548   -0.202638069
 -24541.000000000   26.831711323   -0.201333894
 -24539.500000000   27.132740031   -0.200039320
 -24538.000000000   27.431834098   -0.198754377
 -24536.500000000   27.729007986   -0.197479081
 -24535.000000000   28.024276162   -0.196213428
 -24533.500000000   28.317653082   -0.194957400
 -24532.000000000   28.609153159   -0.193710963
 -24530.500000000   28.898790743   -0.192474066
 -24529.000000000   29.186580095   -0.191246643
 -24527.500000000   29.472535370   -0.190028614
 -24526.000000000   29.756670586   -0.188819882
 -24524.500000000   30.038999609   -0.187620337
 -24523.000000000   30.319536129   -0.186429856
 -24521.500000000   30.598293640   -0.185248301
 -24520.000000000   30.875285420   -0.184075522
 -24518.500000000   31.150524513   -0.182911356
 -24517.000000000   31.424023709   -0.181755629
 -24515.500000000   31.695795525   -0.180608152
 -24514.000000000   31.965852193   -0.179468730
 -24512.500000000   32.234205637   -0.178337153
 -24511.000000000   32.500867464   -0.177213203
 -24509.500000000   32.765848945   -0.176096652
 -24508.000000000   33.029161001   -0.174987263
 -24506.500000000   33.290814194   -0.173884792
 -24505.000000000   33.550818709   -0.172788984
 -24503.500000000   33.809184349   -0.171699580
 -24502.000000000   34.065920518   -0.170616312
 -24500.500000000   34.321036216   -0.169538906
 -24499.000000000   34.574540029   -0.168467084
 -24497.500000000   34.826440118   -0.167400561
 -24496.000000000   35.076744217   -0.166339048
 -24494.500000000   35.325459623   -0.165282254
 -24493.000000000   35.572593190   -0.164229881
 -24491.500000000   35.818151328   -0.163181632
 -24490.000000000   36.062139997   -0.162137205
 -24488.500000000   36.304564703   -0.161096298
 -24487.000000000   36.545430500   -0.160058608
 -24485.500000000   36.784741982   -0.159023829
 -24484.000000000   37.022503292   -0.157991659
 -24482.500000000   37.258718112   -0.156961794
 -24481.000000000   37.493389675   -0.155933931
 -24479.500000000   37.726520756   -0.154907770
 -24478.000000000   37.958113685   -0.153883011
 -24476.500000000   38.188170344   -0.152859360
 -24475.000000000   38.416692173   -0.151836524
 -24473.500000000   38.643680177   -0.150814212
 -24472.000000000   38.869134930   -0.149792142
 -24470.500000000   39.093056581   -0.148770031
 -24469.000000000   39.315444865   -0.147747605
 -24467.500000000   39.536299104   -0.146724594
 -24466.000000000   39.755618222   -0.145700734
 -24464.500000000   39.973400753   -0.144675768
 -24463.000000000   40.189644847   -0.143649444
 -24461.500000000   40.404348284   -0.142621519
 -24460.000000000   40.617508485   -0.141591756
 -24458.500000000   40.829122520   -0.140559928
 -24457.000000000   41.039187124   -0.139525812
 -24455.500000000   41.247698707   -0.138489198
 -24454.000000000   41.454653368   -0.137449883
 -24452.500000000   41.660046907   -0.136407671
 -24451.000000000   41.863874840   -0.135362378
 -24449.500000000   42.066132412   -0.134313828
 -24448.000000000   42.266814613   -0.133261856
 -24446.500000000   42.465916192   -0.132206307
 -24445.000000000   42.663431671   -0.131147033
 -24443.500000000   42.859355360   -0.130083900
 -24442.000000000   43.053681378   -0.129016783
 -24440.500000000   43.246403659   -0.127945567
 -24439.000000000   43.437515979   -0.126870150
 -24437.500000000   43.627011961   -0.125790437
 -24436.000000000   43.814885101   -0.124706347
 -24434.500000000   44.001128778   -0.123617809
 -24433.000000000   44.185736274   -0.122524763
 -24431.500000000   44.368700788   -0.121427159
 -24430.000000000   44.550015453   -0.120324959
 -24428.500000000   44.729673354   -0.119218136
 -24427.000000000   44.907667542   -0.118106674
 -24425.500000000   45.083991052   -0.116990566
 -24424.000000000   45.258636919   -0.115869818
 -24422.500000000   45.431598194   -0.114744447
 -24421.000000000   45.602867960   -0.113614478
 -24419.500000000   45.772439347   -0.112479948
 -24418.000000000   45.940305548   -0.111340906
 -24416.500000000   46.106459835   -0.110197407
 -24415.000000000   46.270895575   -0.109049521
 -24413.500000000   46.433606242   -0.107897324
 -24412.000000000   46.594585434   -0.106740902
 -24410.500000000   46.753826886   -0.105580354
 -24409.000000000   46.911324484   -0.104415783
 -24407.500000000   47.067072280   -0.103247304
 -24406.000000000   47.221064504   -0.102075041
 -24404.500000000   47.373295577   -0.100899125
 -24403.000000000   47.523760123   -0.099719695
 -24401.500000000   47.672452980   -0.098536900
 -24400.000000000   47.819369217   -0.097350894
 -24398.500000000   47.964504137   -0.096161838
 -24397.000000000   48.107853292   -0.094969904
 -24395.500000000   48.249412496   -0.093775265
 -24394.000000000   48.389177828   -0.092578105
 -24392.500000000   48.527145644   -0.091378611
 -24391.000000000   48.663312589   -0.090176976
 -24389.500000000   48.797675600   -0.088973398
 -24388.000000000   48.930231915   -0.087768082
 -24386.500000000   49.060979081   -0.086561235
 -24385.000000000   49.189914961   -0.085353069
 -24383.500000000   49.317037735   -0.084143798
 -24382.000000000   49.442345913   -0.082933643
 -24380.500000000   49.565838332   -0.081722824
 -24379.000000000   49.687514165   -0.080511566
 -24377.500000000   49.807372923   -0.079300094
 -24376.000000000   49.925414456   -0.078088638
 -24374.500000000   50.041638959   -0.076877425
 -24373.000000000   50.156046969   -0.075666687
 -24371.500000000   50.268639373   -0.074456654
 -24370.000000000   50.379417399   -0.073247556
 -24368.500000000   50.488382625   -0.072039625
 -24367.000000000   50.595536973   -0.070833090
 -24365.500000000   50.700882709   -0.069628180
 -24364.000000000   50.804422441   -0.068425123
 -24362.500000000   50.906159117   -0.067224144
 -24361.000000000   51.006096024   -0.066025467
 -24359.500000000   51.104236779   -0.064829312
 -24358.000000000   51.200585331   -0.063635898
 -24356.500000000   51.295145951   -0.062445440
 -24355.000000000   51.387923233   -0.061258148
 -24353.500000000   51.478922082   -0.060074230
 -24352.000000000   51.568147712   -0.058893889
 -24350.500000000   51.655605638   -0.057717324
 -24349.000000000   51.741301668   -0.056544727
 -24347.500000000   51.825241897   -0.055376287
 -24346.000000000   51.907432700   -0.054212187
 -24344.500000000   51.987880717   -0.053052604
 -24343.000000000   52.066592854   -0.051897708
 -24341.500000000   52.143576266   -0.050747664
 -24340.000000000   52.218838350   -0.049602629
 -24338.500000000   52.292386735   -0.048462756
 -24337.000000000   52.364229271   -0.047328187
 -24335.500000000   52.434374019   -0.046199060
 -24334.000000000   52.502829238   -0.045075504
 -24332.500000000   52.569603377   -0.043957640
 -24331.000000000   52.634705061   -0.042845582
 -24329.500000000   52.698143079   -0.041739435
 -24328.000000000   52.759926371   -0.040639297
 -24326.500000000   52.820064020   -0.039545258
 -24325.000000000   52.878565234   -0.038457397
 -24323.500000000   52.935439336   -0.037375787
 -24322.000000000   52.990695752   -0.036300491
 -24320.500000000   53.044343995   -0.035231565
 -24319.000000000   53.096393654   -0.034169054
 -24317.500000000   53.146854382   -0.033112995
 -24316.000000000   53.195735880   -0.032063417
 -24314.500000000   53.243047883   -0.031020339
 -24313.000000000   53.288800151   -0.029983771
 -24311.500000000   53.333002451   -0.028953715
 -24310.000000000   53.375664547   -0.027930163
 -24308.500000000   53.416796185   -0.026913100
 -24307.000000000   53.456407080   -0.025902500
 -24305.500000000   53.494506902   -0.024898330
 -24304.000000000   53.531105264   -0.023900547
 -24302.500000000   53.566211712   -0.022909100
 -24301.000000000   53.599835704   -0.021923930
 -24299.500000000   53.631986607   -0.020944969
 -24298.000000000   53.662673678   -0.019972140
 -24296.500000000   53.691906053   -0.019005361
 -24295.000000000   53.719692738   -0.018044538
 -24293.500000000   53.746042594   -0.017089571
 -24292.000000000   53.770964327   -0.016140355
 -24290.500000000   53.794466476   -0.015196773
 -24289.000000000   53.816557403   -0.014258704
 -24287.500000000   53.837245280   -0.013326019
 -24286.000000000   53.856538084   -0.012398583
 -24284.500000000   53.874443582   -0.011476253
 -24283.000000000   53.890969322   -0.010558881
 -24281.500000000   53.906122626   -0.009646313
 -24280.000000000   53.919910582   -0.008738389
 -24278.500000000   53.932340032   -0.007834943
 -24277.000000000   53.943417566   -0.006935806
 -24275.500000000   53.953149515   -0.006040800
 -24274.000000000   53.961541943   -0.005149747
 -24272.500000000   53.968600642   -0.004262463
 -24271.000000000   53.974331122   -0.003378759
 -24269.500000000   53.978738612   -0.002498443
 -24268.000000000   53.981828047   -0.001621320
 -24266.500000000   53.983604069   -0.000747192
 -24265.000000000   53.984071021    0.000124141
 -24263.500000000   53.983232942    0.000992882
 -24262.000000000   53.981093568    0.001859236
 -24260.500000000   53.977656324    0.002723410
 -24259.000000000   53.972924325    0.003585611
 -24257.500000000   53.966900373    0.004446048
 -24256.000000000   53.959586959    0.005304929
 -24254.500000000   53.950986259    0.006162465
 -24253.000000000   53.941100133    0.007018864
 -24251.500000000   53.929930132    0.007874334
 -24250.000000000   53.917477491    0.008729084
 -24248.500000000   53.903743136    0.009583320
 -24247.000000000   53.888727686    0.010437246
 -24245.500000000   53.872431450    0.011291066
 -24244.000000000   53.854854439    0.012144981
 -24242.500000000   53.835996361    0.012999188
 -24241.000000000   53.815856632    0.013853882
 -24239.500000000   53.794434376    0.014709255
 -24238.000000000   53.771728433    0.015565496
 -24236.500000000   53.747737363    0.016422788
 -24235.000000000   53.722459452    0.017281313
 -24233.500000000   53.695892721    0.018141244
 -24232.000000000   53.668034931    0.019002753
 -24230.500000000   53.638883590    0.019866005
 -24229.000000000   53.608435963    0.020731161
 -24227.500000000   53.576689078    0.021598374
 -24226.000000000   53.543639737    0.022467793
 -24224.500000000   53.509284524    0.023339560
 -24223.000000000   53.473619814    0.024213811
 -24221.500000000   53.436641785    0.025090674
 -24220.000000000   53.398346425    0.025970271
 -24218.500000000   53.358729546    0.026852718
 -24217.000000000   53.317786794    0.027738120
 -24215.500000000   53.275513657    0.028626579
 -24214.000000000   53.231905481    0.029518186
 -24212.500000000   53.186957481    0.030413026
 -24211.000000000   53.140664749    0.031311174
 -24209.500000000   53.093022272    0.032212697
 -24208.000000000   53.044024939    0.033117657
 -24206.500000000   52.993667558    0.034026103
 -24205.000000000   52.941944866    0.034938078
 -24203.500000000   52.888851544    0.035853615
 -24202.000000000   52.834382227    0.036772740
 -24200.500000000   52.778531521    0.037695469
 -24199.000000000   52.721294015    0.038621809
 -24197.500000000   52.662664291    0.039551758
 -24196.000000000   52.602636941    0.040485306
 -24194.500000000   52.541206581    0.041422435
 -24193.000000000   52.478367861    0.042363114
 -24191.500000000   52.414115481    0.043307308
 -24190.000000000   52.348444202    0.044254971
 -24188.500000000   52.281348862    0.045206047
 -24187.000000000   52.212824386    0.046160473
 -24185.500000000   52.142865803    0.047118178
 -24184.000000000   52.071468253    0.048079080
 -24182.500000000   51.998627007    0.049043092
 -24181.000000000   51.924337472    0.050010115
 -24179.500000000   51.848595209    0.050980044
 -24178.000000000   51.771395942    0.051952767
 -24176.500000000   51.692735572    0.052928161
 -24175.000000000   51.612610186    0.053906099
 -24173.500000000   51.531016070    0.054886445
 -24172.000000000   51.447949720    0.055869054
 -24170.500000000   51.363407852    0.056853777
 -24169.000000000   51.277387411    0.057840457
 -24167.500000000   51.189885585    0.058828930
 -24166.000000000   51.100899811    0.059819026
 -24164.500000000   51.010427783    0.060810571
 -24163.000000000   50.918467465    0.061803382
 -24161.500000000   50.825017097    0.062797273
 -24160.000000000   50.730075201    0.063792053
 -24158.500000000   50.633640593    0.064787524
 -24157.000000000   50.535712385    0.065783486
 -24155.500000000   50.436289993    0.066779733
 -24154.000000000   50.335373146    0.067776058
 -24152.500000000   50.232961886    0.068772248
 -24151.000000000   50.129056576    0.069768088
 -24149.500000000   50.023657906    0.070763360
 -24148.000000000   49.916766891    0.071757844
 -24146.500000000   49.808384880    0.072751318
 -24145.000000000   49.698513555    0.073743558
 -24143.500000000   49.587154935    0.074734340
 -24142.000000000   49.474311376    0.075723439
 -24140.500000000   49.359985573    0.076710628
 -24139.000000000   49.244180558    0.077695683
 -24137.500000000   49.126899704    0.078678378
 -24136.000000000   49.008146717    0.079658488
 -24134.500000000   48.887925644    0.080635791
 -24133.000000000   48.766240859    0.081610065
 -24131.500000000   48.643097072    0.082581092
 -24130.000000000   48.518499316    0.083548654
 -24128.500000000   48.392452950    0.084512537
 -24127.000000000   48.264963649    0.085472532
 -24125.500000000   48.136037403    0.086428431
 -24124.000000000   48.005680506    0.087380032
 -24122.500000000   47.873899556    0.088327136
 -24121.000000000   47.740701443    0.089269551
 -24119.500000000   47.606093343    0.090207088
 -24118.000000000   47.470082710    0.091139565
 -24116.500000000   47.332677266    0.092066806
 -24115.000000000   47.193884995    0.092988641
 -24113.500000000   47.053714129    0.093904906
 -24112.000000000   46.912173138    0.094815447
 -24110.500000000   46.769270725    0.095720114
 -24109.000000000   46.625015805    0.096618765
 -24107.500000000   46.479417502    0.097511270
 -24106.000000000   46.332485131    0.098397503
 -24104.500000000   46.184228188    0.099277348
 -24103.000000000   46.034656335    0.100150699
 -24101.500000000   45.883779387    0.101017458
 -24100.000000000   45.731607300    0.101877538
 -24098.500000000   45.578150153    0.102730859
 -24097.000000000   45.423418136    0.103577354
 -24095.500000000   45.267421532    0.104416965
 -24094.000000000   45.110170707    0.105249644
 -24092.500000000   44.951676087    0.106075352
 -24091.000000000   44.791948148    0.106894065
 -24089.500000000   44.630997397    0.107705766
 -24088.000000000   44.468834358    0.108510451
 -24086.500000000   44.305469551    0.109308125
 -24085.000000000   44.140913479    0.110098807
 -24083.500000000   43.975176612    0.110882526
 -24082.000000000   43.808269365    0.111659321
 -24080.500000000   43.640202086    0.112429244
 -24079.000000000   43.470985038    0.113192358
 -24077.500000000   43.300628380    0.113948737
 -24076.000000000   43.129142150    0.114698468
 -24074.500000000   42.956536252    0.115441647
 -24073.000000000   42.782820432    0.116178382
 -24071.500000000   42.608004269    0.116908792
 -24070.000000000   42.432097152    0.117633009
 -24068.500000000   42.255108267    0.118351174
 -24067.000000000   42.077046581    0.119063438
 -24065.500000000   41.897920823    0.119769965
 -24064.000000000   41.717739469    0.120470928
 -24062.500000000   41.536510730    0.121166510
 -24061.000000000   41.354242532    0.121856906
 -24059.500000000   41.170942504    0.122542318
 -24058.000000000   40.986617962    0.123222960
 -24056.500000000   40.801275898    0.123899053
 -24055.000000000   40.614922961    0.124570829
 -24053.500000000   40.427565449    0.125238527
 -24052.000000000   40.239209294    0.125902396
 -24050.500000000   40.049860050    0.126562689
 -24049.000000000   39.859522881    0.127219672
 -24047.500000000   39.668202553    0.127873615
 -24046.000000000   39.475903420    0.128524793
 -24044.500000000   39.282629414    0.129173491
 -24043.000000000   39.088384042    0.129819998
 -24041.500000000   38.893170369    0.130464607
 -24040.000000000   38.696991018    0.131107619
 -24038.500000000   38.499848159    0.131749336
 -24037.000000000   38.301743504    0.132390066
 -24035.500000000   38.102678300    0.133030119
 -24034.000000000   37.902653329    0.133669808
 -24032.500000000   37.701668899    0.134309450
 -24031.000000000   37.499724846    0.134949360
 -24029.500000000   37.296820526    0.135589857
 -24028.000000000   37.092954822    0.136231260
 -24026.500000000   36.888126136    0.136873886
 -24025.000000000   36.682332395    0.137518052
 -24023.500000000   36.475571050    0.138164076
 -24022.000000000   36.267839080    0.138812271
 -24020.500000000   36.059132996    0.139462948
 -24019.000000000   35.849448842    0.140116415
 -24017.500000000   35.638782205    0.140772975
 -24016.000000000   35.427128219    0.141432929
 -24014.500000000   35.214481573    0.142096571
 -24013.000000000   35.000836519    0.142764188
 -24011.500000000   34.786186881    0.143436061
 -24010.000000000   34.570526069    0.144112466
 -24008.500000000   34.353847083    0.144793669
 -24007.000000000   34.136142534    0.145479927
 -24005.500000000   33.917404650    0.146171489
 -24004.000000000   33.697625296    0.146868594
 -24002.500000000   33.476795983    0.147571470
 -24001.000000000   33.254907892    0.148280334
 -23999.500000000   33.031951884    0.148995392
 -23998.000000000   32.807918522    0.149716837
 -23996.500000000   32.582798089    0.150444850
 -23995.000000000   32.356580606    0.151179596
 -23993.500000000   32.129255858    0.151921229
 -23992.000000000   31.900813408    0.152669886
 -23990.500000000   31.671242627    0.153425689
 -23989.000000000   31.440532713    0.154188747
 -23987.500000000   31.208672714    0.154959149
 -23986.000000000   30.975651556    0.155736969
 -23984.500000000   30.741458068    0.156522264
 -23983.000000000   30.506081007    0.157315072
 -23981.500000000   30.269509084    0.158115414
 -23980.000000000   30.031730996    0.158923293
 -23978.500000000   29.792735447    0.159738690
 -23977.000000000   29.552511184    0.160561570
 -23975.500000000   29.311047023    0.161391877
 -23974.000000000   29.068331878    0.162229534
 -23972.500000000   28.824354793    0.163074446
 -23971.000000000   28.579104972    0.163926495
 -23969.500000000   28.332571809    0.164785543
 -23968.000000000   28.084744922    0.165651433
 -23966.500000000   27.835614181    0.166523983
 -23965.000000000   27.585169743    0.167402993
 -23963.500000000   27.333402084    0.168288239
 -23962.000000000   27.080302029    0.169179479
 -23960.500000000   26.825860784    0.170076445
 -23959.000000000   26.570069973    0.170978851
 -23957.500000000   26.312921665    0.171886388
 -23956.000000000   26.054408408    0.172798725
 -23954.500000000   25.794523264    0.173715512
 -23953.000000000   25.533259835    0.174636374
 -23951.500000000   25.270612300    0.175560919
 -23950.000000000   25.006575445    0.176488730
 -23948.500000000   24.741144693    0.177419374
 -23947.000000000   24.474316134    0.178352395
 -23945.500000000   24.206086557    0.179287316
 -23944.000000000   23.936453481    0.180223644
 -23942.500000000   23.665415180    0.181160862
 -23941.000000000   23.392970715    0.182098440
 -23939.500000000   23.119119957    0.183035824
 -23938.000000000   22.843863622    0.183972447
 -23936.500000000   22.567203289    0.184907722
 -23935.000000000   22.289141430    0.185841047
 -23933.500000000   22.009681433    0.186771802
 -23932.000000000   21.728827626    0.187699354
 -23930.500000000   21.446585297    0.188623054
 -23929.000000000   21.162960719    0.189542241
 -23927.500000000   20.877961167    0.190456240
 -23926.000000000   20.591594937    0.191364362
 -23924.500000000   20.303871366    0.192265911
 -23923.000000000   20.014800846    0.193160176
 -23921.500000000   19.724394840    0.194046439
 -23920.000000000   19.432665893    0.194923974
 -23918.500000000   19.139627648    0.195792047
 -23917.000000000   18.845294853    0.196649917
 -23915.500000000   18.549683372    0.197496837
 -23914.000000000   18.252810192    0.198332057
 -23912.500000000   17.954693427    0.199154825
 -23911.000000000   17.655352321    0.199964384
 -23909.500000000   17.354807257    0.200759978
 -23908.000000000   17.053079748    0.201540851
 -23906.500000000   16.750192442    0.202306249
 -23905.000000000   16.446169115    0.203055419
 -23903.500000000   16.141034671    0.203787616
 -23902.000000000   15.834815127    0.204502095
 -23900.500000000   15.527537611    0.205198123
 -23899.000000000   15.219230348    0.205874971
 -23897.500000000   14.909922648    0.206531920
 -23896.000000000   14.599644890    0.207168265
 -23894.500000000   14.288428505    0.207783308
 -23893.000000000   13.976305958    0.208376367
 -23891.500000000   13.663310728    0.208946776
 -23890.000000000   13.349477282    0.209493882
 -23888.500000000   13.034841052    0.210017050
 -23887.000000000   12.719438408    0.210515667
 -23885.500000000   12.403306627    0.210989135
 -23884.000000000   12.086483864    0.211436882
 -23882.500000000   11.769009118    0.211858355
 -23881.000000000   11.450922198    0.212253029
 -23879.500000000   11.132263682    0.212620402
 -23878.000000000   10.813074882    0.212959998
 -23876.500000000   10.493397801    0.213271371
 -23875.000000000   10.173275090    0.213554103
 -23873.500000000    9.852750006    0.213807807
 -23872.000000000    9.531866361    0.214032128
 -23870.500000000    9.210668475    0.214226744
 -23869.000000000    8.889201127    0.214391366
 -23867.500000000    8.567509502    0.214525740
 -23866.000000000    8.245639140    0.214629650
 -23864.500000000    7.923635875    0.214702916
 -23863.000000000    7.601545785    0.214745397
 -23861.500000000    7.279415129    0.214756990
 -23860.000000000    6.957290291    0.214737634
 -23858.500000000    6.635217714    0.214687307
 -23857.000000000    6.313243845    0.214606031
 -23855.500000000    5.991415066    0.214493868
 -23854.000000000    5.669777632    0.214350926
 -23852.500000000    5.348377604    0.214177355
 -23851.000000000    5.027260785    0.213973350
 -23849.500000000    4.706472651    0.213739152
 -23848.000000000    4.386058284    0.213475046
 -23846.500000000    4.066062302    0.213181364
 -23845.000000000    3.746528792    0.212858483
 -23843.500000000    3.427501240    0.212506828
 -23842.000000000    3.109022461    0.212126869
 -23840.500000000    2.791134528    0.211719123
 -23839.000000000    2.473878704    0.211284155
 -23837.500000000    2.157295370    0.210822575
 -23836.000000000    1.841423957    0.210335040
 -23834.500000000    1.526302876    0.209822254
 -23833.000000000    1.211969448    0.209284965
 -23831.500000000    0.898459836    0.208723968
 -23830.000000000    0.585808978    0.208140104
 -23828.500000000    0.274050518    0.207534255
 -23827.000000000   -0.036783259    0.206907350
 -23825.500000000   -0.346661490    0.206260360
 -23824.000000000   -0.655554803    0.205594297
 -23822.500000000   -0.963435373    0.204910216
 -23821.000000000   -1.270276989    0.204209211
 -23819.500000000   -1.576055109    0.203492414
 -23818.000000000   -1.880746921    0.202760998
 -23816.500000000   -2.184331397    0.202016169
 -23815.000000000   -2.486789343    0.201259170
 -23813.500000000   -2.788103460    0.200491277
 -23812.000000000   -3.088258382    0.199713799
 -23810.500000000   -3.387240731    0.198928072
 -23809.000000000   -3.685039158    0.198135465
 -23807.500000000   -3.981644382    0.197337370
 -23806.000000000   -4.277049233    0.196535206
 -23804.500000000   -4.571248685    0.195730413
 -23803.000000000   -4.864239888    0.194924453
 -23801.500000000   -5.156022199    0.194118804
 -23800.000000000   -5.446597205    0.193314963
 -23798.500000000   -5.735968746    0.192514438
 -23797.000000000   -6.024142937    0.191718750
 -23795.500000000   -6.311128178    0.190929427
 -23794.000000000   -6.596935169    0.190148005
 -23792.500000000   -6.881576911    0.189376021
 -23791.000000000   -7.165068719    0.188615014
 -23789.500000000   -7.447428211    0.187866522
 -23788.000000000   -7.728675308    0.187132076
 -23786.500000000   -8.008832223    0.186413199
 -23785.000000000   -8.287923447    0.185711406
 -23783.500000000   -8.565975731    0.185028194
 -23782.000000000   -8.843018062    0.184365047
 -23780.500000000   -9.119081635    0.183723426
 -23779.000000000   -9.394199823    0.183104771
 -23777.500000000   -9.668408137    0.182510494
 -23776.000000000   -9.941744186    0.181941979
 -23774.500000000  -10.214247632    0.181400578
 -23773.000000000  -10.485960134    0.180887604
 -23771.500000000  -10.756925298    0.180404335
 -23770.000000000  -11.027188611    0.179952005
 -23768.500000000  -11.296797378    0.179531802
 -23767.000000000  -11.565800652    0.179144867
 -23765.500000000  -11.834249159    0.178792288
 -23764.000000000  -12.102195214    0.178475100
 -23762.500000000  -12.369692644    0.178194279
 -23761.000000000  -12.636796692    0.177950739
 -23759.500000000  -12.903563927    0.177745332
 -23758.000000000  -13.170052148    0.177578843
 -23756.500000000  -13.436320275    0.177451988
 -23755.000000000  -13.702428250    0.177365408
 -23753.500000000  -13.968436921    0.177319670
 -23752.000000000  -14.234407928    0.177315265
 -23750.500000000  -14.500403589    0.177352602
 -23749.000000000  -14.766486770    0.177432007
 -23747.500000000  -15.032720766    0.177553722
 -23746.000000000  -15.299169168    0.177717900
 -23744.500000000  -15.565895731    0.177924606
 -23743.000000000  -15.832964239    0.178173814
 -23741.500000000  -16.100438366    0.178465405
 -23740.000000000  -16.368381538    0.178799162
 -23738.500000000  -16.636856783    0.179174777
 -23737.000000000  -16.905926593    0.179591839
 -23735.500000000  -17.175652774    0.180049844
 -23734.000000000  -17.446096293    0.180548182
 -23732.500000000  -17.717317136    0.181086148
 -23731.000000000  -17.989374149    0.181662933
 -23729.500000000  -18.262324891    0.182277627
 -23728.000000000  -18.536225480    0.182929218
 -23726.500000000  -18.811130441    0.183616595
 -23725.000000000  -19.087092551    0.184338541
 -23723.500000000  -19.364162693    0.185093743
 -23722.000000000  -19.642389701    0.185880784
 -23720.500000000  -19.921820210    0.186698151
 -23719.000000000  -20.202498513    0.187544232
 -23717.500000000  -20.484466411    0.188417318
 -23716.000000000  -20.767763069    0.189315605
 -23714.500000000  -21.052424879    0.190237198
 -23713.000000000  -21.338485323    0.191180110
 -23711.500000000  -21.625974834    0.192142268
 -23710.000000000  -21.914920670    0.193121511
 -23708.500000000  -22.205346790    0.194115599
 -23707.000000000  -22.497273731    0.195122212
 -23705.500000000  -22.790718492    0.196138954
 -23704.000000000  -23.085694427    0.197163360
 -23702.500000000  -23.382211138    0.198192896
 -23701.000000000  -23.680274383    0.199224966
 -23699.500000000  -23.979885979    0.200256918
 -23698.000000000  -24.281043725    0.201286044
 -23696.500000000  -24.583741321    0.202309590
 -23695.000000000  -24.887968308    0.203324761
 -23693.500000000  -25.193710002    0.204328725
 -23692.000000000  -25.500947448    0.205318618
 -23690.500000000  -25.809657379    0.206291555
 -23689.000000000  -26.119812184    0.207244632
 -23687.500000000  -26.431379886    0.208174933
 -23686.000000000  -26.744324137    0.209079542
 -23684.500000000  -27.058604208    0.209955543
 -23683.000000000  -27.374175010    0.210800033
 -23681.500000000  -27.690987110    0.211610128
 -23680.000000000  -28.008986765    0.212382967
 -23678.500000000  -28.328115971    0.213115727
 -23677.000000000  -28.648312516    0.213805626
 -23675.500000000  -28.969510052    0.214449933
 -23674.000000000  -29.291638180    0.215045974
 -23672.500000000  -29.614622539    0.215591145
 -23671.000000000  -29.938384915    0.216082917
 -23669.500000000  -30.262843367    0.216518845
 -23668.000000000  -30.587912351    0.216896577
 -23666.500000000  -30.913502874    0.217213864
 -23665.000000000  -31.239522648    0.217468566
 -23663.500000000  -31.565876266    0.217658662
 -23662.000000000  -31.892465384    0.217782261
 -23660.500000000  -32.219188918    0.217837603
 -23659.000000000  -32.545943257    0.217823078
 -23657.500000000  -32.872622485    0.217737224
 -23656.000000000  -33.199118613    0.217578742
 -23654.500000000  -33.525321829    0.217346500
 -23653.000000000  -33.851120752    0.217039542
 -23651.500000000  -34.176402707    0.216657096
 -23650.000000000  -34.501054000    0.216198578
 -23648.500000000  -34.824960210    0.215663604
 -23647.000000000  -35.148006488    0.215051990
 -23645.500000000  -35.470077869    0.214363762
 -23644.000000000  -35.791059585    0.213599162
 -23642.500000000  -36.110837393    0.212758647
 -23641.000000000  -36.429297907    0.211842901
 -23639.500000000  -36.746328934    0.210852836
 -23638.000000000  -37.061819821    0.209789591
 -23636.500000000  -37.375661800    0.208654541
 -23635.000000000  -37.687748341    0.207449295
 -23633.500000000  -37.997975506    0.206175699
 -23632.000000000  -38.306242300    0.204835835
 -23630.500000000  -38.612451032    0.203432021
 -23629.000000000  -38.916507662    0.201966811
 -23627.500000000  -39.218322156    0.200442990
 -23626.000000000  -39.517808832    0.198863575
 -23624.500000000  -39.814886701    0.197231807
 -23623.000000000  -40.109479805    0.195551149
 -23621.500000000  -40.401517539    0.193825278
 -23620.000000000  -40.690934972    0.192058079
 -23618.500000000  -40.977673151    0.190253636
 -23617.000000000  -41.261679393    0.188416225
 -23615.500000000  -41.542907565    0.186550299
 -23614.000000000  -41.821318342    0.184660482
 -23612.500000000  -42.096879453    0.182751552
 -23611.000000000  -42.369565899    0.180828428
 -23609.500000000  -42.639360162    0.178896158
 -23608.000000000  -42.906252375    0.176959895
 -23606.500000000  -43.170240474    0.175024889
 -23605.000000000  -43.431330329    0.173096460
 -23603.500000000  -43.689535829    0.171179982
 -23602.000000000  -43.944878954    0.169280862
 -23600.500000000  -44.197389801    0.167404513
 -23599.000000000  -44.447106580    0.165556336
 -23597.500000000  -44.694075576    0.163741691
 -23596.000000000  -44.938351068    0.161965872
 -23594.500000000  -45.179995207    0.160234080
 -23593.000000000  -45.419077863    0.158551395
 -23591.500000000  -45.655676413    0.156922746
 -23590.000000000  -45.889875497    0.155352882
 -23588.500000000  -46.121766725    0.153846341
 -23587.000000000  -46.351448332    0.152407415
 -23585.500000000  -46.579024792    0.151040123
 -23584.000000000  -46.804606379    0.149748176
 -23582.500000000  -47.028308682    0.148534941
 -23581.000000000  -47.250252063    0.147403413
 -23579.500000000  -47.470561073    0.146356176
 -23578.000000000  -47.689363815    0.145395373
 -23576.500000000  -47.906791252    0.144522673
 -23575.000000000  -48.122976474    0.143739236
 -23573.500000000  -48.338053912    0.143045684
 -23572.000000000  -48.552158503    0.142442067
 -23570.500000000  -48.765424816    0.141927836
 -23569.000000000  -48.977986126    0.141501814
 -23567.500000000  -49.189973457    0.141162169
 -23566.000000000  -49.401514577    0.140906390
 -23564.500000000  -49.612732969    0.140731269
 -23563.000000000  -49.823746762    0.140632877
 -23561.500000000  -50.034667645    0.140606551
 -23560.000000000  -50.245599758    0.140646885
 -23558.500000000  -50.456638564    0.140747721
 -23557.000000000  -50.667869727    0.140902145
 -23555.500000000  -50.879367975    0.141102495
 -23554.000000000  -51.091195986    0.141340367
 -23552.500000000  -51.303403283    0.141606630
 -23551.000000000  -51.516025166    0.141891451
 -23549.500000000  -51.729081676    0.142184328
 -23548.000000000  -51.942576620    0.142474125
 -23546.500000000  -52.156496661    0.142749125
 -23545.000000000  -52.370810486    0.142997090
 -23543.500000000  -52.585468075    0.143205329
 -23542.000000000  -52.800400088    0.143360786
 -23540.500000000  -53.015517381    0.143450132
 -23539.000000000  -53.230710686    0.143459880
 -23537.500000000  -53.445850458    0.143376507
 -23536.000000000  -53.660786937    0.143186603
 -23534.500000000  -53.875350423    0.142877026
 -23533.000000000  -54.089351824    0.142435087
 -23531.500000000  -54.302583469    0.141848747
 -23530.000000000  -54.514820262    0.141106841
 -23528.500000000  -54.725821164    0.140199327
 -23527.000000000  -54.935331084    0.139117554
 -23525.500000000  -55.143083183    0.137854563
 -23524.000000000  -55.348801654    0.136405414
 -23522.500000000  -55.552205017    0.134767543
 -23521.000000000  -55.753009970    0.132941154
 -23519.500000000  -55.950935856    0.130929643
 -23518.000000000  -56.145709793    0.128740061
 -23516.500000000  -56.337072528    0.126383616
 -23515.000000000  -56.524785073    0.123876213
 -23513.500000000  -56.708636186    0.121239045
 -23512.000000000  -56.888450770    0.118499222
 -23510.500000000  -57.064099259    0.115690458
 -23509.000000000  -57.235508063    0.112853804
 -23507.500000000  -57.402671164    0.110038437
 -23506.000000000  -57.565662932    0.107302514
 -23504.500000000  -57.724652269    0.104714078
 -23503.000000000  -57.879918163    0.102352034
 -23501.500000000  -58.031866757    0.100307197
 -23500.000000000  -58.181050041    0.098683407
