#! FIELDS energy b1.bias der_energy
#! SET min_energy -25000
#! SET max_energy -23500
#! SET nbins_energy  1001
#! SET periodic_energy false
 -25000.000000000 -101.985452890   -0.196631474
 -24998.500000000 -101.690919570   -0.196205666
 -24997.000000000 -101.396491626   -0.196468892
 -24995.500000000 -101.101231178   -0.197296015
 -24994.000000000 -100.804377429   -0.198575868
 -24992.500000000 -100.505326568   -0.200210124
 -24991.000000000 -100.203613308   -0.202112240
 -24989.500000000  -99.898893955   -0.204206472
 -24988.000000000  -99.590930918   -0.206426951
 -24986.500000000  -99.279578547   -0.208716814
 -24985.000000000  -98.964770236   -0.211027403
 -24983.500000000  -98.646506691   -0.213317508
 -24982.000000000  -98.324845288   -0.215552665
 -24980.500000000  -97.999890446   -0.217704506
 -24979.000000000  -97.671784951   -0.219750150
 -24977.500000000  -97.340702148   -0.221671638
 -24976.000000000  -97.006838960   -0.223455411
 -24974.500000000  -96.670409653   -0.225091826
 -24973.000000000  -96.331640301   -0.226574707
 -24971.500000000  -95.990763906   -0.227900931
 -24970.000000000  -95.648016100   -0.229070049
 -24968.500000000  -95.303631411   -0.230083930
 -24967.000000000  -94.957840020   -0.230946447
 -24965.500000000  -94.610864991   -0.231663171
 -24964.000000000  -94.262919920   -0.232241110
 -24962.500000000  -93.914206973   -0.232688458
 -24961.000000000  -93.564915277   -0.233014370
 -24959.500000000  -93.215219631   -0.233228763
 -24958.000000000  -92.865279509   -0.233342126
 -24956.500000000  -92.515238324   -0.233365357
 -24955.000000000  -92.165222929   -0.233309614
 -24953.500000000  -91.815343327   -0.233186182
 -24952.000000000  -91.465692579   -0.233006353
 -24950.500000000  -91.116346866   -0.232781322
 -24949.000000000  -90.767365708   -0.232522093
 -24947.500000000  -90.418792314   -0.232239400
 -24946.000000000  -90.070654036   -0.231943639
 -24944.500000000  -89.722962926   -0.231644804
 -24943.000000000  -89.375716381   -0.231352439
 -24941.500000000  -89.028897841   -0.231075595
 -24940.000000000  -88.682477563   -0.230822799
 -24938.500000000  -88.336413426   -0.230602021
 -24937.000000000  -87.990651780   -0.230420661
 -24935.500000000  -87.645128321   -0.230285526
 -24934.000000000  -87.299768975   -0.230202828
 -24932.500000000  -86.954490804   -0.230178176
 -24931.000000000  -86.609202911   -0.230216577
 -24929.500000000  -86.263807333   -0.230322440
 -24928.000000000  -85.918199940   -0.230499585
 -24926.500000000  -85.572271310   -0.230751249
 -24925.000000000  -85.225907587   -0.231080107
 -24923.500000000  -84.878991323   -0.231488280
 -24922.000000000  -84.531402284   -0.231977360
 -24920.500000000  -84.183018241   -0.232548425
 -24919.000000000  -83.833715717   -0.233202060
 -24917.500000000  -83.483370708   -0.233938386
 -24916.000000000  -83.131859371   -0.234757074
 -24914.500000000  -82.779058672   -0.235657378
 -24913.000000000  -82.424846993   -0.236638157
 -24911.500000000  -82.069104715   -0.237697897
 -24910.000000000  -81.711714746   -0.238834742
 -24908.500000000  -81.352563020   -0.240046518
 -24907.000000000  -80.991538956   -0.241330757
 -24905.500000000  -80.628535879   -0.242684727
 -24904.000000000  -80.263451395   -0.244105451
 -24902.500000000  -79.896187741   -0.245589739
 -24901.000000000  -79.526652085   -0.247134207
 -24899.500000000  -79.154756802   -0.248735305
 -24898.000000000  -78.780419702   -0.250389336
 -24896.500000000  -78.403564234   -0.252092484
 -24895.000000000  -78.024119649   -0.253840832
 -24893.500000000  -77.642021136   -0.255630383
 -24892.000000000  -77.257209924   -0.257457085
 -24890.500000000  -76.869633353   -0.259316843
 -24889.000000000  -76.479244923   -0.261205545
 -24887.500000000  -76.086004306   -0.263119073
 -24886.000000000  -75.689877342   -0.265053326
 -24884.500000000  -75.290836002   -0.267004231
 -24883.000000000  -74.888858337   -0.268967759
 -24881.500000000  -74.483928398   -0.270939941
 -24880.000000000  -74.076036139   -0.272916876
 -24878.500000000  -73.665177302   -0.274894749
 -24877.000000000  -73.251353285   -0.276869839
 -24875.500000000  -72.834570988   -0.278838527
 -24874.000000000  -72.414842658   -0.280797309
 -24872.500000000  -71.992185706   -0.282742803
 -24871.000000000  -71.566622521   -0.284671755
 -24869.500000000  -71.138180272   -0.286581048
 -24868.000000000  -70.706890698   -0.288467705
 -24866.500000000  -70.272789893   -0.290328895
 -24865.000000000  -69.835918087   -0.292161941
 -24863.500000000  -69.396319408   -0.293964316
 -24862.000000000  -68.954041660   -0.295733653
 -24860.500000000  -68.509136077   -0.297467740
 -24859.000000000  -68.061657090   -0.299164530
 -24857.500000000  -67.611662083   -0.300822133
 -24856.000000000  -67.159211152   -0.302438821
 -24854.500000000  -66.704366863   -0.304013028
 -24853.000000000  -66.247194016   -0.305543345
 -24851.500000000  -65.787759399   -0.307028525
 -24850.000000000  -65.326131559   -0.308467473
 -24848.500000000  -64.862380566   -0.309859251
 -24847.000000000  -64.396577787   -0.311203071
 -24845.500000000  -63.928795656   -0.312498291
 -24844.000000000  -63.459107464   -0.313744416
 -24842.500000000  -62.987587136   -0.314941090
 -24841.000000000  -62.514309031   -0.316088093
 -24839.500000000  -62.039347737   -0.317185338
 -24838.000000000  -61.562777878   -0.318232864
 -24836.500000000  -61.084673927   -0.319230831
 -24835.000000000  -60.605110026   -0.320179519
 -24833.500000000  -60.124159816   -0.321079317
 -24832.000000000  -59.641896273   -0.321930722
 -24830.500000000  -59.158391551   -0.322734330
 -24829.000000000  -58.673716836   -0.323490834
 -24827.500000000  -58.187942211   -0.324201016
 -24826.000000000  -57.701136518   -0.324865741
 -24824.500000000  -57.213367245   -0.325485953
 -24823.000000000  -56.724700409   -0.326062667
 -24821.500000000  -56.235200454   -0.326596964
 -24820.000000000  -55.744930156   -0.327089986
 -24818.500000000  -55.253950535   -0.327542932
 -24817.000000000  -54.762320777   -0.327957046
 -24815.500000000  -54.270098168   -0.328333618
 -24814.000000000  -53.777338031   -0.328673975
 -24812.500000000  -53.284093672   -0.328979476
 -24811.000000000  -52.790416337   -0.329251509
 -24809.500000000  -52.296355175   -0.329491482
 -24808.000000000  -51.801957210   -0.329700819
 -24806.500000000  -51.307267319   -0.329880957
 -24805.000000000  -50.812328216   -0.330033341
 -24803.500000000  -50.317180450   -0.330159416
 -24802.000000000  -49.821862402   -0.330260625
 -24800.500000000  -49.326410289   -0.330338406
 -24799.000000000  -48.830858184   -0.330394185
 -24797.500000000  -48.335238030   -0.330429372
 -24796.000000000  -47.839579667   -0.330445361
 -24794.500000000  -47.343910862   -0.330443521
 -24793.000000000  -46.848257346   -0.330425197
 -24791.500000000  -46.352642854   -0.330391705
 -24790.000000000  -45.857089172   -0.330344328
 -24788.500000000  -45.361616187   -0.330284315
 -24787.000000000  -44.866241940   -0.330212876
 -24785.500000000  -44.370982687   -0.330131181
 -24784.000000000  -43.875852958   -0.330040361
 -24782.500000000  -43.380865625   -0.329941497
 -24781.000000000  -42.886031968   -0.329835629
 -24779.500000000  -42.391361746   -0.329723744
 -24778.000000000  -41.896863273   -0.329606783
 -24776.500000000  -41.402543490   -0.329485635
 -24775.000000000  -40.908408044   -0.329361135
 -24773.500000000  -40.414461368   -0.329234068
 -24772.000000000  -39.920706758   -0.329105163
 -24770.500000000  -39.427146460   -0.328975094
 -24769.000000000  -38.933781746   -0.328844483
 -24767.500000000  -38.440613001   -0.328713892
 -24766.000000000  -37.947639804   -0.328583832
 -24764.500000000  -37.454861013   -0.328454755
 -24763.000000000  -36.962274847   -0.328327060
 -24761.500000000  -36.469878969   -0.328201091
 -24760.000000000  -35.977670567   -0.328077135
 -24758.500000000  -35.485646438   -0.327955428
 -24757.000000000  -34.993803067   -0.327836151
 -24755.500000000  -34.502136706   -0.327719432
 -24754.000000000  -34.010643452   -0.327605349
 -24752.500000000  -33.519319325   -0.327493929
 -24751.000000000  -33.028160343   -0.327385150
 -24749.500000000  -32.537162591   -0.327278939
 -24748.000000000  -32.046322298   -0.327175181
 -24746.500000000  -31.555635903   -0.327073712
 -24745.000000000  -31.065100120   -0.326974326
 -24743.500000000  -30.574712007   -0.326876774
 -24742.000000000  -30.084469025   -0.326780766
 -24740.500000000  -29.594369099   -0.326685975
 -24739.000000000  -29.104410674   -0.326592035
 -24737.500000000  -28.614592769   -0.326498545
 -24736.000000000  -28.124915031   -0.326405071
 -24734.500000000  -27.635377781   -0.326311148
 -24733.000000000  -27.145982060   -0.326216280
 -24731.500000000  -26.656729674   -0.326119945
 -24730.000000000  -26.167623233   -0.326021594
 -24728.500000000  -25.678666185   -0.325920656
 -24727.000000000  -25.189862855   -0.325816537
 -24725.500000000  -24.701218472   -0.325708623
 -24724.000000000  -24.212739199   -0.325596284
 -24722.500000000  -23.724432155   -0.325478875
 -24721.000000000  -23.236305440   -0.325355735
 -24719.500000000  -22.748368152   -0.325226193
 -24718.000000000  -22.260630402   -0.325089570
 -24716.500000000  -21.773103328   -0.324945176
 -24715.000000000  -21.285799104   -0.324792320
 -24713.500000000  -20.798730948   -0.324630303
 -24712.000000000  -20.311913123   -0.324458428
 -24710.500000000  -19.825360942   -0.324275996
 -24709.000000000  -19.339090761   -0.324082311
 -24707.500000000  -18.853119983   -0.323876679
 -24706.000000000  -18.367467040   -0.323658415
 -24704.500000000  -17.882151393   -0.323426839
 -24703.000000000  -17.397193514   -0.323181280
 -24701.500000000  -16.912614874   -0.322921078
 -24700.000000000  -16.428437926   -0.322645585
 -24698.500000000  -15.944686084   -0.322354166
 -24697.000000000  -15.461383701   -0.322046203
 -24695.500000000  -14.978556049   -0.321721092
 -24694.000000000  -14.496229291   -0.321378249
 -24692.500000000  -14.014430451   -0.321017107
 -24691.000000000  -13.533187391   -0.320637121
 -24689.500000000  -13.052528774   -0.320237765
 -24688.000000000  -12.572484031   -0.319818539
 -24686.500000000  -12.093083332   -0.319378963
 -24685.000000000  -11.614357546   -0.318918582
 -24683.500000000  -11.136338203   -0.318436968
 -24682.000000000  -10.659057459   -0.317933719
 -24680.500000000  -10.182548054   -0.317408456
 -24679.000000000   -9.706843271   -0.316860833
 -24677.500000000   -9.231976897   -0.316290527
 -24676.000000000   -8.757983178   -0.315697247
 -24674.500000000   -8.284896776   -0.315080729
 -24673.000000000   -7.812752726   -0.314440741
 -24671.500000000   -7.341586392   -0.313777077
 -24670.000000000   -6.871433421   -0.313089563
 -24668.500000000   -6.402329699   -0.312378057
 -24667.000000000   -5.934311304   -0.311642445
 -24665.500000000   -5.467414460   -0.310882643
 -24664.000000000   -5.001675496   -0.310098600
 -24662.500000000   -4.537130792   -0.309290293
 -24661.000000000   -4.073816744   -0.308457731
 -24659.500000000   -3.611769707   -0.307600953
 -24658.000000000   -3.151025960   -0.306720026
 -24656.500000000   -2.691621656   -0.305815048
 -24655.000000000   -2.233592778   -0.304886148
 -24653.500000000   -1.776975097   -0.303933481
 -24652.000000000   -1.321804128   -0.302957232
 -24650.500000000   -0.868115087   -0.301957614
 -24649.000000000   -0.415942851   -0.300934867
 -24647.500000000    0.034678084   -0.299889260
 -24646.000000000    0.483713643   -0.298821084
 -24644.500000000    0.931130212   -0.297730660
 -24643.000000000    1.376894672   -0.296618333
 -24641.500000000    1.820974441   -0.295484469
 -24640.000000000    2.263337508   -0.294329462
 -24638.500000000    2.703952463   -0.293153726
 -24637.000000000    3.142788540   -0.291957698
 -24635.500000000    3.579815640   -0.290741835
 -24634.000000000    4.015004365   -0.289506614
 -24632.500000000    4.448326050   -0.288252532
 -24631.000000000    4.879752789   -0.286980105
 -24629.500000000    5.309257458   -0.285689864
 -24628.000000000    5.736813749   -0.284382359
 -24626.500000000    6.162396184   -0.283058152
 -24625.000000000    6.585980144   -0.281717823
 -24623.500000000    7.007541887   -0.280361962
 -24622.000000000    7.427058567   -0.278991174
 -24620.500000000    7.844508253   -0.277606073
 -24619.000000000    8.259869943   -0.276207285
 -24617.500000000    8.673123582   -0.274795444
 -24616.000000000    9.084250071   -0.273371193
 -24614.500000000    9.493231280   -0.271935180
 -24613.000000000    9.900050058   -0.270488061
 -24611.500000000   10.304690241   -0.269030497
 -24610.000000000   10.707136658   -0.267563151
 -24608.500000000   11.107375138   -0.266086692
 -24607.000000000   11.505392510   -0.264601786
 -24605.500000000   11.901176609   -0.263109105
 -24604.000000000   12.294716273   -0.261609318
 -24602.500000000   12.686001345   -0.260103093
 -24601.000000000   13.075022666   -0.258591095
 -24599.500000000   13.461772077   -0.257073989
 -24598.000000000   13.846242407   -0.255552432
 -24596.500000000   14.228427474   -0.254027078
 -24595.000000000   14.608322067   -0.252498575
 -24593.500000000   14.985921946   -0.250967565
 -24592.000000000   15.361223824   -0.249434679
 -24590.500000000   15.734225360   -0.247900544
 -24589.000000000   16.104925139   -0.246365774
 -24587.500000000   16.473322667   -0.244830974
 -24586.000000000   16.839418345   -0.243296739
 -24584.500000000   17.203213459   -0.241763652
 -24583.000000000   17.564710158   -0.240232281
 -24581.500000000   17.923911440   -0.238703185
 -24580.000000000   18.280821124   -0.237176908
 -24578.500000000   18.635443836   -0.235653977
 -24577.000000000   18.987784985   -0.234134907
 -24575.500000000   19.337850739   -0.232620198
 -24574.000000000   19.685648000   -0.231110331
 -24572.500000000   20.031184386   -0.229605772
 -24571.000000000   20.374468197   -0.228106972
 -24569.500000000   20.715508396   -0.226614361
 -24568.000000000   21.054314582   -0.225128354
 -24566.500000000   21.390896957   -0.223649346
 -24565.000000000   21.725266308   -0.222177715
 -24563.500000000   22.057433969   -0.220713819
 -24562.000000000   22.387411801   -0.219257997
 -24560.500000000   22.715212158   -0.217810571
 -24559.000000000   23.040847861   -0.216371840
 -24557.500000000   23.364332167   -0.214942086
 -24556.000000000   23.685678738   -0.213521569
 -24554.500000000   24.004901615   -0.212110533
 -24553.000000000   24.322015186   -0.210709197
 -24551.500000000   24.637034156   -0.209317763
 -24550.000000000   24.949973518   -0.207936413
 -24548.500000000   25.260848520   -0.206565310
 -24547.000000000   25.569674640   -0.205204593
 -24545.500000000   25.876467555   -0.203854386
 -24544.000000000   26.181243106   -0.202514791
 -24542.500000000   26.484017276   -0.201185891
 -24541.000000000   26.784806159   -0.199867749
 -24539.500000000   27.083625926   -0.198560410
 -24538.000000000   27.380492805   -0.197263900
 -24536.500000000   27.675423044   -0.195978225
 -24535.000000000   27.968432891   -0.194703374
 -24533.500000000   28.259538563   -0.193439318
 -24532.000000000   28.548756218   -0.192186009
 -24530.500000000   28.836101933   -0.190943385
 -24529.000000000   29.121591674   -0.189711363
 -24527.500000000   29.405241274   -0.188489845
 -24526.000000000   29.687066405   -0.187278719
 -24524.500000000   29.967082560   -0.186077854
 -24523.000000000   30.245305025   -0.184887106
 -24521.500000000   30.521748857   -0.183706316
 -24520.000000000   30.796428865   -0.182535310
 -24518.500000000   31.069359586   -0.181373901
 -24517.000000000   31.340555268   -0.180221890
 -24515.500000000   31.610029848   -0.179079062
 -24514.000000000   31.877796935   -0.177945194
 -24512.500000000   32.143869792   -0.176820049
 -24511.000000000   32.408261320   -0.175703380
 -24509.500000000   32.670984041   -0.174594928
 -24508.000000000   32.932050081   -0.173494428
 -24506.500000000   33.191471163   -0.172401602
 -24505.000000000   33.449258584   -0.171316167
 -24503.500000000   33.705423212   -0.170237828
 -24502.000000000   33.959975467   -0.169166287
 -24500.500000000   34.212925318   -0.168101237
 -24499.000000000   34.464282266   -0.167042365
 -24497.500000000   34.714055342   -0.165989353
 -24496.000000000   34.962253095   -0.164941880
 -24494.500000000   35.208883587   -0.163899618
 -24493.000000000   35.453954389   -0.162862237
 -24491.500000000   35.697472572   -0.161829404
 -24490.000000000   35.939444708   -0.160800785
 -24488.500000000   36.179876865   -0.159776042
 -24487.000000000   36.418774603   -0.158754838
 -24485.500000000   36.656142979   -0.157736834
 -24484.000000000   36.891986538   -0.156721694
 -24482.500000000   37.126309323   -0.155709079
 -24481.000000000   37.359114871   -0.154698655
 -24479.500000000   37.590406215   -0.153690087
 -24478.000000000   37.820185893   -0.152683044
 -24476.500000000   38.048455947   -0.151677200
 -24475.000000000   38.275217929   -0.150672228
 -24473.500000000   38.500472909   -0.149667810
 -24472.000000000   38.724221479   -0.148663630
 -24470.500000000   38.946463763   -0.147659377
 -24469.000000000   39.167199423   -0.146654748
 -24467.500000000   39.386427669   -0.145649443
 -24466.000000000   39.604147269   -0.144643171
 -24464.500000000   39.820356557   -0.143635648
 -24463.000000000   40.035053447   -0.142626595
 -24461.500000000   40.248235443   -0.141615745
 -24460.000000000   40.459899651   -0.140602835
 -24458.500000000   40.670042792   -0.139587614
 -24457.000000000   40.878661215   -0.138569838
 -24455.500000000   41.085750912   -0.137549274
 -24454.000000000   41.291307530   -0.136525697
 -24452.500000000   41.495326388   -0.135498892
 -24451.000000000   41.697802492   -0.134468657
 -24449.500000000   41.898730547   -0.133434797
 -24448.000000000   42.098104979   -0.132397130
 -24446.500000000   42.295919946   -0.131355483
 -24445.000000000   42.492169358   -0.130309697
 -24443.500000000   42.686846892   -0.129259622
 -24442.000000000   42.879946011   -0.128205120
 -24440.500000000   43.071459977   -0.127146066
 -24439.000000000   43.261381875   -0.126082345
 -24437.500000000   43.449704627   -0.125013854
 -24436.000000000   43.636421007   -0.123940503
 -24434.500000000   43.821523668   -0.122862214
 -24433.000000000   44.005005148   -0.121778920
 -24431.500000000   44.186857899   -0.120690567
 -24430.000000000   44.367074299   -0.119597112
 -24428.500000000   44.545646670   -0.118498526
 -24427.000000000   44.722567300   -0.117394788
 -24425.500000000   44.897828457   -0.116285895
 -24424.000000000   45.071422408   -0.115171849
 -24422.500000000   45.243341437   -0.114052669
 -24421.000000000   45.413577864   -0.112928384
 -24419.500000000   45.582124057   -0.111799034
 -24418.000000000   45.748972457   -0.110664669
 -24416.500000000   45.914115589   -0.109525354
 -24415.000000000   46.077546079   -0.108381161
 -24413.500000000   46.239256674   -0.107232175
 -24412.000000000   46.399240254   -0.106078491
 -24410.500000000   46.557489849   -0.104920214
 -24409.000000000   46.713998656   -0.103757459
 -24407.500000000   46.868760050   -0.102590352
 -24406.000000000   47.021767604   -0.101419028
 -24404.500000000   47.173015096   -0.100243629
 -24403.000000000   47.322496529   -0.099064309
 -24401.500000000   47.470206142   -0.097881229
 -24400.000000000   47.616138420   -0.096694558
 -24398.500000000   47.760288110   -0.095504475
 -24397.000000000   47.902650230   -0.094311164
 -24395.500000000   48.043220082   -0.093114817
 -24394.000000000   48.181993262   -0.091915633
 -24392.500000000   48.318965666   -0.090713818
 -24391.000000000   48.454133507   -0.089509585
 -24389.500000000   48.587493318   -0.088303148
 -24388.000000000   48.719041963   -0.087094733
 -24386.500000000   48.848776640   -0.085884565
 -24385.000000000   48.976694897   -0.084672877
 -24383.500000000   49.102794628   -0.083459904
 -24382.000000000   49.227074086   -0.082245886
 -24380.500000000   49.349531885   -0.081031066
 -24379.000000000   49.470167006   -0.079815690
 -24377.500000000   49.588978800   -0.078600004
 -24376.000000000   49.705966989   -0.077384259
 -24374.500000000   49.821131674   -0.076168706
 -24373.000000000   49.934473331   -0.074953598
 -24371.500000000   50.045992816   -0.073739186
 -24370.000000000   50.155691363   -0.072525724
 -24368.500000000   50.263570589   -0.071313465
 -24367.000000000   50.369632486   -0.070102661
 -24365.500000000   50.473879424   -0.068893563
 -24364.000000000   50.576314151   -0.067686420
 -24362.500000000   50.676939785   -0.066481480
 -24361.000000000   50.775759815   -0.065278989
 -24359.500000000   50.872778097   -0.064079188
 -24358.000000000   50.967998845   -0.062882318
 -24356.500000000   51.061426635   -0.061688615
 -24355.000000000   51.153066389   -0.060498310
 -24353.500000000   51.242923378   -0.059311631
 -24352.000000000   51.331003209   -0.058128803
 -24350.500000000   51.417311820   -0.056950042
 -24349.000000000   51.501855475   -0.055775562
 -24347.500000000   51.584640750   -0.054605570
 -24346.000000000   51.665674530   -0.053440268
 -24344.500000000   51.744963997   -0.052279851
 -24343.000000000   51.822516619   -0.051124507
 -24341.500000000   51.898340145   -0.049974418
 -24340.000000000   51.972442587   -0.048829758
 -24338.500000000   52.044832216   -0.047690694
 -24337.000000000   52.115517548   -0.046557387
 -24335.500000000   52.184507331   -0.045429987
 -24334.000000000   52.251810535   -0.044308638
 -24332.500000000   52.317436339   -0.043193475
 -24331.000000000   52.381394116   -0.042084624
 -24329.500000000   52.443693427   -0.040982204
 -24328.000000000   52.504343999   -0.039886323
 -24326.500000000   52.563355716   -0.038797081
 -24325.000000000   52.620738608   -0.037714570
 -24323.500000000   52.676502832   -0.036638870
 -24322.000000000   52.730658659   -0.035570053
 -24320.500000000   52.783216464   -0.034508183
 -24319.000000000   52.834186707   -0.033453312
 -24317.500000000   52.883579921   -0.032405483
 -24316.000000000   52.931406695   -0.031364731
 -24314.500000000   52.977677663   -0.030331079
 -24313.000000000   53.022403489   -0.029304542
 -24311.500000000   53.065594848   -0.028285124
 -24310.000000000   53.107262417   -0.027272820
 -24308.500000000   53.147416858   -0.026267616
 -24307.000000000   53.186068803   -0.025269487
 -24305.500000000   53.223228840   -0.024278399
 -24304.000000000   53.258907499   -0.023294309
 -24302.500000000   53.293115239   -0.022317164
 -24301.000000000   53.325862432   -0.021346902
 -24299.500000000   53.357159350   -0.020383451
 -24298.000000000   53.387016152   -0.019426733
 -24296.500000000   53.415442869   -0.018476657
 -24295.000000000   53.442449394   -0.017533126
 -24293.500000000   53.468045465   -0.016596033
 -24292.000000000   53.492240655   -0.015665264
 -24290.500000000   53.515044359   -0.014740697
 -24289.000000000   53.536465781   -0.013822200
 -24287.500000000   53.556513925   -0.012909636
 -24286.000000000   53.575197582   -0.012002858
 -24284.500000000   53.592525316   -0.011101714
 -24283.000000000   53.608505461   -0.010206044
 -24281.500000000   53.623146102   -0.009315682
 -24280.000000000   53.636455073   -0.008430454
 -24278.500000000   53.648439942   -0.007550182
 -24277.000000000   53.659108004   -0.006674681
 -24275.500000000   53.668466275   -0.005803761
 -24274.000000000   53.676521480   -0.004937227
 -24272.500000000   53.683280049   -0.004074879
 -24271.000000000   53.688748108   -0.003216512
 -24269.500000000   53.692931473   -0.002361919
 -24268.000000000   53.695835644   -0.001510885
 -24266.500000000   53.697465801   -0.000663196
 -24265.000000000   53.697826796    0.000181367
 -24263.500000000   53.696923153    0.001023025
 -24262.000000000   53.694759061    0.001862003
 -24260.500000000   53.691338370    0.002698527
 -24259.000000000   53.686664593    0.003532824
 -24257.500000000   53.680740899    0.004365122
 -24256.000000000   53.673570113    0.005195650
 -24254.500000000   53.665154717    0.006024640
 -24253.000000000   53.655496848    0.006852320
 -24251.500000000   53.644598297    0.007678920
 -24250.000000000   53.632460512    0.008504670
 -24248.500000000   53.619084599    0.009329797
 -24247.000000000   53.604471320    0.010154527
 -24245.500000000   53.588621103    0.010979086
 -24244.000000000   53.571534037    0.011803695
 -24242.500000000   53.553209883    0.012628574
 -24241.000000000   53.533648071    0.013453941
 -24239.500000000   53.512847709    0.014280009
 -24238.000000000   53.490807587    0.015106988
 -24236.500000000   53.467526185    0.015935084
 -24235.000000000   53.443001675    0.016764499
 -24233.500000000   53.417231929    0.017595430
 -24232.000000000   53.390214530    0.018428069
 -24230.500000000   53.361946774    0.019262603
 -24229.000000000   53.332425682    0.020099213
 -24227.500000000   53.301648009    0.020938074
 -24226.000000000   53.269610250    0.021779355
 -24224.500000000   53.236308651    0.022623220
 -24223.000000000   53.201739221    0.023469823
 -24221.500000000   53.165897738    0.024319314
 -24220.000000000   53.128779765    0.025171834
 -24218.500000000   53.090380656    0.026027516
 -24217.000000000   53.050695571    0.026886489
 -24215.500000000   53.009719485    0.027748869
 -24214.000000000   52.967447205    0.028614767
 -24212.500000000   52.923873375    0.029484285
 -24211.000000000   52.878992494    0.030357516
 -24209.500000000   52.832798929    0.031234544
 -24208.000000000   52.785286925    0.032115446
 -24206.500000000   52.736450620    0.033000289
 -24205.000000000   52.686284059    0.033889130
 -24203.500000000   52.634781207    0.034782017
 -24202.000000000   52.581935964    0.035678991
 -24200.500000000   52.527742176    0.036580081
 -24199.000000000   52.472193653    0.037485307
 -24197.500000000   52.415284180    0.038394682
 -24196.000000000   52.357007533    0.039308205
 -24194.500000000   52.297357492    0.040225871
 -24193.000000000   52.236327858    0.041147660
 -24191.500000000   52.173912463    0.042073547
 -24190.000000000   52.110105186    0.043003495
 -24188.500000000   52.044899968    0.043937459
 -24187.000000000   51.978290828    0.044875383
 -24185.500000000   51.910271870    0.045817204
 -24184.000000000   51.840837305    0.046762847
 -24182.500000000   51.769981458    0.047712231
 -24181.000000000   51.697698786    0.048665265
 -24179.500000000   51.623983889    0.049621847
 -24178.000000000   51.548831524    0.050581870
 -24176.500000000   51.472236618    0.051545216
 -24175.000000000   51.394194277    0.052511760
 -24173.500000000   51.314699805    0.053481369
 -24172.000000000   51.233748709    0.054453901
 -24170.500000000   51.151336715    0.055429207
 -24169.000000000   51.067459779    0.056407131
 -24167.500000000   50.982114094    0.057387510
 -24166.000000000   50.895296105    0.058370174
 -24164.500000000   50.807002518    0.059354945
 -24163.000000000   50.717230307    0.060341641
 -24161.500000000   50.625976727    0.061330073
 -24160.000000000   50.533239318    0.062320046
 -24158.500000000   50.439015919    0.063311360
 -24157.000000000   50.343304671    0.064303810
 -24155.500000000   50.246104027    0.065297186
 -24154.000000000   50.147412756    0.066291275
 -24152.500000000   50.047229953    0.067285860
 -24151.000000000   49.945555040    0.068280717
 -24149.500000000   49.842387776    0.069275624
 -24148.000000000   49.737728257    0.070270353
 -24146.500000000   49.631576922    0.071264673
 -24145.000000000   49.523934557    0.072258355
 -24143.500000000   49.414802295    0.073251163
 -24142.000000000   49.304181621    0.074242865
 -24140.500000000   49.192074372    0.075233224
 -24139.000000000   49.078482737    0.076222006
 -24137.500000000   48.963409259    0.077208976
 -24136.000000000   48.846856834    0.078193897
 -24134.500000000   48.728828707    0.079176538
 -24133.000000000   48.609328477    0.080156665
 -24131.500000000   48.488360086    0.081134047
 -24130.000000000   48.365927822    0.082108456
 -24128.500000000   48.242036316    0.083079667
 -24127.000000000   48.116690531    0.084047457
 -24125.500000000   47.989895765    0.085011607
 -24124.000000000   47.861657639    0.085971901
 -24122.500000000   47.731982096    0.086928128
 -24121.000000000   47.600875391    0.087880083
 -24119.500000000   47.468344083    0.088827565
 -24118.000000000   47.334395031    0.089770378
 -24116.500000000   47.199035380    0.090708332
 -24115.000000000   47.062272556    0.091641245
 -24113.500000000   46.924114255    0.092568940
 -24112.000000000   46.784568431    0.093491247
 -24110.500000000   46.643643288    0.094408006
 -24109.000000000   46.501347266    0.095319061
 -24107.500000000   46.357689030    0.096224266
 -24106.000000000   46.212677460    0.097123485
 -24104.500000000   46.066321634    0.098016588
 -24103.000000000   45.918630815    0.098903455
 -24101.500000000   45.769614442    0.099783976
 -24100.000000000   45.619282110    0.100658050
 -24098.500000000   45.467643560    0.101525587
 -24097.000000000   45.314708659    0.102386505
 -24095.500000000   45.160487390    0.103240734
 -24094.000000000   45.004989832    0.104088214
 -24092.500000000   44.848226147    0.104928896
 -24091.000000000   44.690206563    0.105762741
 -24089.500000000   44.530941355    0.106589724
 -24088.000000000   44.370440832    0.107409827
 -24086.500000000   44.208715317    0.108223046
 -24085.000000000   44.045775131    0.109029389
 -24083.500000000   43.881630578    0.109828874
 -24082.000000000   43.716291923    0.110621531
 -24080.500000000   43.549769378    0.111407402
 -24079.000000000   43.382073083    0.112186541
 -24077.500000000   43.213213088    0.112959013
 -24076.000000000   43.043199339    0.113724895
 -24074.500000000   42.872041655    0.114484275
 -24073.000000000   42.699749714    0.115237255
 -24071.500000000   42.526333034    0.115983946
 -24070.000000000   42.351800960    0.116724471
 -24068.500000000   42.176162638    0.117458964
 -24067.000000000   41.999427009    0.118187573
 -24065.500000000   41.821602784    0.118910453
 -24064.000000000   41.642698431    0.119627772
 -24062.500000000   41.462722158    0.120339709
 -24061.000000000   41.281681901    0.121046452
 -24059.500000000   41.099585300    0.121748200
 -24058.000000000   40.916439694    0.122445162
 -24056.500000000   40.732252098    0.123137556
 -24055.000000000   40.547029196    0.123825610
 -24053.500000000   40.360777320    0.124509561
 -24052.000000000   40.173502444    0.125189653
 -24050.500000000   39.985210165    0.125866140
 -24049.000000000   39.795905696    0.126539283
 -24047.500000000   39.605593852    0.127209352
 -24046.000000000   39.414279039    0.127876622
 -24044.500000000   39.221965245    0.128541374
 -24043.000000000   39.028656030    0.129203899
 -24041.500000000   38.834354517    0.129864488
 -24040.000000000   38.639063383    0.130523442
 -24038.500000000   38.442784856    0.131181064
 -24037.000000000   38.245520702    0.131837662
 -24035.500000000   38.047272226    0.132493547
 -24034.000000000   37.848040260    0.133149034
 -24032.500000000   37.647825165    0.133804438
 -24031.000000000   37.446626828    0.134460078
 -24029.500000000   37.244444654    0.135116273
 -24028.000000000   37.041277570    0.135773345
 -24026.500000000   36.837124023    0.136431611
 -24025.000000000   36.631981979    0.137091393
 -24023.500000000   36.425848928    0.137753007
 -24022.000000000   36.218721883    0.138416770
 -24020.500000000   36.010597386    0.139082996
 -24019.000000000   35.801471511    0.139751993
 -24017.500000000   35.591339868    0.140424069
 -24016.000000000   35.380197615    0.141099524
 -24014.500000000   35.168039458    0.141778655
 -24013.000000000   34.954859666    0.142461752
 -24011.500000000   34.740652076    0.143149099
 -24010.000000000   34.525410106    0.143840971
 -24008.500000000   34.309126766    0.144537636
 -24007.000000000   34.091794670    0.145239355
 -24005.500000000   33.873406051    0.145946376
 -24004.000000000   33.653952772    0.146658940
 -24002.500000000   33.433426346    0.147377276
 -24001.000000000   33.211817950    0.148101601
 -23999.500000000   32.989118444    0.148832123
 -23998.000000000   32.765318386    0.149569034
 -23996.500000000   32.540408058    0.150312513
 -23995.000000000   32.314377479    0.151062728
 -23993.500000000   32.087216430    0.151819829
 -23992.000000000   31.858914479    0.152583954
 -23990.500000000   31.629460996    0.153355222
 -23989.000000000   31.398845187    0.154133740
 -23987.500000000   31.167056108    0.154919594
 -23986.000000000   30.934082702    0.155712855
 -23984.500000000   30.699913813    0.156513576
 -23983.000000000   30.464538225    0.157321793
 -23981.500000000   30.227944679    0.158137520
 -23980.000000000   29.990121911    0.158960754
 -23978.500000000   29.751058674    0.159791474
 -23977.000000000   29.510743769    0.160629635
 -23975.500000000   29.269166079    0.161475175
 -23974.000000000   29.026314595    0.162328011
 -23972.500000000   28.782178450    0.163188038
 -23971.000000000   28.536746950    0.164055129
 -23969.500000000   28.290009603    0.164929139
 -23968.000000000   28.041956159    0.165809897
 -23966.500000000   27.792576634    0.166697213
 -23965.000000000   27.541861348    0.167590874
 -23963.500000000   27.289800956    0.168490646
 -23962.000000000   27.036386483    0.169396271
 -23960.500000000   26.781609356    0.170307470
 -23959.000000000   26.525461437    0.171223941
 -23957.500000000   26.267935057    0.172145361
 -23956.000000000   26.009023051    0.173071384
 -23954.500000000   25.748718787    0.174001642
 -23953.000000000   25.487016203    0.174935744
 -23951.500000000   25.223909838    0.175873279
 -23950.000000000   24.959394865    0.176813815
 -23948.500000000   24.693467120    0.177756897
 -23947.000000000   24.426123139    0.178702049
 -23945.500000000   24.157360185    0.179648776
 -23944.000000000   23.887176282    0.180596561
 -23942.500000000   23.615570240    0.181544870
 -23941.000000000   23.342541688    0.182493146
 -23939.500000000   23.068091105    0.183440816
 -23938.000000000   22.792219841    0.184387287
 -23936.500000000   22.514930149    0.185331949
 -23935.000000000   22.236225210    0.186274176
 -23933.500000000   21.956109159    0.187213324
 -23932.000000000   21.674587106    0.188148734
 -23930.500000000   21.391665161    0.189079732
 -23929.000000000   21.107350458    0.190005630
 -23927.500000000   20.821651171    0.190925726
 -23926.000000000   20.534576537    0.191839307
 -23924.500000000   20.246136872    0.192745646
 -23923.000000000   19.956343589    0.193644007
 -23921.500000000   19.665209211    0.194533646
 -23920.000000000   19.372747389    0.195413807
 -23918.500000000   19.078972909    0.196283729
 -23917.000000000   18.783901707    0.197142642
 -23915.500000000   18.487550874    0.197989773
 -23914.000000000   18.189938668    0.198824344
 -23912.500000000   17.891084513    0.199645573
 -23911.000000000   17.591009011    0.200452677
 -23909.500000000   17.289733936    0.201244873
 -23908.000000000   16.987282239    0.202021376
 -23906.500000000   16.683678046    0.202781405
 -23905.000000000   16.378946651    0.203524182
 -23903.500000000   16.073114514    0.204248933
 -23902.000000000   15.766209250    0.204954889
 -23900.500000000   15.458259623    0.205641291
 -23899.000000000   15.149295531    0.206307385
 -23897.500000000   14.839347994    0.206952428
 -23896.000000000   14.528449138    0.207575690
 -23894.500000000   14.216632174    0.208176452
 -23893.000000000   13.903931384    0.208754009
 -23891.500000000   13.590382093    0.209307673
 -23890.000000000   13.276020648    0.209836771
 -23888.500000000   12.960884389    0.210340650
 -23887.000000000   12.645011623    0.210818677
 -23885.500000000   12.328441592    0.211270237
 -23884.000000000   12.011214440    0.211694742
 -23882.500000000   11.693371176    0.212091626
 -23881.000000000   11.374953643    0.212460348
 -23879.500000000   11.056004472    0.212800393
 -23878.000000000   10.736567044    0.213111278
 -23876.500000000   10.416685448    0.213392545
 -23875.000000000   10.096404432    0.213643768
 -23873.500000000    9.775769361    0.213864556
 -23872.000000000    9.454826162    0.214054548
 -23870.500000000    9.133621278    0.214213419
 -23869.000000000    8.812201613    0.214340879
 -23867.500000000    8.490614475    0.214436676
 -23866.000000000    8.168907525    0.214500595
 -23864.500000000    7.847128715    0.214532463
 -23863.000000000    7.525326230    0.214532143
 -23861.500000000    7.203548426    0.214499543
 -23860.000000000    6.881843767    0.214434611
 -23858.500000000    6.560260763    0.214337339
 -23857.000000000    6.238847903    0.214207763
 -23855.500000000    5.917653586    0.214045964
 -23854.000000000    5.596726060    0.213852068
 -23852.500000000    5.276113346    0.213626247
 -23851.000000000    4.955863173    0.213368721
 -23849.500000000    4.636022904    0.213079756
 -23848.000000000    4.316639469    0.212759667
 -23846.500000000    3.997759286    0.212408816
 -23845.000000000    3.679428196    0.212027616
 -23843.500000000    3.361691385    0.211616525
 -23842.000000000    3.044593311    0.211176054
 -23840.500000000    2.728177634    0.210706761
 -23839.000000000    2.412487136    0.210209253
 -23837.500000000    2.097563655    0.209684187
 -23836.000000000    1.783448004    0.209132267
 -23834.500000000    1.470179902    0.208554250
 -23833.000000000    1.157797903    0.207950936
 -23831.500000000    0.846339319    0.207323176
 -23830.000000000    0.535840150    0.206671869
 -23828.500000000    0.226335015    0.205997958
 -23827.000000000   -0.082142917    0.205302435
 -23825.500000000   -0.389562000    0.204586335
 -23824.000000000   -0.695892174    0.203850740
 -23822.500000000   -1.001105033    0.203096773
 -23821.000000000   -1.305173889    0.202325600
 -23819.500000000   -1.608073833    0.201538429
 -23818.000000000   -1.909781800    0.200736508
 -23816.500000000   -2.210276623    0.199921121
 -23815.000000000   -2.509539093    0.199093593
 -23813.500000000   -2.807552010    0.198255282
 -23812.000000000   -3.104300242    0.197407579
 -23810.500000000   -3.399770764    0.196551909
 -23809.000000000   -3.693952713    0.195689727
 -23807.500000000   -3.986837429    0.194822515
 -23806.000000000   -4.278418495    0.193951781
 -23804.500000000   -4.568691777    0.193079059
 -23803.000000000   -4.857655454    0.192205902
 -23801.500000000   -5.145310054    0.191333886
 -23800.000000000   -5.431658477    0.190464601
 -23798.500000000   -5.716706024    0.189599652
 -23797.000000000   -6.000460410    0.188740657
 -23795.500000000   -6.282931785    0.187889243
 -23794.000000000   -6.564132746    0.187047043
 -23792.500000000   -6.844078341    0.186215695
 -23791.000000000   -7.122786077    0.185396836
 -23789.500000000   -7.400275913    0.184592103
 -23788.000000000   -7.676570265    0.183803127
 -23786.500000000   -7.951693983    0.183031529
 -23785.000000000   -8.225674349    0.182278923
 -23783.500000000   -8.498541048    0.181546906
 -23782.000000000   -8.770326150    0.180837056
 -23780.500000000   -9.041064079    0.180150933
 -23779.000000000   -9.310791580    0.179490072
 -23777.500000000   -9.579547679    0.178855979
 -23776.000000000   -9.847373640    0.178250131
 -23774.500000000  -10.114312916    0.177673970
 -23773.000000000  -10.380411098    0.177128902
 -23771.500000000  -10.645715850    0.176616289
 -23770.000000000  -10.910276853    0.176137451
 -23768.500000000  -11.174145728    0.175693660
 -23767.000000000  -11.437375969    0.175286137
 -23765.500000000  -11.700022858    0.174916048
 -23764.000000000  -11.962143386    0.174584502
 -23762.500000000  -12.223796160    0.174292546
 -23761.000000000  -12.485041312    0.174041165
 -23759.500000000  -12.745940400    0.173831273
 -23758.000000000  -13.006556302    0.173663718
 -23756.500000000  -13.266953110    0.173539271
 -23755.000000000  -13.527196019    0.173458628
 -23753.500000000  -13.787351205    0.173422404
 -23752.000000000  -14.047485710    0.173431134
 -23750.500000000  -14.307667310    0.173485267
 -23749.000000000  -14.567964393    0.173585163
 -23747.500000000  -14.828445817    0.173731093
 -23746.000000000  -15.089180780    0.173923237
 -23744.500000000  -15.350238677    0.174161677
 -23743.000000000  -15.611688956    0.174446402
 -23741.500000000  -15.873600971    0.174777299
 -23740.000000000  -16.136043834    0.175154155
 -23738.500000000  -16.399086259    0.175576655
 -23737.000000000  -16.662796415    0.176044382
 -23735.500000000  -16.927241760    0.176556812
 -23734.000000000  -17.192488889    0.177113315
 -23732.500000000  -17.458603374    0.177713154
 -23731.000000000  -17.725649600    0.178355485
 -23729.500000000  -17.993690602    0.179039356
 -23728.000000000  -18.262787910    0.179763706
 -23726.500000000  -18.533001377    0.180527365
 -23725.000000000  -18.804389022    0.181329055
 -23723.500000000  -19.077006867    0.182167392
 -23722.000000000  -19.350908775    0.183040881
 -23720.500000000  -19.626146290    0.183947926
 -23719.000000000  -19.902768479    0.184886821
 -23717.500000000  -20.180821776    0.185855760
 -23716.000000000  -20.460349827    0.186852833
 -23714.500000000  -20.741393339    0.187876031
 -23713.000000000  -21.023989932    0.188923249
 -23711.500000000  -21.308173997    0.189992285
 -23710.000000000  -21.593976552    0.191080847
 -23708.500000000  -21.881425110    0.192186551
 -23707.000000000  -22.170543545    0.193306931
 -23705.500000000  -22.461351969    0.194439438
 -23704.000000000  -22.753866611    0.195581446
 -23702.500000000  -23.048099707    0.196730253
 -23701.000000000  -23.344059387    0.197883092
 -23699.500000000  -23.641749584    0.199037131
 -23698.000000000  -23.941169934    0.200189478
 -23696.500000000  -24.242315699    0.201337189
 -23695.000000000  -24.545177688    0.202477274
 -23693.500000000  -24.849742191    0.203606699
 -23692.000000000  -25.155990923    0.204722398
 -23690.500000000  -25.463900975    0.205821275
 -23689.000000000  -25.773444778    0.206900212
 -23687.500000000  -26.084590076    0.207956079
 -23686.000000000  -26.397299910    0.208985737
 -23684.500000000  -26.711532612    0.209986048
 -23683.000000000  -27.027241814    0.210953882
 -23681.500000000  -27.344376465    0.211886129
 -23680.000000000  -27.662880861    0.212779698
 -23678.500000000  -27.982694692    0.213631535
 -23677.000000000  -28.303753094    0.214438628
 -23675.500000000  -28.625986721    0.215198013
 -23674.000000000  -28.949321826    0.215906786
 -23672.500000000  -29.273680356    0.216562114
 -23671.000000000  -29.598980064    0.217161238
 -23669.500000000  -29.925134630    0.217701487
 -23668.000000000  -30.252053798    0.218180285
 -23666.500000000  -30.579643524    0.218595164
 -23665.000000000  -30.907806148    0.218943766
 -23663.500000000  -31.236440565    0.219223859
 -23662.000000000  -31.565442419    0.219433344
 -23660.500000000  -31.894704312    0.219570263
 -23659.000000000  -32.224116020    0.219632810
 -23657.500000000  -32.553564728    0.219619336
 -23656.000000000  -32.882935275    0.219528363
 -23654.500000000  -33.212110415    0.219358590
 -23653.000000000  -33.540971084    0.219108900
 -23651.500000000  -33.869396691    0.218778369
 -23650.000000000  -34.197265408    0.218366277
 -23648.500000000  -34.524454478    0.217872107
 -23647.000000000  -34.850840537    0.217295562
 -23645.500000000  -35.176299936    0.216636566
 -23644.000000000  -35.500709081    0.215895269
 -23642.500000000  -35.823944781    0.215072056
 -23641.000000000  -36.145884600    0.214167552
 -23639.500000000  -36.466407219    0.213182621
 -23638.000000000  -36.785392805    0.212118380
 -23636.500000000  -37.102723382    0.210976191
 -23635.000000000  -37.418283210    0.209757673
 -23633.500000000  -37.731959166    0.208464696
 -23632.000000000  -38.043641127    0.207099387
 -23630.500000000  -38.353222350    0.205664131
 -23629.000000000  -38.660599860    0.204161564
 -23627.500000000  -38.965674829    0.202594578
 -23626.000000000  -39.268352952    0.200966315
 -23624.500000000  -39.568544826    0.199280164
 -23623.000000000  -39.866166312    0.197539756
 -23621.500000000  -40.161138897    0.195748961
 -23620.000000000  -40.453390045    0.193911875
 -23618.500000000  -40.742853533    0.192032819
 -23617.000000000  -41.029469779    0.190116325
 -23615.500000000  -41.313186154    0.188167129
 -23614.000000000  -41.593957275    0.186190157
 -23612.500000000  -41.871745285    0.184190511
 -23611.000000000  -42.146520103    0.182173459
 -23609.500000000  -42.418259665    0.180144416
 -23608.000000000  -42.686950127    0.178108928
 -23606.500000000  -42.952586054    0.176072654
 -23605.000000000  -43.215170570    0.174041346
 -23603.500000000  -43.474715486    0.172020830
 -23602.000000000  -43.731241392    0.170016980
 -23600.500000000  -43.984777711    0.168035700
 -23599.000000000  -44.235362727    0.166082891
 -23597.500000000  -44.483043562    0.164164434
 -23596.000000000  -44.727876121    0.162286156
 -23594.500000000  -44.969924993    0.160453801
 -23593.000000000  -45.209263307    0.158673006
 -23591.500000000  -45.445972541    0.156949264
 -23590.000000000  -45.680142288    0.155287894
 -23588.500000000  -45.911869969    0.153694008
 -23587.000000000  -46.141260494    0.152172476
 -23585.500000000  -46.368425875    0.150727891
 -23584.000000000  -46.593484788    0.149364536
 -23582.500000000  -46.816562071    0.148086343
 -23581.000000000  -47.037788179    0.146896860
 -23579.500000000  -47.257298577    0.145799213
 -23578.000000000  -47.475233077    0.144796067
 -23576.500000000  -47.691735122    0.143889592
 -23575.000000000  -47.906951014    0.143081422
 -23573.500000000  -48.121029085    0.142372624
 -23572.000000000  -48.334118812    0.141763656
 -23570.500000000  -48.546369889    0.141254337
 -23569.000000000  -48.757931232    0.140843811
 -23567.500000000  -48.968949950    0.140530515
 -23566.000000000  -49.179570257    0.140312151
 -23564.500000000  -49.389932350    0.140185655
 -23563.000000000  -49.600171241    0.140147173
 -23561.500000000  -49.810415557    0.140192040
 -23560.000000000  -50.020786303    0.140314761
 -23558.500000000  -50.231395609    0.140508993
 -23557.000000000  -50.442345452    0.140767538
 -23555.500000000  -50.653726364    0.141082338
 -23554.000000000  -50.865616147    0.141444473
 -23552.500000000  -51.078078577    0.141844168
 -23551.000000000  -51.291162136    0.142270807
 -23549.500000000  -51.504898765    0.142712955
 -23548.000000000  -51.719302654    0.143158385
 -23546.500000000  -51.934369082    0.143594117
 -23545.000000000  -52.150073325    0.144006468
 -23543.500000000  -52.366369641    0.144381109
 -23542.000000000  -52.583190354    0.144703138
 -23540.500000000  -52.800445058    0.144957160
 -23539.000000000  -53.018019944    0.145127392
 -23537.500000000  -53.235777306    0.145197765
 -23536.000000000  -53.453555203    0.145152064
 -23534.500000000  -53.671167347    0.144974066
 -23533.000000000  -53.888403215    0.144647708
 -23531.500000000  -54.105028422    0.144157272
 -23530.000000000  -54.320785396    0.143487592
 -23528.500000000  -54.535394365    0.142624281
 -23527.000000000  -54.748554725    0.141553988
 -23525.500000000  -54.959946796    0.140264680
 -23524.000000000  -55.169234021    0.138745947
 -23522.500000000  -55.376065661    0.136989342
 -23521.000000000  -55.580080012    0.134988757
 -23519.500000000  -55.780908206    0.132740823
 -23518.000000000  -55.978178652    0.130245353
 -23516.500000000  -56.171522164    0.127505823
 -23515.000000000  -56.360577843    0.124529895
 -23513.500000000  -56.544999767    0.121329980
 -23512.000000000  -56.724464573    0.117923847
 -23510.500000000  -56.898679982    0.114335287
 -23509.000000000  -57.067394359    0.110594825
 -23507.500000000  -57.230407379    0.106740483
 -23506.000000000  -57.387581887    0.102818606
 -23504.500000000  -57.538857038    0.098884750
 -23503.000000000  -57.684262818    0.095004631
 -23501.500000000  -57.823936041    0.091255143
 -23500.000000000  -57.958137923    0.087725453
