#! FIELDS energy b1.bias der_energy
#! SET min_energy -25000
#! SET max_energy -23500
#! SET nbins_energy  1001
#! SET periodic_energy false
 -25000.000000000 -102.412048530   -0.271190979
 -24998.500000000 -102.015895344   -0.257384126
 -24997.000000000 -101.638842864   -0.245684500
 -24995.500000000 -101.277900392   -0.235868385
 -24994.000000000 -100.930398977   -0.227730299
 -24992.500000000 -100.593964963   -0.221081807
 -24991.000000000 -100.266495261   -0.215750402
 -24989.500000000  -99.946134264   -0.211578444
 -24988.000000000  -99.631252311   -0.208422152
 -24986.500000000  -99.320425609   -0.206150658
 -24985.000000000  -99.012417547   -0.204645114
 -24983.500000000  -98.706161306   -0.203797839
 -24982.000000000  -98.400743708   -0.203511529
 -24980.500000000  -98.095390229   -0.203698498
 -24979.000000000  -97.789451098   -0.204279974
 -24977.500000000  -97.482388442   -0.205185431
 -24976.000000000  -97.173764386   -0.206351958
 -24974.500000000  -96.863230083   -0.207723670
 -24973.000000000  -96.550515588   -0.209251156
 -24971.500000000  -96.235420551   -0.210890953
 -24970.000000000  -95.917805657   -0.212605062
 -24968.500000000  -95.597584782   -0.214360488
 -24967.000000000  -95.274717813   -0.216128811
 -24965.500000000  -94.949204087   -0.217885784
 -24964.000000000  -94.621076417   -0.219610959
 -24962.500000000  -94.290395660   -0.221287337
 -24961.000000000  -93.957245791   -0.222901040
 -24959.500000000  -93.621729450   -0.224441007
 -24958.000000000  -93.283963938   -0.225898711
 -24956.500000000  -92.944077610   -0.227267894
 -24955.000000000  -92.602206661   -0.228544325
 -24953.500000000  -92.258492256   -0.229725568
 -24952.000000000  -91.913077997   -0.230810779
 -24950.500000000  -91.566107681   -0.231800507
 -24949.000000000  -91.217723354   -0.232696514
 -24947.500000000  -90.868063607   -0.233501616
 -24946.000000000  -90.517262117   -0.234219522
 -24944.500000000  -90.165446412   -0.234854705
 -24943.000000000  -89.812736823   -0.235412264
 -24941.500000000  -89.459245631   -0.235897815
 -24940.000000000  -89.105076374   -0.236317383
 -24938.500000000  -88.750323310   -0.236677303
 -24937.000000000  -88.395071013   -0.236984133
 -24935.500000000  -88.039394102   -0.237244580
 -24934.000000000  -87.683357074   -0.237465422
 -24932.500000000  -87.327014242   -0.237653449
 -24931.000000000  -86.970409763   -0.237815403
 -24929.500000000  -86.613577745   -0.237957931
 -24928.000000000  -86.256542428   -0.238087539
 -24926.500000000  -85.899318421   -0.238210554
 -24925.000000000  -85.541911001   -0.238333089
 -24923.500000000  -85.184316453   -0.238461016
 -24922.000000000  -84.826522450   -0.238599939
 -24920.500000000  -84.468508472   -0.238755177
 -24919.000000000  -84.110246247   -0.238931746
 -24917.500000000  -83.751700214   -0.239134344
 -24916.000000000  -83.392828009   -0.239367343
 -24914.500000000  -83.033580958   -0.239634784
 -24913.000000000  -82.673904582   -0.239940365
 -24911.500000000  -82.313739106   -0.240287449
 -24910.000000000  -81.953019969   -0.240679055
 -24908.500000000  -81.591678333   -0.241117866
 -24907.000000000  -81.229641588   -0.241606231
 -24905.500000000  -80.866833850   -0.242146166
 -24904.000000000  -80.503176449   -0.242739370
 -24902.500000000  -80.138588410   -0.243387223
 -24901.000000000  -79.772986913   -0.244090801
 -24899.500000000  -79.406287750   -0.244850884
 -24898.000000000  -79.038405757   -0.245667967
 -24896.500000000  -78.669255233   -0.246542272
 -24895.000000000  -78.298750345   -0.247473758
 -24893.500000000  -77.926805509   -0.248462135
 -24892.000000000  -77.553335756   -0.249506875
 -24890.500000000  -77.178257073   -0.250607230
 -24889.000000000  -76.801486737   -0.251762237
 -24887.500000000  -76.422943613   -0.252970738
 -24886.000000000  -76.042548444   -0.254231392
 -24884.500000000  -75.660224114   -0.255542687
 -24883.000000000  -75.275895896   -0.256902951
 -24881.500000000  -74.889491679   -0.258310372
 -24880.000000000  -74.500942171   -0.259763005
 -24878.500000000  -74.110181089   -0.261258785
 -24877.000000000  -73.717145325   -0.262795544
 -24875.500000000  -73.321775099   -0.264371017
 -24874.000000000  -72.924014089   -0.265982859
 -24872.500000000  -72.523809544   -0.267628655
 -24871.000000000  -72.121112384   -0.269305928
 -24869.500000000  -71.715877281   -0.271012156
 -24868.000000000  -71.308062721   -0.272744775
 -24866.500000000  -70.897631055   -0.274501195
 -24865.000000000  -70.484548539   -0.276278807
 -24863.500000000  -70.068785347   -0.278074992
 -24862.000000000  -69.650315588   -0.279887128
 -24860.500000000  -69.229117294   -0.281712603
 -24859.000000000  -68.805172410   -0.283548817
 -24857.500000000  -68.378466762   -0.285393194
 -24856.000000000  -67.948990020   -0.287243187
 -24854.500000000  -67.516735652   -0.289096281
 -24853.000000000  -67.081700864   -0.290950005
 -24851.500000000  -66.643886536   -0.292801934
 -24850.000000000  -66.203297147   -0.294649695
 -24848.500000000  -65.759940696   -0.296490970
 -24847.000000000  -65.313828610   -0.298323503
 -24845.500000000  -64.864975655   -0.300145102
 -24844.000000000  -64.413399834   -0.301953643
 -24842.500000000  -63.959122284   -0.303747072
 -24841.000000000  -63.502167165   -0.305523411
 -24839.500000000  -63.042561550   -0.307280755
 -24838.000000000  -62.580335311   -0.309017280
 -24836.500000000  -62.115520995   -0.310731239
 -24835.000000000  -61.648153709   -0.312420970
 -24833.500000000  -61.178270994   -0.314084888
 -24832.000000000  -60.705912702   -0.315721495
 -24830.500000000  -60.231120874   -0.317329375
 -24829.000000000  -59.753939609   -0.318907195
 -24827.500000000  -59.274414944   -0.320453708
 -24826.000000000  -58.792594724   -0.321967747
 -24824.500000000  -58.308528483   -0.323448230
 -24823.000000000  -57.822267315   -0.324894157
 -24821.500000000  -57.333863753   -0.326304608
 -24820.000000000  -56.843371648   -0.327678746
 -24818.500000000  -56.350846053   -0.329015810
 -24817.000000000  -55.856343098   -0.330315117
 -24815.500000000  -55.359919884   -0.331576062
 -24814.000000000  -54.861634362   -0.332798111
 -24812.500000000  -54.361545228   -0.333980806
 -24811.000000000  -53.859711816   -0.335123757
 -24809.500000000  -53.356193991   -0.336226643
 -24808.000000000  -52.851052049   -0.337289209
 -24806.500000000  -52.344346619   -0.338311266
 -24805.000000000  -51.836138570   -0.339292685
 -24803.500000000  -51.326488919   -0.340233397
 -24802.000000000  -50.815458740   -0.341133390
 -24800.500000000  -50.303109088   -0.341992707
 -24799.000000000  -49.789500910   -0.342811444
 -24797.500000000  -49.274694974   -0.343589746
 -24796.000000000  -48.758751795   -0.344327804
 -24794.500000000  -48.241731566   -0.345025857
 -24793.000000000  -47.723694089   -0.345684183
 -24791.500000000  -47.204698721   -0.346303102
 -24790.000000000  -46.684804307   -0.346882972
 -24788.500000000  -46.164069136   -0.347424182
 -24787.000000000  -45.642550880   -0.347927157
 -24785.500000000  -45.120306556   -0.348392351
 -24784.000000000  -44.597392478   -0.348820245
 -24782.500000000  -44.073864217   -0.349211347
 -24781.000000000  -43.549776569   -0.349566185
 -24779.500000000  -43.025183518   -0.349885311
 -24778.000000000  -42.500138209   -0.350169293
 -24776.500000000  -41.974692919   -0.350418717
 -24775.000000000  -41.448899038   -0.350634182
 -24773.500000000  -40.922807047   -0.350816300
 -24772.000000000  -40.396466500   -0.350965694
 -24770.500000000  -39.869926011   -0.351082994
 -24769.000000000  -39.343233246   -0.351168838
 -24767.500000000  -38.816434906   -0.351223867
 -24766.000000000  -38.289576730   -0.351248726
 -24764.500000000  -37.762703488   -0.351244063
 -24763.000000000  -37.235858979   -0.351210524
 -24761.500000000  -36.709086031   -0.351148755
 -24760.000000000  -36.182426509   -0.351059396
 -24758.500000000  -35.655921317   -0.350943087
 -24757.000000000  -35.129610406   -0.350800461
 -24755.500000000  -34.603532781   -0.350632142
 -24754.000000000  -34.077726517   -0.350438749
 -24752.500000000  -33.552228766   -0.350220892
 -24751.000000000  -33.027075774   -0.349979170
 -24749.500000000  -32.502302895   -0.349714171
 -24748.000000000  -31.977944609   -0.349426474
 -24746.500000000  -31.454034538   -0.349116645
 -24745.000000000  -30.930605466   -0.348785234
 -24743.500000000  -30.407689357   -0.348432782
 -24742.000000000  -29.885317378   -0.348059813
 -24740.500000000  -29.363519919   -0.347666839
 -24739.000000000  -28.842326617   -0.347254354
 -24737.500000000  -28.321766373   -0.346822839
 -24736.000000000  -27.801867383   -0.346372759
 -24734.500000000  -27.282657155   -0.345904563
 -24733.000000000  -26.764162536   -0.345418684
 -24731.500000000  -26.246409736   -0.344915540
 -24730.000000000  -25.729424350   -0.344395531
 -24728.500000000  -25.213231384   -0.343859042
 -24727.000000000  -24.697855280   -0.343306442
 -24725.500000000  -24.183319938   -0.342738083
 -24724.000000000  -23.669648740   -0.342154303
 -24722.500000000  -23.156864578   -0.341555423
 -24721.000000000  -22.644989870   -0.340941746
 -24719.500000000  -22.134046591   -0.340313565
 -24718.000000000  -21.624056290   -0.339671153
 -24716.500000000  -21.115040115   -0.339014772
 -24715.000000000  -20.607018836   -0.338344666
 -24713.500000000  -20.100012862   -0.337661068
 -24712.000000000  -19.594042268   -0.336964196
 -24710.500000000  -19.089126809   -0.336254254
 -24709.000000000  -18.585285944   -0.335531436
 -24707.500000000  -18.082538851   -0.334795919
 -24706.000000000  -17.580904450   -0.334047874
 -24704.500000000  -17.080401417   -0.333287455
 -24703.000000000  -16.581048199   -0.332514809
 -24701.500000000  -16.082863035   -0.331730071
 -24700.000000000  -15.585863968   -0.330933367
 -24698.500000000  -15.090068859   -0.330124813
 -24697.000000000  -14.595495401   -0.329304516
 -24695.500000000  -14.102161132   -0.328472577
 -24694.000000000  -13.610083446   -0.327629086
 -24692.500000000  -13.119279605   -0.326774130
 -24691.000000000  -12.629766750   -0.325907786
 -24689.500000000  -12.141561906   -0.325030126
 -24688.000000000  -11.654681995   -0.324141219
 -24686.500000000  -11.169143841   -0.323241126
 -24685.000000000  -10.684964180   -0.322329906
 -24683.500000000  -10.202159660   -0.321407613
 -24682.000000000   -9.720746852   -0.320474298
 -24680.500000000   -9.240742252   -0.319530011
 -24679.000000000   -8.762162283   -0.318574797
 -24677.500000000   -8.285023300   -0.317608703
 -24676.000000000   -7.809341593   -0.316631771
 -24674.500000000   -7.335133383   -0.315644046
 -24673.000000000   -6.862414831   -0.314645570
 -24671.500000000   -6.391202028   -0.313636387
 -24670.000000000   -5.921511002   -0.312616541
 -24668.500000000   -5.453357714   -0.311586078
 -24667.000000000   -4.986758054   -0.310545044
 -24665.500000000   -4.521727842   -0.309493490
 -24664.000000000   -4.058282820   -0.308431465
 -24662.500000000   -3.596438654   -0.307359025
 -24661.000000000   -3.136210925   -0.306276226
 -24659.500000000   -2.677615125   -0.305183129
 -24658.000000000   -2.220666655   -0.304079798
 -24656.500000000   -1.765380814   -0.302966301
 -24655.000000000   -1.311772799   -0.301842711
 -24653.500000000   -0.859857691   -0.300709103
 -24652.000000000   -0.409650457   -0.299565561
 -24650.500000000    0.038834066   -0.298412169
 -24649.000000000    0.485581171   -0.297249019
 -24647.500000000    0.930576293   -0.296076208
 -24646.000000000    1.373805016   -0.294893838
 -24644.500000000    1.815253081   -0.293702016
 -24643.000000000    2.254906394   -0.292500855
 -24641.500000000    2.692751034   -0.291290473
 -24640.000000000    3.128773264   -0.290070995
 -24638.500000000    3.562959536   -0.288842551
 -24637.000000000    3.995296503   -0.287605278
 -24635.500000000    4.425771025   -0.286359315
 -24634.000000000    4.854370179   -0.285104812
 -24632.500000000    5.281081268   -0.283841922
 -24631.000000000    5.705891830   -0.282570803
 -24629.500000000    6.128789645   -0.281291620
 -24628.000000000    6.549762744   -0.280004544
 -24626.500000000    6.968799419   -0.278709751
 -24625.000000000    7.385888228   -0.277407421
 -24623.500000000    7.801018007   -0.276097741
 -24622.000000000    8.214177873   -0.274780904
 -24620.500000000    8.625357237   -0.273457105
 -24619.000000000    9.034545807   -0.272126546
 -24617.500000000    9.441733598   -0.270789434
 -24616.000000000    9.846910937   -0.269445979
 -24614.500000000   10.250068471   -0.268096397
 -24613.000000000   10.651197173   -0.266740906
 -24611.500000000   11.050288347   -0.265379730
 -24610.000000000   11.447333634   -0.264013095
 -24608.500000000   11.842325019   -0.262641233
 -24607.000000000   12.235254834   -0.261264375
 -24605.500000000   12.626115764   -0.259882758
 -24604.000000000   13.014900849   -0.258496622
 -24602.500000000   13.401603491   -0.257106208
 -24601.000000000   13.786217455   -0.255711760
 -24599.500000000   14.168736875   -0.254313522
 -24598.000000000   14.549156252   -0.252911744
 -24596.500000000   14.927470460   -0.251506672
 -24595.000000000   15.303674747   -0.250098558
 -24593.500000000   15.677764737   -0.248687651
 -24592.000000000   16.049736430   -0.247274203
 -24590.500000000   16.419586200   -0.245858464
 -24589.000000000   16.787310803   -0.244440687
 -24587.500000000   17.152907368   -0.243021122
 -24586.000000000   17.516373402   -0.241600020
 -24584.500000000   17.877706785   -0.240177631
 -24583.000000000   18.236905774   -0.238754202
 -24581.500000000   18.593968995   -0.237329981
 -24580.000000000   18.948895443   -0.235905213
 -24578.500000000   19.301684482   -0.234480142
 -24577.000000000   19.652335837   -0.233055008
 -24575.500000000   20.000849594   -0.231630051
 -24574.000000000   20.347226196   -0.230205506
 -24572.500000000   20.691466435   -0.228781607
 -24571.000000000   21.033571454   -0.227358583
 -24569.500000000   21.373542735   -0.225936660
 -24568.000000000   21.711382098   -0.224516062
 -24566.500000000   22.047091693   -0.223097007
 -24565.000000000   22.380673997   -0.221679709
 -24563.500000000   22.712131804   -0.220264379
 -24562.000000000   23.041468221   -0.218851222
 -24560.500000000   23.368686659   -0.217440440
 -24559.000000000   23.693790828   -0.216032229
 -24557.500000000   24.016784727   -0.214626779
 -24556.000000000   24.337672639   -0.213224277
 -24554.500000000   24.656459122   -0.211824902
 -24553.000000000   24.973148998   -0.210428830
 -24551.500000000   25.287747348   -0.209036229
 -24550.000000000   25.600259504   -0.207647264
 -24548.500000000   25.910691035   -0.206262090
 -24547.000000000   26.219047745   -0.204880859
 -24545.500000000   26.525335657   -0.203503717
 -24544.000000000   26.829561009   -0.202130802
 -24542.500000000   27.131730242   -0.200762246
 -24541.000000000   27.431849991   -0.199398176
 -24539.500000000   27.729927074   -0.198038712
 -24538.000000000   28.025968485   -0.196683965
 -24536.500000000   28.319981382   -0.195334043
 -24535.000000000   28.611973078   -0.193989046
 -24533.500000000   28.901951030   -0.192649067
 -24532.000000000   29.189922832   -0.191314193
 -24530.500000000   29.475896202   -0.189984503
 -24529.000000000   29.759878971   -0.188660071
 -24527.500000000   30.041879079   -0.187340965
 -24526.000000000   30.321904558   -0.186027243
 -24524.500000000   30.599963527   -0.184718960
 -24523.000000000   30.876064181   -0.183416163
 -24521.500000000   31.150214781   -0.182118893
 -24520.000000000   31.422423641   -0.180827184
 -24518.500000000   31.692699128   -0.179541064
 -24517.000000000   31.961049640   -0.178260555
 -24515.500000000   32.227483607   -0.176985673
 -24514.000000000   32.492009477   -0.175716427
 -24512.500000000   32.754635708   -0.174452821
 -24511.000000000   33.015370758   -0.173194852
 -24509.500000000   33.274223080   -0.171942514
 -24508.000000000   33.531201107   -0.170695791
 -24506.500000000   33.786313251   -0.169454666
 -24505.000000000   34.039567891   -0.168219113
 -24503.500000000   34.290973363   -0.166989104
 -24502.000000000   34.540537959   -0.165764604
 -24500.500000000   34.788269911   -0.164545573
 -24499.000000000   35.034177391   -0.163331967
 -24497.500000000   35.278268501   -0.162123738
 -24496.000000000   35.520551265   -0.160920831
 -24494.500000000   35.761033626   -0.159723190
 -24493.000000000   35.999723436   -0.158530752
 -24491.500000000   36.236628452   -0.157343454
 -24490.000000000   36.471756331   -0.156161224
 -24488.500000000   36.705114623   -0.154983991
 -24487.000000000   36.936710766   -0.153811679
 -24485.500000000   37.166552082   -0.152644209
 -24484.000000000   37.394645773   -0.151481498
 -24482.500000000   37.620998912   -0.150323461
 -24481.000000000   37.845618448   -0.149170011
 -24479.500000000   38.068511193   -0.148021058
 -24478.000000000   38.289683824   -0.146876510
 -24476.500000000   38.509142878   -0.145736273
 -24475.000000000   38.726894750   -0.144600250
 -24473.500000000   38.942945688   -0.143468346
 -24472.000000000   39.157301796   -0.142340459
 -24470.500000000   39.369969026   -0.141216491
 -24469.000000000   39.580953179   -0.140096341
 -24467.500000000   39.790259906   -0.138979905
 -24466.000000000   39.997894701   -0.137867082
 -24464.500000000   40.203862906   -0.136757768
 -24463.000000000   40.408169707   -0.135651860
 -24461.500000000   40.610820135   -0.134549253
 -24460.000000000   40.811819066   -0.133449846
 -24458.500000000   41.011171221   -0.132353534
 -24457.000000000   41.208881163   -0.131260214
 -24455.500000000   41.404953307   -0.130169784
 -24454.000000000   41.599391910   -0.129082143
 -24452.500000000   41.792201080   -0.127997190
 -24451.000000000   41.983384773   -0.126914824
 -24449.500000000   42.172946798   -0.125834949
 -24448.000000000   42.360890816   -0.124757466
 -24446.500000000   42.547220345   -0.123682280
 -24445.000000000   42.731938759   -0.122609298
 -24443.500000000   42.915049293   -0.121538426
 -24442.000000000   43.096555046   -0.120469574
 -24440.500000000   43.276458983   -0.119402655
 -24439.000000000   43.454763935   -0.118337582
 -24437.500000000   43.631472609   -0.117274270
 -24436.000000000   43.806587585   -0.116212639
 -24434.500000000   43.980111325   -0.115152608
 -24433.000000000   44.152046172   -0.114094102
 -24431.500000000   44.322394355   -0.113037045
 -24430.000000000   44.491157997   -0.111981367
 -24428.500000000   44.658339112   -0.110926999
 -24427.000000000   44.823939616   -0.109873875
 -24425.500000000   44.987961326   -0.108821931
 -24424.000000000   45.150405969   -0.107771108
 -24422.500000000   45.311275182   -0.106721349
 -24421.000000000   45.470570519   -0.105672599
 -24419.500000000   45.628293457   -0.104624808
 -24418.000000000   45.784445397   -0.103577927
 -24416.500000000   45.939027671   -0.102531912
 -24415.000000000   46.092041545   -0.101486721
 -24413.500000000   46.243488226   -0.100442315
 -24412.000000000   46.393368866   -0.099398660
 -24410.500000000   46.541684565   -0.098355723
 -24409.000000000   46.688436379   -0.097313474
 -24407.500000000   46.833625319   -0.096271888
 -24406.000000000   46.977252364   -0.095230943
 -24404.500000000   47.119318457   -0.094190617
 -24403.000000000   47.259824516   -0.093150895
 -24401.500000000   47.398771436   -0.092111763
 -24400.000000000   47.536160094   -0.091073210
 -24398.500000000   47.671991350   -0.090035228
 -24397.000000000   47.806266060   -0.088997813
 -24395.500000000   47.938985070   -0.087960962
 -24394.000000000   48.070149228   -0.086924676
 -24392.500000000   48.199759384   -0.085888960
 -24391.000000000   48.327816395   -0.084853818
 -24389.500000000   48.454321129   -0.083819259
 -24388.000000000   48.579274470   -0.082785296
 -24386.500000000   48.702677320   -0.081751940
 -24385.000000000   48.824530603   -0.080719209
 -24383.500000000   48.944835269   -0.079687120
 -24382.000000000   49.063592295   -0.078655694
 -24380.500000000   49.180802692   -0.077624953
 -24379.000000000   49.296467507   -0.076594921
 -24377.500000000   49.410587822   -0.075565624
 -24376.000000000   49.523164761   -0.074537091
 -24374.500000000   49.634199492   -0.073509351
 -24373.000000000   49.743693227   -0.072482435
 -24371.500000000   49.851647227   -0.071456376
 -24370.000000000   49.958062802   -0.070431208
 -24368.500000000   50.062941314   -0.069406965
 -24367.000000000   50.166284178   -0.068383684
 -24365.500000000   50.268092866   -0.067361403
 -24364.000000000   50.368368904   -0.066340158
 -24362.500000000   50.467113878   -0.065319989
 -24361.000000000   50.564329429   -0.064300936
 -24359.500000000   50.660017262   -0.063283038
 -24358.000000000   50.754179140   -0.062266335
 -24356.500000000   50.846816886   -0.061250869
 -24355.000000000   50.937932386   -0.060236680
 -24353.500000000   51.027527585   -0.059223809
 -24352.000000000   51.115604492   -0.058212297
 -24350.500000000   51.202165175   -0.057202184
 -24349.000000000   51.287211763   -0.056193511
 -24347.500000000   51.370746447   -0.055186317
 -24346.000000000   51.452771475   -0.054180643
 -24344.500000000   51.533289156   -0.053176527
 -24343.000000000   51.612301855   -0.052174007
 -24341.500000000   51.689811994   -0.051173120
 -24340.000000000   51.765822050   -0.050173903
 -24338.500000000   51.840334556   -0.049176392
 -24337.000000000   51.913352094   -0.048180619
 -24335.500000000   51.984877299   -0.047186619
 -24334.000000000   52.054912853   -0.046194423
 -24332.500000000   52.123461485   -0.045204061
 -24331.000000000   52.190525969   -0.044215563
 -24329.500000000   52.256109120   -0.043228955
 -24328.000000000   52.320213793   -0.042244264
 -24326.500000000   52.382842881   -0.041261513
 -24325.000000000   52.443999312   -0.040280724
 -24323.500000000   52.503686044   -0.039301918
 -24322.000000000   52.561906067   -0.038325114
 -24320.500000000   52.618662394   -0.037350327
 -24319.000000000   52.673958064   -0.036377573
 -24317.500000000   52.727796135   -0.035406864
 -24316.000000000   52.780179682   -0.034438210
 -24314.500000000   52.831111795   -0.033471619
 -24313.000000000   52.880595574   -0.032507098
 -24311.500000000   52.928634126   -0.031544651
 -24310.000000000   52.975230564   -0.030584278
 -24308.500000000   53.020387998   -0.029625980
 -24307.000000000   53.064109539   -0.028669753
 -24305.500000000   53.106398291   -0.027715593
 -24304.000000000   53.147257348   -0.026763492
 -24302.500000000   53.186689792   -0.025813440
 -24301.000000000   53.224698686   -0.024865424
 -24299.500000000   53.261287076   -0.023919432
 -24298.000000000   53.296457984   -0.022975445
 -24296.500000000   53.330214405   -0.022033446
 -24295.000000000   53.362559304   -0.021093412
 -24293.500000000   53.393495613   -0.020155322
 -24292.000000000   53.423026227   -0.019219148
 -24290.500000000   53.451154002   -0.018284864
 -24289.000000000   53.477881749   -0.017352439
 -24287.500000000   53.503212234   -0.016421843
 -24286.000000000   53.527148174   -0.015493040
 -24284.500000000   53.549692232   -0.014565995
 -24283.000000000   53.570847019   -0.013640670
 -24281.500000000   53.590615083   -0.012717026
 -24280.000000000   53.608998916   -0.011795021
 -24278.500000000   53.626000943   -0.010874611
 -24277.000000000   53.641623525   -0.009955753
 -24275.500000000   53.655868954   -0.009038399
 -24274.000000000   53.668739449   -0.008122501
 -24272.500000000   53.680237160   -0.007208010
 -24271.000000000   53.690364159   -0.006294876
 -24269.500000000   53.699122441   -0.005383046
 -24268.000000000   53.706513922   -0.004472467
 -24266.500000000   53.712540440   -0.003563085
 -24265.000000000   53.717203747   -0.002654844
 -24263.500000000   53.720505513   -0.001747688
 -24262.000000000   53.722447324   -0.000841560
 -24260.500000000   53.723030679    0.000063597
 -24259.000000000   53.722256990    0.000967842
 -24257.500000000   53.720127581    0.001871233
 -24256.000000000   53.716643689    0.002773830
 -24254.500000000   53.711806460    0.003675692
 -24253.000000000   53.705616952    0.004576878
 -24251.500000000   53.698076133    0.005477449
 -24250.000000000   53.689184882    0.006377464
 -24248.500000000   53.678943989    0.007276982
 -24247.000000000   53.667354155    0.008176063
 -24245.500000000   53.654415991    0.009074765
 -24244.000000000   53.640130021    0.009973146
 -24242.500000000   53.624496684    0.010871264
 -24241.000000000   53.607516331    0.011769177
 -24239.500000000   53.589189228    0.012666940
 -24238.000000000   53.569515558    0.013564608
 -24236.500000000   53.548495423    0.014462236
 -24235.000000000   53.526128843    0.015359877
 -24233.500000000   53.502415761    0.016257581
 -24232.000000000   53.477356043    0.017155400
 -24230.500000000   53.450949478    0.018053383
 -24229.000000000   53.423195788    0.018951577
 -24227.500000000   53.394094620    0.019850027
 -24226.000000000   53.363645557    0.020748777
 -24224.500000000   53.331848118    0.021647870
 -24223.000000000   53.298701757    0.022547345
 -24221.500000000   53.264205873    0.023447240
 -24220.000000000   53.228359808    0.024347593
 -24218.500000000   53.191162850    0.025248435
 -24217.000000000   53.152614242    0.026149799
 -24215.500000000   53.112713179    0.027051713
 -24214.000000000   53.071458814    0.027954205
 -24212.500000000   53.028850263    0.028857299
 -24211.000000000   52.984886607    0.029761015
 -24209.500000000   52.939566897    0.030665373
 -24208.000000000   52.892890157    0.031570390
 -24206.500000000   52.844855390    0.032476079
 -24205.000000000   52.795461579    0.033382450
 -24203.500000000   52.744707694    0.034289512
 -24202.000000000   52.692592694    0.035197270
 -24200.500000000   52.639115535    0.036105725
 -24199.000000000   52.584275170    0.037014878
 -24197.500000000   52.528070555    0.037924724
 -24196.000000000   52.470500655    0.038835257
 -24194.500000000   52.411564446    0.039746467
 -24193.000000000   52.351260923    0.040658341
 -24191.500000000   52.289589099    0.041570864
 -24190.000000000   52.226548015    0.042484018
 -24188.500000000   52.162136741    0.043397780
 -24187.000000000   52.096354383    0.044312126
 -24185.500000000   52.029200085    0.045227029
 -24184.000000000   51.960673034    0.046142457
 -24182.500000000   51.890772467    0.047058378
 -24181.000000000   51.819497672    0.047974755
 -24179.500000000   51.746847992    0.048891550
 -24178.000000000   51.672822835    0.049808719
 -24176.500000000   51.597421670    0.050726219
 -24175.000000000   51.520644036    0.051644002
 -24173.500000000   51.442489547    0.052562018
 -24172.000000000   51.362957893    0.053480214
 -24170.500000000   51.282048843    0.054398535
 -24169.000000000   51.199762252    0.055316924
 -24167.500000000   51.116098065    0.056235321
 -24166.000000000   51.031056316    0.057153663
 -24164.500000000   50.944637134    0.058071887
 -24163.000000000   50.856840749    0.058989925
 -24161.500000000   50.767667488    0.059907709
 -24160.000000000   50.677117785    0.060825168
 -24158.500000000   50.585192182    0.061742231
 -24157.000000000   50.491891327    0.062658824
 -24155.500000000   50.397215984    0.063574870
 -24154.000000000   50.301167028    0.064490294
 -24152.500000000   50.203745452    0.065405017
 -24151.000000000   50.104952367    0.066318959
 -24149.500000000   50.004789006    0.067232040
 -24148.000000000   49.903256719    0.068144178
 -24146.500000000   49.800356984    0.069055291
 -24145.000000000   49.696091400    0.069965296
 -24143.500000000   49.590461691    0.070874110
 -24142.000000000   49.483469708    0.071781648
 -24140.500000000   49.375117428    0.072687825
 -24139.000000000   49.265406954    0.073592559
 -24137.500000000   49.154340516    0.074495763
 -24136.000000000   49.041920470    0.075397355
 -24134.500000000   48.928149299    0.076297250
 -24133.000000000   48.813029610    0.077195365
 -24131.500000000   48.696564136    0.078091616
 -24130.000000000   48.578755733    0.078985923
 -24128.500000000   48.459607380    0.079878203
 -24127.000000000   48.339122177    0.080768377
 -24125.500000000   48.217303341    0.081656366
 -24124.000000000   48.094154209    0.082542093
 -24122.500000000   47.969678231    0.083425481
 -24121.000000000   47.843878972    0.084306457
 -24119.500000000   47.716760104    0.085184947
 -24118.000000000   47.588325409    0.086060882
 -24116.500000000   47.458578771    0.086934193
 -24115.000000000   47.327524176    0.087804813
 -24113.500000000   47.195165708    0.088672681
 -24112.000000000   47.061507542    0.089537733
 -24110.500000000   46.926553946    0.090399912
 -24109.000000000   46.790309272    0.091259161
 -24107.500000000   46.652777953    0.092115429
 -24106.000000000   46.513964500    0.092968665
 -24104.500000000   46.373873496    0.093818823
 -24103.000000000   46.232509591    0.094665860
 -24101.500000000   46.089877498    0.095509735
 -24100.000000000   45.945981986    0.096350412
 -24098.500000000   45.800827878    0.097187859
 -24097.000000000   45.654420041    0.098022046
 -24095.500000000   45.506763383    0.098852948
 -24094.000000000   45.357862850    0.099680544
 -24092.500000000   45.207723413    0.100504817
 -24091.000000000   45.056350068    0.101325752
 -24089.500000000   44.903747829    0.102143342
 -24088.000000000   44.749921719    0.102957580
 -24086.500000000   44.594876766    0.103768466
 -24085.000000000   44.438617995    0.104576004
 -24083.500000000   44.281150424    0.105380201
 -24082.000000000   44.122479055    0.106181070
 -24080.500000000   43.962608869    0.106978627
 -24079.000000000   43.801544819    0.107772893
 -24077.500000000   43.639291823    0.108563894
 -24076.000000000   43.475854756    0.109351659
 -24074.500000000   43.311238446    0.110136223
 -24073.000000000   43.145447667    0.110917625
 -24071.500000000   42.978487130    0.111695908
 -24070.000000000   42.810361478    0.112471120
 -24068.500000000   42.641075281    0.113243311
 -24067.000000000   42.470633025    0.114012540
 -24065.500000000   42.299039112    0.114778866
 -24064.000000000   42.126297846    0.115542354
 -24062.500000000   41.952413433    0.116303074
 -24061.000000000   41.777389972    0.117061098
 -24059.500000000   41.601231450    0.117816502
 -24058.000000000   41.423941734    0.118569369
 -24056.500000000   41.245524568    0.119319783
 -24055.000000000   41.065983566    0.120067833
 -24053.500000000   40.885322206    0.120813610
 -24052.000000000   40.703543825    0.121557210
 -24050.500000000   40.520651616    0.122298731
 -24049.000000000   40.336648619    0.123038277
 -24047.500000000   40.151537720    0.123775952
 -24046.000000000   39.965321644    0.124511864
 -24044.500000000   39.778002954    0.125246124
 -24043.000000000   39.589584042    0.125978845
 -24041.500000000   39.400067130    0.126710143
 -24040.000000000   39.209454265    0.127440136
 -24038.500000000   39.017747315    0.128168944
 -24037.000000000   38.824947965    0.128896688
 -24035.500000000   38.631057720    0.129623493
 -24034.000000000   38.436077895    0.130349482
 -24032.500000000   38.240009618    0.131074782
 -24031.000000000   38.042853830    0.131799519
 -24029.500000000   37.844611278    0.132523822
 -24028.000000000   37.645282517    0.133247819
 -24026.500000000   37.444867911    0.133971637
 -24025.000000000   37.243367632    0.134695405
 -24023.500000000   37.040781657    0.135419252
 -24022.000000000   36.837109772    0.136143305
 -24020.500000000   36.632351574    0.136867692
 -24019.000000000   36.426506468    0.137592537
 -24017.500000000   36.219573671    0.138317966
 -24016.000000000   36.011552216    0.139044102
 -24014.500000000   35.802440951    0.139771066
 -24013.000000000   35.592238544    0.140498978
 -24011.500000000   35.380943485    0.141227954
 -24010.000000000   35.168554093    0.141958108
 -24008.500000000   34.955068516    0.142689552
 -24007.000000000   34.740484737    0.143422395
 -24005.500000000   34.524800580    0.144156740
 -24004.000000000   34.308013715    0.144892689
 -24002.500000000   34.090121662    0.145630339
 -24001.000000000   33.871121802    0.146369782
 -23999.500000000   33.651011376    0.147111106
 -23998.000000000   33.429787500    0.147854396
 -23996.500000000   33.207447167    0.148599728
 -23995.000000000   32.983987257    0.149347177
 -23993.500000000   32.759404546    0.150096808
 -23992.000000000   32.533695711    0.150848684
 -23990.500000000   32.306857344    0.151602860
 -23989.000000000   32.078885957    0.152359384
 -23987.500000000   31.849777997    0.153118299
 -23986.000000000   31.619529848    0.153879640
 -23984.500000000   31.388137850    0.154643435
 -23983.000000000   31.155598304    0.155409706
 -23981.500000000   30.921907486    0.156178466
 -23980.000000000   30.687061658    0.156949721
 -23978.500000000   30.451057078    0.157723467
 -23977.000000000   30.213890015    0.158499696
 -23975.500000000   29.975556758    0.159278389
 -23974.000000000   29.736053631    0.160059517
 -23972.500000000   29.495377005    0.160843047
 -23971.000000000   29.253523313    0.161628932
 -23969.500000000   29.010489058    0.162417120
 -23968.000000000   28.766270833    0.163207548
 -23966.500000000   28.520865330    0.164000144
 -23965.000000000   28.274269357    0.164794828
 -23963.500000000   28.026479848    0.165591508
 -23962.000000000   27.777493883    0.166390086
 -23960.500000000   27.527308695    0.167190452
 -23959.000000000   27.275921693    0.167992486
 -23957.500000000   27.023330466    0.168796061
 -23956.000000000   26.769532808    0.169601038
 -23954.500000000   26.514526724    0.170407270
 -23953.000000000   26.258310450    0.171214598
 -23951.500000000   26.000882465    0.172022856
 -23950.000000000   25.742241505    0.172831867
 -23948.500000000   25.482386579    0.173641446
 -23947.000000000   25.221316983    0.174451395
 -23945.500000000   24.959032311    0.175261511
 -23944.000000000   24.695532475    0.176071578
 -23942.500000000   24.430817713    0.176881374
 -23941.000000000   24.164888605    0.177690665
 -23939.500000000   23.897746089    0.178499211
 -23938.000000000   23.629391469    0.179306762
 -23936.500000000   23.359826432    0.180113057
 -23935.000000000   23.089053058    0.180917831
 -23933.500000000   22.817073835    0.181720809
 -23932.000000000   22.543891670    0.182521707
 -23930.500000000   22.269509899    0.183320235
 -23929.000000000   21.993932300    0.184116094
 -23927.500000000   21.717163103    0.184908981
 -23926.000000000   21.439207000    0.185698582
 -23924.500000000   21.160069159    0.186484580
 -23923.000000000   20.879755226    0.187266649
 -23921.500000000   20.598271340    0.188044461
 -23920.000000000   20.315624138    0.188817680
 -23918.500000000   20.031820768    0.189585964
 -23917.000000000   19.746868887    0.190348968
 -23915.500000000   19.460776677    0.191106344
 -23914.000000000   19.173552845    0.191857738
 -23912.500000000   18.885206631    0.192602794
 -23911.000000000   18.595747812    0.193341151
 -23909.500000000   18.305186707    0.194072449
 -23908.000000000   18.013534178    0.194796323
 -23906.500000000   17.720801633    0.195512408
 -23905.000000000   17.427001030    0.196220339
 -23903.500000000   17.132144877    0.196919748
 -23902.000000000   16.836246231    0.197610269
 -23900.500000000   16.539318696    0.198291537
 -23899.000000000   16.241376428    0.198963187
 -23897.500000000   15.942434126    0.199624856
 -23896.000000000   15.642507031    0.200276184
 -23894.500000000   15.341610923    0.200916813
 -23893.000000000   15.039762118    0.201546390
 -23891.500000000   14.736977456    0.202164563
 -23890.000000000   14.433274302    0.202770989
 -23888.500000000   14.128670532    0.203365327
 -23887.000000000   13.823184531    0.203947243
 -23885.500000000   13.516835178    0.204516409
 -23884.000000000   13.209641838    0.205072505
 -23882.500000000   12.901624354    0.205615218
 -23881.000000000   12.592803030    0.206144242
 -23879.500000000   12.283198620    0.206659283
 -23878.000000000   11.972832316    0.207160054
 -23876.500000000   11.661725731    0.207646278
 -23875.000000000   11.349900886    0.208117691
 -23873.500000000   11.037380191    0.208574038
 -23872.000000000   10.724186427    0.209015076
 -23870.500000000   10.410342731    0.209440576
 -23869.000000000   10.095872577    0.209850320
 -23867.500000000    9.780799751    0.210244105
 -23866.000000000    9.465148337    0.210621741
 -23864.500000000    9.148942691    0.210983053
 -23863.000000000    8.832207419    0.211327883
 -23861.500000000    8.514967357    0.211656084
 -23860.000000000    8.197247544    0.211967531
 -23858.500000000    7.879073199    0.212262110
 -23857.000000000    7.560469695    0.212539728
 -23855.500000000    7.241462534    0.212800308
 -23854.000000000    6.922077319    0.213043791
 -23852.500000000    6.602339731    0.213270136
 -23851.000000000    6.282275493    0.213479320
 -23849.500000000    5.961910352    0.213671342
 -23848.000000000    5.641270042    0.213846216
 -23846.500000000    5.320380259    0.214003980
 -23845.000000000    4.999266631    0.214144688
 -23843.500000000    4.677954686    0.214268416
 -23842.000000000    4.356469824    0.214375262
 -23840.500000000    4.034837284    0.214465341
 -23839.000000000    3.713082115    0.214538791
 -23837.500000000    3.391229145    0.214595771
 -23836.000000000    3.069302949    0.214636459
 -23834.500000000    2.747327815    0.214661055
 -23833.000000000    2.425327718    0.214669782
 -23831.500000000    2.103326284    0.214662880
 -23830.000000000    1.781346760    0.214640613
 -23828.500000000    1.459411985    0.214603265
 -23827.000000000    1.137544354    0.214551140
 -23825.500000000    0.815765792    0.214484563
 -23824.000000000    0.494097719    0.214403879
 -23822.500000000    0.172561025    0.214309455
 -23821.000000000   -0.148823967    0.214201674
 -23819.500000000   -0.470037523    0.214080943
 -23818.000000000   -0.791060532    0.213947684
 -23816.500000000   -1.111874533    0.213802341
 -23815.000000000   -1.432461743    0.213645374
 -23813.500000000   -1.752805082    0.213477261
 -23812.000000000   -2.072888202    0.213298500
 -23810.500000000   -2.392695512    0.213109601
 -23809.000000000   -2.712212200    0.212911093
 -23807.500000000   -3.031424260    0.212703522
 -23806.000000000   -3.350318512    0.212487444
 -23804.500000000   -3.668882625    0.212263433
 -23803.000000000   -3.987105137    0.212032075
 -23801.500000000   -4.304975474    0.211793967
 -23800.000000000   -4.622483967    0.211549719
 -23798.500000000   -4.939621871    0.211299952
 -23797.000000000   -5.256381377    0.211045294
 -23795.500000000   -5.572755628    0.210786386
 -23794.000000000   -5.888738731    0.210523871
 -23792.500000000   -6.204325766    0.210258404
 -23791.000000000   -6.519512797    0.209990643
 -23789.500000000   -6.834296878    0.209721249
 -23788.000000000   -7.148676061    0.209450889
 -23786.500000000   -7.462649397    0.209180230
 -23785.000000000   -7.776216937    0.208909941
 -23783.500000000   -8.089379739    0.208640689
 -23782.000000000   -8.402139857    0.208373141
 -23780.500000000   -8.714500346    0.208107960
 -23779.000000000   -9.026465251    0.207845805
 -23777.500000000   -9.338039600    0.207587328
 -23776.000000000   -9.649229396    0.207333175
 -23774.500000000   -9.960041605    0.207083983
 -23773.000000000  -10.270484141    0.206840381
 -23771.500000000  -10.580565850    0.206602983
 -23770.000000000  -10.890296493    0.206372392
 -23768.500000000  -11.199686724    0.206149198
 -23767.000000000  -11.508748071    0.205933973
 -23765.500000000  -11.817492907    0.205727274
 -23764.000000000  -12.125934425    0.205529637
 -23762.500000000  -12.434086609    0.205341580
 -23761.000000000  -12.741964203    0.205163598
 -23759.500000000  -13.049582676    0.204996163
 -23758.000000000  -13.356958191    0.204839724
 -23756.500000000  -13.664107559    0.204694703
 -23755.000000000  -13.971048208    0.204561495
 -23753.500000000  -14.277798134    0.204440465
 -23752.000000000  -14.584375862    0.204331951
 -23750.500000000  -14.890800396    0.204236255
 -23749.000000000  -15.197091175    0.204153652
 -23747.500000000  -15.503268018    0.204084378
 -23746.000000000  -15.809351075    0.204028636
 -23744.500000000  -16.115360777    0.203986594
 -23743.000000000  -16.421317771    0.203958378
 -23741.500000000  -16.727242871    0.203944081
 -23740.000000000  -17.033156998    0.203943751
 -23738.500000000  -17.339081114    0.203957399
 -23737.000000000  -17.645036169    0.203984993
 -23735.500000000  -17.951043029    0.204026458
 -23734.000000000  -18.257122419    0.204081675
 -23732.500000000  -18.563294851    0.204150484
 -23731.000000000  -18.869580563    0.204232676
 -23729.500000000  -19.175999447    0.204328001
 -23728.000000000  -19.482570983    0.204436159
 -23726.500000000  -19.789314170    0.204556807
 -23725.000000000  -20.096247455    0.204689554
 -23723.500000000  -20.403388662    0.204833961
 -23722.000000000  -20.710754927    0.204989545
 -23720.500000000  -21.018362620    0.205155773
 -23719.000000000  -21.326227279    0.205332066
 -23717.500000000  -21.634363539    0.205517800
 -23716.000000000  -21.942785064    0.205712302
 -23714.500000000  -22.251504472    0.205914855
 -23713.000000000  -22.560533272    0.206124693
 -23711.500000000  -22.869881792    0.206341010
 -23710.000000000  -23.179559115    0.206562952
 -23708.500000000  -23.489573012    0.206789622
 -23707.000000000  -23.799929877    0.207020083
 -23705.500000000  -24.110634666    0.207253354
 -23704.000000000  -24.421690834    0.207488415
 -23702.500000000  -24.733100279    0.207724209
 -23701.000000000  -25.044863282    0.207959640
 -23699.500000000  -25.356978453    0.208193577
 -23698.000000000  -25.669442683    0.208424855
 -23696.500000000  -25.982251090    0.208652278
 -23695.000000000  -26.295396977    0.208874620
 -23693.500000000  -26.608871784    0.209090628
 -23692.000000000  -26.922665056    0.209299024
 -23690.500000000  -27.236764399    0.209498505
 -23689.000000000  -27.551155454    0.209687751
 -23687.500000000  -27.865821865    0.209865423
 -23686.000000000  -28.180745259    0.210030167
 -23684.500000000  -28.495905221    0.210180620
 -23683.000000000  -28.811279285    0.210315406
 -23681.500000000  -29.126842919    0.210433149
 -23680.000000000  -29.442569521    0.210532468
 -23678.500000000  -29.758430421    0.210611984
 -23677.000000000  -30.074394884    0.210670323
 -23675.500000000  -30.390430120    0.210706121
 -23674.000000000  -30.706501301    0.210718026
 -23672.500000000  -31.022571584    0.210704703
 -23671.000000000  -31.338602138    0.210664836
 -23669.500000000  -31.654552175    0.210597135
 -23668.000000000  -31.970378995    0.210500339
 -23666.500000000  -32.286038028    0.210373217
 -23665.000000000  -32.601482888    0.210214580
 -23663.500000000  -32.916665434    0.210023276
 -23662.000000000  -33.231535830    0.209798201
 -23660.500000000  -33.546042623    0.209538300
 -23659.000000000  -33.860132818    0.209242575
 -23657.500000000  -34.173751962    0.208910082
 -23656.000000000  -34.486844242    0.208539946
 -23654.500000000  -34.799352574    0.208131357
 -23653.000000000  -35.111218715    0.207683576
 -23651.500000000  -35.422383373    0.207195942
 -23650.000000000  -35.732786323    0.206667875
 -23648.500000000  -36.042366531    0.206098878
 -23647.000000000  -36.351062286    0.205488545
 -23645.500000000  -36.658811338    0.204836561
 -23644.000000000  -36.965551035    0.204142710
 -23642.500000000  -37.271218476    0.203406875
 -23641.000000000  -37.575750660    0.202629043
 -23639.500000000  -37.879084652    0.201809309
 -23638.000000000  -38.181157737    0.200947879
 -23636.500000000  -38.481907598    0.200045072
 -23635.000000000  -38.781272481    0.199101324
 -23633.500000000  -39.079191376    0.198117191
 -23632.000000000  -39.375604198    0.197093349
 -23630.500000000  -39.670451967    0.196030598
 -23629.000000000  -39.963676997    0.194929862
 -23627.500000000  -40.255223083    0.193792192
 -23626.000000000  -40.545035692    0.192618766
 -23624.500000000  -40.833062154    0.191410891
 -23623.000000000  -41.119251854    0.190170000
 -23621.500000000  -41.403556424    0.188897655
 -23620.000000000  -41.685929933    0.187595544
 -23618.500000000  -41.966329078    0.186265482
 -23617.000000000  -42.244713372    0.184909409
 -23615.500000000  -42.521045326    0.183529383
 -23614.000000000  -42.795290633    0.182127586
 -23612.500000000  -43.067418343    0.180706313
 -23611.000000000  -43.337401036    0.179267972
 -23609.500000000  -43.605214982    0.177815080
 -23608.000000000  -43.870840306    0.176350253
 -23606.500000000  -44.134261131    0.174876208
 -23605.000000000  -44.395465723    0.173395750
 -23603.500000000  -44.654446618    0.171911767
 -23602.000000000  -44.911200743    0.170427224
 -23600.500000000  -45.165729525    0.168945152
 -23599.000000000  -45.418038979    0.167468640
 -23597.500000000  -45.668139791    0.166000823
 -23596.000000000  -45.916047383    0.164544877
 -23594.500000000  -46.161781955    0.163103998
 -23593.000000000  -46.405368518    0.161681400
 -23591.500000000  -46.646836901    0.160280294
 -23590.000000000  -46.886221743    0.158903876
 -23588.500000000  -47.123562460    0.157555317
 -23587.000000000  -47.358903188    0.156237741
 -23585.500000000  -47.592292708    0.154954212
 -23584.000000000  -47.823784341    0.153707715
 -23582.500000000  -48.053435816    0.152501142
 -23581.000000000  -48.281309117    0.151337268
 -23579.500000000  -48.507470295    0.150218738
 -23578.000000000  -48.731989250    0.149148039
 -23576.500000000  -48.954939489    0.148127487
 -23575.000000000  -49.176397847    0.147159199
 -23573.500000000  -49.396444173    0.146245076
 -23572.000000000  -49.615160991    0.145386777
 -23570.500000000  -49.832633119    0.144585697
 -23569.000000000  -50.048947252    0.143842944
 -23567.500000000  -50.264191516    0.143159311
 -23566.000000000  -50.478454979    0.142535257
 -23564.500000000  -50.691827129    0.141970878
 -23563.000000000  -50.904397311    0.141465884
 -23561.500000000  -51.116254129    0.141019572
 -23560.000000000  -51.327484807    0.140630804
 -23558.500000000  -51.538174518    0.140297976
 -23557.000000000  -51.748405670    0.140019001
 -23555.500000000  -51.958257154    0.139791276
 -23554.000000000  -52.167803563    0.139611664
 -23552.500000000  -52.377114365    0.139476469
 -23551.000000000  -52.586253049    0.139381411
 -23549.500000000  -52.795276236    0.139321607
 -23548.000000000  -53.004232754    0.139291548
 -23546.500000000  -53.213162687    0.139285081
 -23545.000000000  -53.422096397    0.139295391
 -23543.500000000  -53.631053514    0.139314986
 -23542.000000000  -53.840041916    0.139335680
 -23540.500000000  -54.049056673    0.139348586
 -23539.000000000  -54.258078991    0.139344102
 -23537.500000000  -54.467075136    0.139311908
 -23536.000000000  -54.675995352    0.139240963
 -23534.500000000  -54.884772779    0.139119503
 -23533.000000000  -55.093322376    0.138935050
 -23531.500000000  -55.301539849    0.138674416
 -23530.000000000  -55.509300603    0.138323719
 -23528.500000000  -55.716458708    0.137868403
 -23527.000000000  -55.922845908    0.137293259
 -23525.500000000  -56.128270667    0.136582458
 -23524.000000000  -56.332517258    0.135719587
 -23522.500000000  -56.535344925    0.134687693
 -23521.000000000  -56.736487112    0.133469335
 -23519.500000000  -56.935650770    0.132046644
 -23518.000000000  -57.132515770    0.130401394
 -23516.500000000  -57.326734421    0.128515076
 -23515.000000000  -57.517931117    0.126368993
 -23513.500000000  -57.705702124    0.123944358
 -23512.000000000  -57.889615527    0.121222402
 -23510.500000000  -58.069211354    0.118184505
 -23509.000000000  -58.244001898    0.114812332
 -23507.500000000  -58.413472254    0.111087984
 -23506.000000000  -58.577081104    0.106994169
 -23504.500000000  -58.734261758    0.102514382
 -23503.000000000  -58.884423491    0.097633115
 -23501.500000000  -59.026953192    0.092336071
 -23500.000000000  -59.161217365    0.086610405
