#! FIELDS energy b1.bias der_energy
#! SET min_energy -25000
#! SET max_energy -23500
#! SET nbins_energy  1001
#! SET periodic_energy false
 -25000.000000000 -102.357716745   -0.240042602
 -24998.500000000 -102.004101721   -0.231731609
 -24997.000000000 -101.661713385   -0.225038352
 -24995.500000000 -101.328279210   -0.219760626
 -24994.000000000 -101.001815785   -0.215714923
 -24992.500000000 -100.680601776   -0.212735089
 -24991.000000000 -100.363152864   -0.210671058
 -24989.500000000 -100.048198516   -0.209387657
 -24988.000000000  -99.734660491   -0.208763485
 -24986.500000000  -99.421632981   -0.208689863
 -24985.000000000  -99.108364285   -0.209069836
 -24983.500000000  -98.794239919   -0.209817250
 -24982.000000000  -98.478767078   -0.210855880
 -24980.500000000  -98.161560370   -0.212118606
 -24979.000000000  -97.842328723   -0.213546659
 -24977.500000000  -97.520863416   -0.215088897
 -24976.000000000  -97.197027137   -0.216701138
 -24974.500000000  -96.870744018   -0.218345539
 -24973.000000000  -96.541990572   -0.219990010
 -24971.500000000  -96.210787471   -0.221607674
 -24970.000000000  -95.877192111   -0.223176358
 -24968.500000000  -95.541291915   -0.224678130
 -24967.000000000  -95.203198301   -0.226098856
 -24965.500000000  -94.863041290   -0.227427799
 -24964.000000000  -94.520964697   -0.228657246
 -24962.500000000  -94.177121858   -0.229782160
 -24961.000000000  -93.831671857   -0.230799862
 -24959.500000000  -93.484776218   -0.231709732
 -24958.000000000  -93.136596015   -0.232512945
 -24956.500000000  -92.787289374   -0.233212219
 -24955.000000000  -92.437009333   -0.233811582
 -24953.500000000  -92.085902028   -0.234316175
 -24952.000000000  -91.734105181   -0.234732048
 -24950.500000000  -91.381746853   -0.235066000
 -24949.000000000  -91.028944456   -0.235325413
 -24947.500000000  -90.675803976   -0.235518112
 -24946.000000000  -90.322419408   -0.235652241
 -24944.500000000  -89.968872368   -0.235736143
 -24943.000000000  -89.615231873   -0.235778259
 -24941.500000000  -89.261554259   -0.235787038
 -24940.000000000  -88.907883237   -0.235770856
 -24938.500000000  -88.554250055   -0.235737941
 -24937.000000000  -88.200673765   -0.235696317
 -24935.500000000  -87.847161574   -0.235653745
 -24934.000000000  -87.493709272   -0.235617679
 -24932.500000000  -87.140301721   -0.235595231
 -24931.000000000  -86.786913399   -0.235593129
 -24929.500000000  -86.433508988   -0.235617703
 -24928.000000000  -86.080043995   -0.235674853
 -24926.500000000  -85.726465403   -0.235770041
 -24925.000000000  -85.372712341   -0.235908276
 -24923.500000000  -85.018716769   -0.236094108
 -24922.000000000  -84.664404168   -0.236331625
 -24920.500000000  -84.309694233   -0.236624452
 -24919.000000000  -83.954501566   -0.236975756
 -24917.500000000  -83.598736361   -0.237388251
 -24916.000000000  -83.242305076   -0.237864204
 -24914.500000000  -82.885111095   -0.238405450
 -24913.000000000  -82.527055367   -0.239013399
 -24911.500000000  -82.168037037   -0.239689055
 -24910.000000000  -81.807954038   -0.240433026
 -24908.500000000  -81.446703677   -0.241245546
 -24907.000000000  -81.084183183   -0.242126487
 -24905.500000000  -80.720290233   -0.243075382
 -24904.000000000  -80.354923452   -0.244091438
 -24902.500000000  -79.987982881   -0.245173562
 -24901.000000000  -79.619370417   -0.246320376
 -24899.500000000  -79.248990225   -0.247530237
 -24898.000000000  -78.876749121   -0.248801260
 -24896.500000000  -78.502556916   -0.250131334
 -24895.000000000  -78.126326747   -0.251518144
 -24893.500000000  -77.747975363   -0.252959190
 -24892.000000000  -77.367423390   -0.254451806
 -24890.500000000  -76.984595563   -0.255993180
 -24889.000000000  -76.599420940   -0.257580369
 -24887.500000000  -76.211833072   -0.259210323
 -24886.000000000  -75.821770161   -0.260879894
 -24884.500000000  -75.429175189   -0.262585863
 -24883.000000000  -75.033996015   -0.264324946
 -24881.500000000  -74.636185457   -0.266093818
 -24880.000000000  -74.235701346   -0.267889122
 -24878.500000000  -73.832506561   -0.269707487
 -24877.000000000  -73.426569042   -0.271545539
 -24875.500000000  -73.017861782   -0.273399917
 -24874.000000000  -72.606362799   -0.275267281
 -24872.500000000  -72.192055099   -0.277144326
 -24871.000000000  -71.774926612   -0.279027792
 -24869.500000000  -71.354970115   -0.280914475
 -24868.000000000  -70.932183149   -0.282801235
 -24866.500000000  -70.506567908   -0.284685003
 -24865.000000000  -70.078131130   -0.286562793
 -24863.500000000  -69.646883969   -0.288431705
 -24862.000000000  -69.212841858   -0.290288934
 -24860.500000000  -68.776024363   -0.292131774
 -24859.000000000  -68.336455031   -0.293957625
 -24857.500000000  -67.894161229   -0.295763996
 -24856.000000000  -67.449173974   -0.297548509
 -24854.500000000  -67.001527765   -0.299308902
 -24853.000000000  -66.551260401   -0.301043034
 -24851.500000000  -66.098412806   -0.302748885
 -24850.000000000  -65.643028839   -0.304424557
 -24848.500000000  -65.185155113   -0.306068277
 -24847.000000000  -64.724840809   -0.307678398
 -24845.500000000  -64.262137481   -0.309253398
 -24844.000000000  -63.797098878   -0.310791877
 -24842.500000000  -63.329780749   -0.312292563
 -24841.000000000  -62.860240663   -0.313754305
 -24839.500000000  -62.388537822   -0.315176076
 -24838.000000000  -61.914732878   -0.316556967
 -24836.500000000  -61.438887759   -0.317896188
 -24835.000000000  -60.961065489   -0.319193065
 -24833.500000000  -60.481330018   -0.320447038
 -24832.000000000  -59.999746055   -0.321657655
 -24830.500000000  -59.516378903   -0.322824574
 -24829.000000000  -59.031294302   -0.323947556
 -24827.500000000  -58.544558275   -0.325026461
 -24826.000000000  -58.056236980   -0.326061248
 -24824.500000000  -57.566396566   -0.327051968
 -24823.000000000  -57.075103040   -0.327998762
 -24821.500000000  -56.582422133   -0.328901854
 -24820.000000000  -56.088419176   -0.329761552
 -24818.500000000  -55.593158983   -0.330578239
 -24817.000000000  -55.096705737   -0.331352371
 -24815.500000000  -54.599122886   -0.332084472
 -24814.000000000  -54.100473043   -0.332775130
 -24812.500000000  -53.600817894   -0.333424994
 -24811.000000000  -53.100218109   -0.334034766
 -24809.500000000  -52.598733267   -0.334605199
 -24808.000000000  -52.096421780   -0.335137096
 -24806.500000000  -51.593340826   -0.335631299
 -24805.000000000  -51.089546289   -0.336088689
 -24803.500000000  -50.585092708   -0.336510182
 -24802.000000000  -50.080033221   -0.336896722
 -24800.500000000  -49.574419534   -0.337249280
 -24799.000000000  -49.068301874   -0.337568851
 -24797.500000000  -48.561728969   -0.337856445
 -24796.000000000  -48.054748016   -0.338113087
 -24794.500000000  -47.547404667   -0.338339814
 -24793.000000000  -47.039743011   -0.338537669
 -24791.500000000  -46.531805571   -0.338707701
 -24790.000000000  -46.023633296   -0.338850957
 -24788.500000000  -45.515265566   -0.338968482
 -24787.000000000  -45.006740195   -0.339061317
 -24785.500000000  -44.498093445   -0.339130493
 -24784.000000000  -43.989360037   -0.339177029
 -24782.500000000  -43.480573173   -0.339201933
 -24781.000000000  -42.971764558   -0.339206195
 -24779.500000000  -42.462964425   -0.339190784
 -24778.000000000  -41.954201565   -0.339156653
 -24776.500000000  -41.445503362   -0.339104728
 -24775.000000000  -40.936895825   -0.339035913
 -24773.500000000  -40.428403631   -0.338951082
 -24772.000000000  -39.920050162   -0.338851085
 -24770.500000000  -39.411857552   -0.338736738
 -24769.000000000  -38.903846728   -0.338608830
 -24767.500000000  -38.396037464   -0.338468115
 -24766.000000000  -37.888448424   -0.338315315
 -24764.500000000  -37.381097217   -0.338151117
 -24763.000000000  -36.874000446   -0.337976172
 -24761.500000000  -36.367173764   -0.337791099
 -24760.000000000  -35.860631924   -0.337596475
 -24758.500000000  -35.354388840   -0.337392846
 -24757.000000000  -34.848457635   -0.337180717
 -24755.500000000  -34.342850703   -0.336960557
 -24754.000000000  -33.837579761   -0.336732799
 -24752.500000000  -33.332655908   -0.336497835
 -24751.000000000  -32.828089679   -0.336256024
 -24749.500000000  -32.323891098   -0.336007686
 -24748.000000000  -31.820069741   -0.335753105
 -24746.500000000  -31.316634781   -0.335492527
 -24745.000000000  -30.813595052   -0.335226164
 -24743.500000000  -30.310959092   -0.334954194
 -24742.000000000  -29.808735204   -0.334676757
 -24740.500000000  -29.306931499   -0.334393963
 -24739.000000000  -28.805555956   -0.334105886
 -24737.500000000  -28.304616459   -0.333812571
 -24736.000000000  -27.804120854   -0.333514030
 -24734.500000000  -27.304076990   -0.333210245
 -24733.000000000  -26.804492764   -0.332901169
 -24731.500000000  -26.305376165   -0.332586728
 -24730.000000000  -25.806735314   -0.332266820
 -24728.500000000  -25.308578501   -0.331941319
 -24727.000000000  -24.810914229   -0.331610073
 -24725.500000000  -24.313751241   -0.331272908
 -24724.000000000  -23.817098562   -0.330929628
 -24722.500000000  -23.320965523   -0.330580016
 -24721.000000000  -22.825361797   -0.330223837
 -24719.500000000  -22.330297423   -0.329860836
 -24718.000000000  -21.835782833   -0.329490745
 -24716.500000000  -21.341828876   -0.329113278
 -24715.000000000  -20.848446837   -0.328728136
 -24713.500000000  -20.355648460   -0.328335008
 -24712.000000000  -19.863445965   -0.327933573
 -24710.500000000  -19.371852060   -0.327523499
 -24709.000000000  -18.880879958   -0.327104445
 -24707.500000000  -18.390543387   -0.326676067
 -24706.000000000  -17.900856597   -0.326238010
 -24704.500000000  -17.411834372   -0.325789921
 -24703.000000000  -16.923492031   -0.325331438
 -24701.500000000  -16.435845435   -0.324862202
 -24700.000000000  -15.948910983   -0.324381851
 -24698.500000000  -15.462705618   -0.323890026
 -24697.000000000  -14.977246821   -0.323386369
 -24695.500000000  -14.492552606   -0.322870524
 -24694.000000000  -14.008641519   -0.322342141
 -24692.500000000  -13.525532624   -0.321800876
 -24691.000000000  -13.043245501   -0.321246391
 -24689.500000000  -12.561800228   -0.320678354
 -24688.000000000  -12.081217376   -0.320096445
 -24686.500000000  -11.601517988   -0.319500350
 -24685.000000000  -11.122723570   -0.318889768
 -24683.500000000  -10.644856073   -0.318264408
 -24682.000000000  -10.167937873   -0.317623993
 -24680.500000000   -9.691991755   -0.316968257
 -24679.000000000   -9.217040890   -0.316296947
 -24677.500000000   -8.743108818   -0.315609828
 -24676.000000000   -8.270219422   -0.314906677
 -24674.500000000   -7.798396907   -0.314187287
 -24673.000000000   -7.327665775   -0.313451469
 -24671.500000000   -6.858050802   -0.312699048
 -24670.000000000   -6.389577011   -0.311929868
 -24668.500000000   -5.922269647   -0.311143791
 -24667.000000000   -5.456154148   -0.310340695
 -24665.500000000   -4.991256122   -0.309520479
 -24664.000000000   -4.527601315   -0.308683057
 -24662.500000000   -4.065215587   -0.307828365
 -24661.000000000   -3.604124880   -0.306956356
 -24659.500000000   -3.144355192   -0.306067003
 -24658.000000000   -2.685932547   -0.305160298
 -24656.500000000   -2.228882967   -0.304236253
 -24655.000000000   -1.773232445   -0.303294896
 -24653.500000000   -1.319006909   -0.302336279
 -24652.000000000   -0.866232203   -0.301360470
 -24650.500000000   -0.414934051   -0.300367556
 -24649.000000000    0.034861967   -0.299357645
 -24647.500000000    0.483130446   -0.298330861
 -24646.000000000    0.929846184   -0.297287347
 -24644.500000000    1.374984204   -0.296227267
 -24643.000000000    1.818519790   -0.295150799
 -24641.500000000    2.260428506   -0.294058141
 -24640.000000000    2.700686224   -0.292949507
 -24638.500000000    3.139269154   -0.291825128
 -24637.000000000    3.576153860   -0.290685252
 -24635.500000000    4.011317293   -0.289530142
 -24634.000000000    4.444736809   -0.288360078
 -24632.500000000    4.876390195   -0.287175352
 -24631.000000000    5.306255688   -0.285976273
 -24629.500000000    5.734311997   -0.284763162
 -24628.000000000    6.160538326   -0.283536356
 -24626.500000000    6.584914389   -0.282296201
 -24625.000000000    7.007420434   -0.281043058
 -24623.500000000    7.428037255   -0.279777298
 -24622.000000000    7.846746212   -0.278499304
 -24620.500000000    8.263529245   -0.277209467
 -24619.000000000    8.678368892   -0.275908190
 -24617.500000000    9.091248299   -0.274595882
 -24616.000000000    9.502151234   -0.273272964
 -24614.500000000    9.911062098   -0.271939860
 -24613.000000000   10.317965939   -0.270597005
 -24611.500000000   10.722848456   -0.269244836
 -24610.000000000   11.125696013   -0.267883799
 -24608.500000000   11.526495643   -0.266514342
 -24607.000000000   11.925235055   -0.265136918
 -24605.500000000   12.321902641   -0.263751983
 -24604.000000000   12.716487477   -0.262359995
 -24602.500000000   13.108979331   -0.260961416
 -24601.000000000   13.499368661   -0.259556707
 -24599.500000000   13.887646617   -0.258146329
 -24598.000000000   14.273805044   -0.256730744
 -24596.500000000   14.657836476   -0.255310413
 -24595.000000000   15.039734140   -0.253885796
 -24593.500000000   15.419491948   -0.252457348
 -24592.000000000   15.797104497   -0.251025525
 -24590.500000000   16.172567060   -0.249590776
 -24589.000000000   16.545875584   -0.248153547
 -24587.500000000   16.917026682   -0.246714281
 -24586.000000000   17.286017626   -0.245273413
 -24584.500000000   17.652846336   -0.243831374
 -24583.000000000   18.017511374   -0.242388587
 -24581.500000000   18.380011932   -0.240945469
 -24580.000000000   18.740347822   -0.239502430
 -24578.500000000   19.098519462   -0.238059870
 -24577.000000000   19.454527868   -0.236618182
 -24575.500000000   19.808374636   -0.235177750
 -24574.000000000   20.160061932   -0.233738947
 -24572.500000000   20.509592474   -0.232302138
 -24571.000000000   20.856969520   -0.230867677
 -24569.500000000   21.202196851   -0.229435908
 -24568.000000000   21.545278754   -0.228007162
 -24566.500000000   21.886220008   -0.226581760
 -24565.000000000   22.225025862   -0.225160013
 -24563.500000000   22.561702022   -0.223742216
 -24562.000000000   22.896254629   -0.222328656
 -24560.500000000   23.228690245   -0.220919605
 -24559.000000000   23.559015830   -0.219515324
 -24557.500000000   23.887238724   -0.218116058
 -24556.000000000   24.213366629   -0.216722043
 -24554.500000000   24.537407588   -0.215333498
 -24553.000000000   24.859369963   -0.213950632
 -24551.500000000   25.179262422   -0.212573639
 -24550.000000000   25.497093909   -0.211202700
 -24548.500000000   25.812873631   -0.209837980
 -24547.000000000   26.126611036   -0.208479635
 -24545.500000000   26.438315792   -0.207127802
 -24544.000000000   26.747997763   -0.205782610
 -24542.500000000   27.055666997   -0.204444169
 -24541.000000000   27.361333696   -0.203112580
 -24539.500000000   27.665008205   -0.201787927
 -24538.000000000   27.966700983   -0.200470284
 -24536.500000000   28.266422592   -0.199159709
 -24535.000000000   28.564183668   -0.197856248
 -24533.500000000   28.859994909   -0.196559934
 -24532.000000000   29.153867053   -0.195270787
 -24530.500000000   29.445810857   -0.193988814
 -24529.000000000   29.735837082   -0.192714012
 -24527.500000000   30.023956470   -0.191446363
 -24526.000000000   30.310179732   -0.190185837
 -24524.500000000   30.594517525   -0.188932396
 -24523.000000000   30.876980436   -0.187685986
 -24521.500000000   31.157578968   -0.186446545
 -24520.000000000   31.436323519   -0.185213999
 -24518.500000000   31.713224372   -0.183988265
 -24517.000000000   31.988291672   -0.182769247
 -24515.500000000   32.261535419   -0.181556842
 -24514.000000000   32.532965446   -0.180350935
 -24512.500000000   32.802591414   -0.179151406
 -24511.000000000   33.070422788   -0.177958122
 -24509.500000000   33.336468833   -0.176770944
 -24508.000000000   33.600738599   -0.175589724
 -24506.500000000   33.863240908   -0.174414308
 -24505.000000000   34.123984344   -0.173244533
 -24503.500000000   34.382977244   -0.172080231
 -24502.000000000   34.640227686   -0.170921227
 -24500.500000000   34.895743483   -0.169767339
 -24499.000000000   35.149532169   -0.168618382
 -24497.500000000   35.401600999   -0.167474164
 -24496.000000000   35.651956934   -0.166334490
 -24494.500000000   35.900606640   -0.165199159
 -24493.000000000   36.147556482   -0.164067969
 -24491.500000000   36.392812513   -0.162940711
 -24490.000000000   36.636380476   -0.161817177
 -24488.500000000   36.878265799   -0.160697154
 -24487.000000000   37.118473587   -0.159580429
 -24485.500000000   37.357008627   -0.158466786
 -24484.000000000   37.593875379   -0.157356009
 -24482.500000000   37.829077977   -0.156247880
 -24481.000000000   38.062620233   -0.155142182
 -24479.500000000   38.294505629   -0.154038698
 -24478.000000000   38.524737325   -0.152937211
 -24476.500000000   38.753318153   -0.151837506
 -24475.000000000   38.980250625   -0.150739368
 -24473.500000000   39.205536934   -0.149642585
 -24472.000000000   39.429178953   -0.148546947
 -24470.500000000   39.651178245   -0.147452247
 -24469.000000000   39.871536060   -0.146358279
 -24467.500000000   40.090253346   -0.145264841
 -24466.000000000   40.307330750   -0.144171737
 -24464.500000000   40.522768626   -0.143078772
 -24463.000000000   40.736567041   -0.141985756
 -24461.500000000   40.948725777   -0.140892505
 -24460.000000000   41.159244348   -0.139798838
 -24458.500000000   41.368121996   -0.138704580
 -24457.000000000   41.575357709   -0.137609562
 -24455.500000000   41.780950221   -0.136513620
 -24454.000000000   41.984898029   -0.135416596
 -24452.500000000   42.187199394   -0.134318339
 -24451.000000000   42.387852356   -0.133218703
 -24449.500000000   42.586854744   -0.132117550
 -24448.000000000   42.784204181   -0.131014748
 -24446.500000000   42.979898100   -0.129910172
 -24445.000000000   43.173933752   -0.128803706
 -24443.500000000   43.366308218   -0.127695239
 -24442.000000000   43.557018418   -0.126584669
 -24440.500000000   43.746061126   -0.125471901
 -24439.000000000   43.933432977   -0.124356847
 -24437.500000000   44.119130484   -0.123239429
 -24436.000000000   44.303150045   -0.122119575
 -24434.500000000   44.485487958   -0.120997222
 -24433.000000000   44.666140432   -0.119872314
 -24431.500000000   44.845103599   -0.118744805
 -24430.000000000   45.022373527   -0.117614655
 -24428.500000000   45.197946230   -0.116481834
 -24427.000000000   45.371817683   -0.115346319
 -24425.500000000   45.543983833   -0.114208096
 -24424.000000000   45.714440612   -0.113067157
 -24422.500000000   45.883183947   -0.111923504
 -24421.000000000   46.050209773   -0.110777148
 -24419.500000000   46.215514047   -0.109628105
 -24418.000000000   46.379092756   -0.108476400
 -24416.500000000   46.540941933   -0.107322068
 -24415.000000000   46.701057666   -0.106165148
 -24413.500000000   46.859436107   -0.105005689
 -24412.000000000   47.016073489   -0.103843746
 -24410.500000000   47.170966134   -0.102679382
 -24409.000000000   47.324110461   -0.101512668
 -24407.500000000   47.475503000   -0.100343680
 -24406.000000000   47.625140404   -0.099172501
 -24404.500000000   47.773019453   -0.097999222
 -24403.000000000   47.919137068   -0.096823939
 -24401.500000000   48.063490320   -0.095646756
 -24400.000000000   48.206076438   -0.094467779
 -24398.500000000   48.346892818   -0.093287125
 -24397.000000000   48.485937033   -0.092104912
 -24395.500000000   48.623206837   -0.090921265
 -24394.000000000   48.758700176   -0.089736315
 -24392.500000000   48.892415197   -0.088550196
 -24391.000000000   49.024350249   -0.087363047
 -24389.500000000   49.154503894   -0.086175012
 -24388.000000000   49.282874914   -0.084986237
 -24386.500000000   49.409462311   -0.083796874
 -24385.000000000   49.534265319   -0.082607077
 -24383.500000000   49.657283405   -0.081417004
 -24382.000000000   49.778516272   -0.080226813
 -24380.500000000   49.897963868   -0.079036669
 -24379.000000000   50.015626385   -0.077846736
 -24377.500000000   50.131504264   -0.076657180
 -24376.000000000   50.245598197   -0.075468170
 -24374.500000000   50.357909130   -0.074279875
 -24373.000000000   50.468438265   -0.073092466
 -24371.500000000   50.577187057   -0.071906114
 -24370.000000000   50.684157222   -0.070720991
 -24368.500000000   50.789350731   -0.069537269
 -24367.000000000   50.892769815   -0.068355119
 -24365.500000000   50.994416960   -0.067174712
 -24364.000000000   51.094294908   -0.065996218
 -24362.500000000   51.192406656   -0.064819807
 -24361.000000000   51.288755455   -0.063645647
 -24359.500000000   51.383344804   -0.062473902
 -24358.000000000   51.476178452   -0.061304738
 -24356.500000000   51.567260390   -0.060138317
 -24355.000000000   51.656594852   -0.058974797
 -24353.500000000   51.744186310   -0.057814336
 -24352.000000000   51.830039465   -0.056657086
 -24350.500000000   51.914159250   -0.055503200
 -24349.000000000   51.996550819   -0.054352822
 -24347.500000000   52.077219543   -0.053206097
 -24346.000000000   52.156171005   -0.052063163
 -24344.500000000   52.233410995   -0.050924155
 -24343.000000000   52.308945499   -0.049789204
 -24341.500000000   52.382780697   -0.048658435
 -24340.000000000   52.454922954   -0.047531969
 -24338.500000000   52.525378813   -0.046409921
 -24337.000000000   52.594154984   -0.045292404
 -24335.500000000   52.661258341   -0.044179520
 -24334.000000000   52.726695912   -0.043071371
 -24332.500000000   52.790474869   -0.041968050
 -24331.000000000   52.852602521   -0.040869645
 -24329.500000000   52.913086303   -0.039776238
 -24328.000000000   52.971933771   -0.038687904
 -24326.500000000   53.029152587   -0.037604714
 -24325.000000000   53.084750515   -0.036526730
 -24323.500000000   53.138735408   -0.035454009
 -24322.000000000   53.191115200   -0.034386602
 -24320.500000000   53.241897894   -0.033324553
 -24319.000000000   53.291091555   -0.032267897
 -24317.500000000   53.338704298   -0.031216666
 -24316.000000000   53.384744277   -0.030170883
 -24314.500000000   53.429219679   -0.029130565
 -24313.000000000   53.472138709   -0.028095721
 -24311.500000000   53.513509582   -0.027066356
 -24310.000000000   53.553340515   -0.026042466
 -24308.500000000   53.591639713   -0.025024040
 -24307.000000000   53.628415359   -0.024011061
 -24305.500000000   53.663675608   -0.023003506
 -24304.000000000   53.697428574   -0.022001344
 -24302.500000000   53.729682319   -0.021004539
 -24301.000000000   53.760444848   -0.020013047
 -24299.500000000   53.789724093   -0.019026819
 -24298.000000000   53.817527908   -0.018045798
 -24296.500000000   53.843864059   -0.017069922
 -24295.000000000   53.868740212   -0.016099123
 -24293.500000000   53.892163928   -0.015133326
 -24292.000000000   53.914142651   -0.014172452
 -24290.500000000   53.934683702   -0.013216414
 -24289.000000000   53.953794267   -0.012265122
 -24287.500000000   53.971481392   -0.011318478
 -24286.000000000   53.987751976   -0.010376382
 -24284.500000000   54.002612758   -0.009438725
 -24283.000000000   54.016070315   -0.008505397
 -24281.500000000   54.028131054   -0.007576280
 -24280.000000000   54.038801202   -0.006651255
 -24278.500000000   54.048086803   -0.005730197
 -24277.000000000   54.055993711   -0.004812976
 -24275.500000000   54.062527583   -0.003899460
 -24274.000000000   54.067693874   -0.002989512
 -24272.500000000   54.071497834   -0.002082994
 -24271.000000000   54.073944499   -0.001179762
 -24269.500000000   54.075038692   -0.000279672
 -24268.000000000   54.074785013    0.000617424
 -24266.500000000   54.073187841    0.001511678
 -24265.000000000   54.070251326    0.002403240
 -24263.500000000   54.065979390    0.003292265
 -24262.000000000   54.060375722    0.004178909
 -24260.500000000   54.053443777    0.005063328
 -24259.000000000   54.045186773    0.005945679
 -24257.500000000   54.035607693    0.006826123
 -24256.000000000   54.024709280    0.007704816
 -24254.500000000   54.012494039    0.008581920
 -24253.000000000   53.998964237    0.009457591
 -24251.500000000   53.984121902    0.010331989
 -24250.000000000   53.967968827    0.011205272
 -24248.500000000   53.950506565    0.012077597
 -24247.000000000   53.931736437    0.012949119
 -24245.500000000   53.911659532    0.013819993
 -24244.000000000   53.890276707    0.014690371
 -24242.500000000   53.867588593    0.015560403
 -24241.000000000   53.843595595    0.016430239
 -24239.500000000   53.818297901    0.017300024
 -24238.000000000   53.791695479    0.018169900
 -24236.500000000   53.763788086    0.019040007
 -24235.000000000   53.734575272    0.019910484
 -24233.500000000   53.704056385    0.020781461
 -24232.000000000   53.672230574    0.021653069
 -24230.500000000   53.639096798    0.022525434
 -24229.000000000   53.604653832    0.023398677
 -24227.500000000   53.568900271    0.024272913
 -24226.000000000   53.531834538    0.025148257
 -24224.500000000   53.493454893    0.026024815
 -24223.000000000   53.453759435    0.026902689
 -24221.500000000   53.412746118    0.027781978
 -24220.000000000   53.370412750    0.028662772
 -24218.500000000   53.326757007    0.029545158
 -24217.000000000   53.281776440    0.030429217
 -24215.500000000   53.235468482    0.031315024
 -24214.000000000   53.187830460    0.032202647
 -24212.500000000   53.138859601    0.033092150
 -24211.000000000   53.088553042    0.033983589
 -24209.500000000   53.036907841    0.034877014
 -24208.000000000   52.983920986    0.035772469
 -24206.500000000   52.929589402    0.036669991
 -24205.000000000   52.873909965    0.037569611
 -24203.500000000   52.816879508    0.038471353
 -24202.000000000   52.758494836    0.039375235
 -24200.500000000   52.698752730    0.040281266
 -24199.000000000   52.637649961    0.041189451
 -24197.500000000   52.575183301    0.042099787
 -24196.000000000   52.511349529    0.043012264
 -24194.500000000   52.446145447    0.043926865
 -24193.000000000   52.379567884    0.044843567
 -24191.500000000   52.311613712    0.045762339
 -24190.000000000   52.242279851    0.046683145
 -24188.500000000   52.171563283    0.047605941
 -24187.000000000   52.099461060    0.048530676
 -24185.500000000   52.025970313    0.049457294
 -24184.000000000   51.951088267    0.050385732
 -24182.500000000   51.874812241    0.051315920
 -24181.000000000   51.797139669    0.052247782
 -24179.500000000   51.718068099    0.053181236
 -24178.000000000   51.637595210    0.054116193
 -24176.500000000   51.555718814    0.055052561
 -24175.000000000   51.472436872    0.055990239
 -24173.500000000   51.387747496    0.056929121
 -24172.000000000   51.301648960    0.057869098
 -24170.500000000   51.214139711    0.058810054
 -24169.000000000   51.125218370    0.059751867
 -24167.500000000   51.034883745    0.060694412
 -24166.000000000   50.943134833    0.061637559
 -24164.500000000   50.849970835    0.062581173
 -24163.000000000   50.755391151    0.063525115
 -24161.500000000   50.659395397    0.064469243
 -24160.000000000   50.561983404    0.065413410
 -24158.500000000   50.463155224    0.066357466
 -24157.000000000   50.362911137    0.067301259
 -24155.500000000   50.261251656    0.068244633
 -24154.000000000   50.158177527    0.069187429
 -24152.500000000   50.053689737    0.070129487
 -24151.000000000   49.947789516    0.071070644
 -24149.500000000   49.840478339    0.072010735
 -24148.000000000   49.731757927    0.072949595
 -24146.500000000   49.621630253    0.073887056
 -24145.000000000   49.510097541    0.074822951
 -24143.500000000   49.397162266    0.075757111
 -24142.000000000   49.282827158    0.076689368
 -24140.500000000   49.167095198    0.077619553
 -24139.000000000   49.049969619    0.078547498
 -24137.500000000   48.931453907    0.079473036
 -24136.000000000   48.811551798    0.080396000
 -24134.500000000   48.690267275    0.081316226
 -24133.000000000   48.567604570    0.082233551
 -24131.500000000   48.443568154    0.083147813
 -24130.000000000   48.318162741    0.084058854
 -24128.500000000   48.191393280    0.084966518
 -24127.000000000   48.063264952    0.085870652
 -24125.500000000   47.933783165    0.086771105
 -24124.000000000   47.802953549    0.087667733
 -24122.500000000   47.670781950    0.088560392
 -24121.000000000   47.537274425    0.089448946
 -24119.500000000   47.402437233    0.090333260
 -24118.000000000   47.266276831    0.091213205
 -24116.500000000   47.128799863    0.092088660
 -24115.000000000   46.990013157    0.092959505
 -24113.500000000   46.849923711    0.093825628
 -24112.000000000   46.708538688    0.094686922
 -24110.500000000   46.565865408    0.095543289
 -24109.000000000   46.421911333    0.096394633
 -24107.500000000   46.276684064    0.097240868
 -24106.000000000   46.130191324    0.098081914
 -24104.500000000   45.982440954    0.098917697
 -24103.000000000   45.833440898    0.099748152
 -24101.500000000   45.683199191    0.100573222
 -24100.000000000   45.531723951    0.101392855
 -24098.500000000   45.379023365    0.102207010
 -24097.000000000   45.225105678    0.103015652
 -24095.500000000   45.069979178    0.103818755
 -24094.000000000   44.913652189    0.104616303
 -24092.500000000   44.756133053    0.105408285
 -24091.000000000   44.597430118    0.106194701
 -24089.500000000   44.437551728    0.106975560
 -24088.000000000   44.276506208    0.107750879
 -24086.500000000   44.114301847    0.108520685
 -24085.000000000   43.950946894    0.109285011
 -24083.500000000   43.786449533    0.110043902
 -24082.000000000   43.620817878    0.110797412
 -24080.500000000   43.454059956    0.111545602
 -24079.000000000   43.286183694    0.112288544
 -24077.500000000   43.117196907    0.113026318
 -24076.000000000   42.947107280    0.113759013
 -24074.500000000   42.775922359    0.114486726
 -24073.000000000   42.603649538    0.115209566
 -24071.500000000   42.430296041    0.115927647
 -24070.000000000   42.255868913    0.116641094
 -24068.500000000   42.080375008    0.117350040
 -24067.000000000   41.903820973    0.118054626
 -24065.500000000   41.726213235    0.118755002
 -24064.000000000   41.547557994    0.119451324
 -24062.500000000   41.367861205    0.120143760
 -24061.000000000   41.187128572    0.120832481
 -24059.500000000   41.005365531    0.121517668
 -24058.000000000   40.822577242    0.122199509
 -24056.500000000   40.638768580    0.122878199
 -24055.000000000   40.453944122    0.123553939
 -24053.500000000   40.268108136    0.124226937
 -24052.000000000   40.081264576    0.124897407
 -24050.500000000   39.893417071    0.125565568
 -24049.000000000   39.704568913    0.126231647
 -24047.500000000   39.514723057    0.126895872
 -24046.000000000   39.323882106    0.127558480
 -24044.500000000   39.132048307    0.128219709
 -24043.000000000   38.939223547    0.128879803
 -24041.500000000   38.745409342    0.129539009
 -24040.000000000   38.550606840    0.130197576
 -24038.500000000   38.354816806    0.130855759
 -24037.000000000   38.158039628    0.131513811
 -24035.500000000   37.960275310    0.132171990
 -24034.000000000   37.761523466    0.132830554
 -24032.500000000   37.561783326    0.133489762
 -24031.000000000   37.361053727    0.134149875
 -24029.500000000   37.159333120    0.134811151
 -24028.000000000   36.956619563    0.135473850
 -24026.500000000   36.752910729    0.136138230
 -24025.000000000   36.548203905    0.136804547
 -24023.500000000   36.342495994    0.137473055
 -24022.000000000   36.135783518    0.138144007
 -24020.500000000   35.928062627    0.138817651
 -24019.000000000   35.719329098    0.139494231
 -24017.500000000   35.509578345    0.140173989
 -24016.000000000   35.298805425    0.140857160
 -24014.500000000   35.087005044    0.141543975
 -24013.000000000   34.874171565    0.142234659
 -24011.500000000   34.660299022    0.142929431
 -24010.000000000   34.445381123    0.143628501
 -24008.500000000   34.229411267    0.144332075
 -24007.000000000   34.012382550    0.145040347
 -24005.500000000   33.794287781    0.145753507
 -24004.000000000   33.575119497    0.146471731
 -24002.500000000   33.354869970    0.147195191
 -24001.000000000   33.133531228    0.147924043
 -23999.500000000   32.911095069    0.148658438
 -23998.000000000   32.687553074    0.149398512
 -23996.500000000   32.462896630    0.150144391
 -23995.000000000   32.237116941    0.150896189
 -23993.500000000   32.010205052    0.151654007
 -23992.000000000   31.782151865    0.152417934
 -23990.500000000   31.552948158    0.153188044
 -23989.000000000   31.322584609    0.153964400
 -23987.500000000   31.091051813    0.154747046
 -23986.000000000   30.858340308    0.155536017
 -23984.500000000   30.624440591    0.156331329
 -23983.000000000   30.389343148    0.157132984
 -23981.500000000   30.153038473    0.157940969
 -23980.000000000   29.915517090    0.158755254
 -23978.500000000   29.676769584    0.159575792
 -23977.000000000   29.436786619    0.160402521
 -23975.500000000   29.195558965    0.161235361
 -23974.000000000   28.953077528    0.162074216
 -23972.500000000   28.709333367    0.162918972
 -23971.000000000   28.464317728    0.163769496
 -23969.500000000   28.218022069    0.164625640
 -23968.000000000   27.970438081    0.165487237
 -23966.500000000   27.721557723    0.166354102
 -23965.000000000   27.471373243    0.167226031
 -23963.500000000   27.219877208    0.168102804
 -23962.000000000   26.967062528    0.168984182
 -23960.500000000   26.712922488    0.169869907
 -23959.000000000   26.457450771    0.170759704
 -23957.500000000   26.200641487    0.171653279
 -23956.000000000   25.942489199    0.172550322
 -23954.500000000   25.682988952    0.173450503
 -23953.000000000   25.422136295    0.174353475
 -23951.500000000   25.159927312    0.175258875
 -23950.000000000   24.896358647    0.176166320
 -23948.500000000   24.631427527    0.177075413
 -23947.000000000   24.365131792    0.177985738
 -23945.500000000   24.097469913    0.178896863
 -23944.000000000   23.828441025    0.179808341
 -23942.500000000   23.558044944    0.180719709
 -23941.000000000   23.286282192    0.181630487
 -23939.500000000   23.013154023    0.182540183
 -23938.000000000   22.738662438    0.183448288
 -23936.500000000   22.462810214    0.184354281
 -23935.000000000   22.185600919    0.185257626
 -23933.500000000   21.907038934    0.186157776
 -23932.000000000   21.627129469    0.187054171
 -23930.500000000   21.345878585    0.187946239
 -23929.000000000   21.063293207    0.188833398
 -23927.500000000   20.779381142    0.189715055
 -23926.000000000   20.494151093    0.190590610
 -23924.500000000   20.207612670    0.191459450
 -23923.000000000   19.919776409    0.192320958
 -23921.500000000   19.630653775    0.193174508
 -23920.000000000   19.340257179    0.194019469
 -23918.500000000   19.048599982    0.194855203
 -23917.000000000   18.755696505    0.195681068
 -23915.500000000   18.461562033    0.196496421
 -23914.000000000   18.166212823    0.197300612
 -23912.500000000   17.869666102    0.198092993
 -23911.000000000   17.571940075    0.198872913
 -23909.500000000   17.273053918    0.199639723
 -23908.000000000   16.973027785    0.200392774
 -23906.500000000   16.671882798    0.201131421
 -23905.000000000   16.369641045    0.201855021
 -23903.500000000   16.066325577    0.202562936
 -23902.000000000   15.761960395    0.203254534
 -23900.500000000   15.456570447    0.203929189
 -23899.000000000   15.150181609    0.204586283
 -23897.500000000   14.842820682    0.205225209
 -23896.000000000   14.534515368    0.205845366
 -23894.500000000   14.225294262    0.206446168
 -23893.000000000   13.915186829    0.207027040
 -23891.500000000   13.604223389    0.207587420
 -23890.000000000   13.292435090    0.208126761
 -23888.500000000   12.979853892    0.208644532
 -23887.000000000   12.666512537    0.209140219
 -23885.500000000   12.352444526    0.209613326
 -23884.000000000   12.037684089    0.210063376
 -23882.500000000   11.722266157    0.210489912
 -23881.000000000   11.406226329    0.210892499
 -23879.500000000   11.089600840    0.211270725
 -23878.000000000   10.772426529    0.211624200
 -23876.500000000   10.454740797    0.211952560
 -23875.000000000   10.136581575    0.212255467
 -23873.500000000    9.817987280    0.212532607
 -23872.000000000    9.498996778    0.212783698
 -23870.500000000    9.179649340    0.213008482
 -23869.000000000    8.859984598    0.213206735
 -23867.500000000    8.540042500    0.213378260
 -23866.000000000    8.219863265    0.213522893
 -23864.500000000    7.899487332    0.213640504
 -23863.000000000    7.578955315    0.213730992
 -23861.500000000    7.258307952    0.213794292
 -23860.000000000    6.937586048    0.213830375
 -23858.500000000    6.616830432    0.213839246
 -23857.000000000    6.296081897    0.213820945
 -23855.500000000    5.975381147    0.213775548
 -23854.000000000    5.654768742    0.213703172
 -23852.500000000    5.334285046    0.213603967
 -23851.000000000    5.013970163    0.213478122
 -23849.500000000    4.693863885    0.213325868
 -23848.000000000    4.374005633    0.213147469
 -23846.500000000    4.054434398    0.212943232
 -23845.000000000    3.735188685    0.212713501
 -23843.500000000    3.416306449    0.212458662
 -23842.000000000    3.097825042    0.212179137
 -23840.500000000    2.779781151    0.211875389
 -23839.000000000    2.462210735    0.211547921
 -23837.500000000    2.145148976    0.211197275
 -23836.000000000    1.828630210    0.210824031
 -23834.500000000    1.512687874    0.210428808
 -23833.000000000    1.197354447    0.210012264
 -23831.500000000    0.882661394    0.209575096
 -23830.000000000    0.568639107    0.209118036
 -23828.500000000    0.255316848    0.208641855
 -23827.000000000   -0.057277302    0.208147361
 -23825.500000000   -0.369116498    0.207635395
 -23824.000000000   -0.680175188    0.207106834
 -23822.500000000   -0.990429159    0.206562592
 -23821.000000000   -1.299855593    0.206003611
 -23819.500000000   -1.608433111    0.205430869
 -23818.000000000   -1.916141822    0.204845372
 -23816.500000000   -2.222963370    0.204248160
 -23815.000000000   -2.528880975    0.203640296
 -23813.500000000   -2.833879478    0.203022874
 -23812.000000000   -3.137945377    0.202397014
 -23810.500000000   -3.441066870    0.201763857
 -23809.000000000   -3.743233884    0.201124571
 -23807.500000000   -4.044438111    0.200480342
 -23806.000000000   -4.344673040    0.199832376
 -23804.500000000   -4.643933982    0.199181897
 -23803.000000000   -4.942218095    0.198530146
 -23801.500000000   -5.239524409    0.197878375
 -23800.000000000   -5.535853842    0.197227850
 -23798.500000000   -5.831209220    0.196579847
 -23797.000000000   -6.125595285    0.195935648
 -23795.500000000   -6.419018710    0.195296542
 -23794.000000000   -6.711488102    0.194663820
 -23792.500000000   -7.003014009    0.194038776
 -23791.000000000   -7.293608914    0.193422700
 -23789.500000000   -7.583287237    0.192816880
 -23788.000000000   -7.872065324    0.192222598
 -23786.500000000   -8.159961437    0.191641127
 -23785.000000000   -8.446995740    0.191073727
 -23783.500000000   -8.733190279    0.190521648
 -23782.000000000   -9.018568960    0.189986120
 -23780.500000000   -9.303157521    0.189468356
 -23779.000000000   -9.586983505    0.188969547
 -23777.500000000   -9.870076223    0.188490860
 -23776.000000000  -10.152466715    0.188033435
 -23774.500000000  -10.434187713    0.187598381
 -23773.000000000  -10.715273586    0.187186779
 -23771.500000000  -10.995760296    0.186799669
 -23770.000000000  -11.275685344    0.186438059
 -23768.500000000  -11.555087706    0.186102913
 -23767.000000000  -11.834007776    0.185795153
 -23765.500000000  -12.112487297    0.185515657
 -23764.000000000  -12.390569293    0.185265253
 -23762.500000000  -12.668297992    0.185044719
 -23761.000000000  -12.945718748    0.184854779
 -23759.500000000  -13.222877963    0.184696104
 -23758.000000000  -13.499822998    0.184569304
 -23756.500000000  -13.776602087    0.184474928
 -23755.000000000  -14.053264241    0.184413466
 -23753.500000000  -14.329859156    0.184385340
 -23752.000000000  -14.606437110    0.184390906
 -23750.500000000  -14.883048864    0.184430449
 -23749.000000000  -15.159745556    0.184504186
 -23747.500000000  -15.436578592    0.184612259
 -23746.000000000  -15.713599536    0.184754735
 -23744.500000000  -15.990859996    0.184931606
 -23743.000000000  -16.268411508    0.185142784
 -23741.500000000  -16.546305419    0.185388103
 -23740.000000000  -16.824592767    0.185667318
 -23738.500000000  -17.103324158    0.185980099
 -23737.000000000  -17.382549644    0.186326036
 -23735.500000000  -17.662318597    0.186704633
 -23734.000000000  -17.942679584    0.187115311
 -23732.500000000  -18.223680241    0.187557408
 -23731.000000000  -18.505367143    0.188030174
 -23729.500000000  -18.787785680    0.188532775
 -23728.000000000  -19.070979926    0.189064292
 -23726.500000000  -19.354992512    0.189623720
 -23725.000000000  -19.639864500    0.190209972
 -23723.500000000  -19.925635255    0.190821874
 -23722.000000000  -20.212342320    0.191458170
 -23720.500000000  -20.500021293    0.192117521
 -23719.000000000  -20.788705704    0.192798510
 -23717.500000000  -21.078426892    0.193499635
 -23716.000000000  -21.369213891    0.194219322
 -23714.500000000  -21.661093313    0.194955917
 -23713.000000000  -21.954089233    0.195707693
 -23711.500000000  -22.248223084    0.196472852
 -23710.000000000  -22.543513549    0.197249527
 -23708.500000000  -22.839976458    0.198035784
 -23707.000000000  -23.137624694    0.198829626
 -23705.500000000  -23.436468100    0.199628996
 -23704.000000000  -23.736513390    0.200431780
 -23702.500000000  -24.037764066    0.201235813
 -23701.000000000  -24.340220347    0.202038879
 -23699.500000000  -24.643879091    0.202838718
 -23698.000000000  -24.948733738    0.203633030
 -23696.500000000  -25.254774249    0.204419478
 -23695.000000000  -25.561987058    0.205195697
 -23693.500000000  -25.870355028    0.205959292
 -23692.000000000  -26.179857416    0.206707851
 -23690.500000000  -26.490469848    0.207438945
 -23689.000000000  -26.802164298    0.208150136
 -23687.500000000  -27.114909082    0.208838982
 -23686.000000000  -27.428668853    0.209503045
 -23684.500000000  -27.743404609    0.210139893
 -23683.000000000  -28.059073715    0.210747110
 -23681.500000000  -28.375629926    0.211322302
 -23680.000000000  -28.693023426    0.211863103
 -23678.500000000  -29.011200874    0.212367181
 -23677.000000000  -29.330105463    0.212832246
 -23675.500000000  -29.649676985    0.213256057
 -23674.000000000  -29.969851913    0.213636428
 -23672.500000000  -30.290563487    0.213971237
 -23671.000000000  -30.611741815    0.214258431
 -23669.500000000  -30.933313982    0.214496034
 -23668.000000000  -31.255204174    0.214682155
 -23666.500000000  -31.577333805    0.214814995
 -23665.000000000  -31.899621668    0.214892854
 -23663.500000000  -32.221984078    0.214914137
 -23662.000000000  -32.544335047    0.214877361
 -23660.500000000  -32.866586451    0.214781166
 -23659.000000000  -33.188648217    0.214624317
 -23657.500000000  -33.510428521    0.214405711
 -23656.000000000  -33.831833990    0.214124389
 -23654.500000000  -34.152769918    0.213779533
 -23653.000000000  -34.473140489    0.213370482
 -23651.500000000  -34.792849012    0.212896731
 -23650.000000000  -35.111798160    0.212357940
 -23648.500000000  -35.429890222    0.211753936
 -23647.000000000  -35.747027359    0.211084721
 -23645.500000000  -36.063111868    0.210350476
 -23644.000000000  -36.378046451    0.209551564
 -23642.500000000  -36.691734497    0.208688533
 -23641.000000000  -37.004080358    0.207762122
 -23639.500000000  -37.314989636    0.206773261
 -23638.000000000  -37.624369474    0.205723074
 -23636.500000000  -37.932128850    0.204612880
 -23635.000000000  -38.238178867    0.203444197
 -23633.500000000  -38.542433050    0.202218737
 -23632.000000000  -38.844807642    0.200938410
 -23630.500000000  -39.145221897    0.199605322
 -23629.000000000  -39.443598374    0.198221771
 -23627.500000000  -39.739863222    0.196790248
 -23626.000000000  -40.033946467    0.195313430
 -23624.500000000  -40.325782291    0.193794178
 -23623.000000000  -40.615309301    0.192235533
 -23621.500000000  -40.902470796    0.190640707
 -23620.000000000  -41.187215018    0.189013078
 -23618.500000000  -41.469495396    0.187356184
 -23617.000000000  -41.749270777    0.185673709
 -23615.500000000  -42.026505645    0.183969480
 -23614.000000000  -42.301170317    0.182247452
 -23612.500000000  -42.573241134    0.180511695
 -23611.000000000  -42.842700626    0.178766389
 -23609.500000000  -43.109537657    0.177015800
 -23608.000000000  -43.373747555    0.175264273
 -23606.500000000  -43.635332210    0.173516215
 -23605.000000000  -43.894300157    0.171776074
 -23603.500000000  -44.150666627    0.170048326
 -23602.000000000  -44.404453575    0.168337457
 -23600.500000000  -44.655689672    0.166647936
 -23599.000000000  -44.904410278    0.164984204
 -23597.500000000  -45.150657372    0.163350645
 -23596.000000000  -45.394479457    0.161751569
 -23594.500000000  -45.635931427    0.160191184
 -23593.000000000  -45.875074400    0.158673576
 -23591.500000000  -46.111975516    0.157202682
 -23590.000000000  -46.346707690    0.155782266
 -23588.500000000  -46.579349339    0.154415892
 -23587.000000000  -46.809984061    0.153106899
 -23585.500000000  -47.038700274    0.151858373
 -23584.000000000  -47.265590821    0.150673120
 -23582.500000000  -47.490752528    0.149553643
 -23581.000000000  -47.714285726    0.148502108
 -23579.500000000  -47.936293732    0.147520323
 -23578.000000000  -48.156882287    0.146609710
 -23576.500000000  -48.376158960    0.145771278
 -23575.000000000  -48.594232507    0.145005600
 -23573.500000000  -48.811212199    0.144312785
 -23572.000000000  -49.027207115    0.143692460
 -23570.500000000  -49.242325394    0.143143746
 -23569.000000000  -49.456673464    0.142665236
 -23567.500000000  -49.670355238    0.142254981
 -23566.000000000  -49.883471291    0.141910475
 -23564.500000000  -50.096118006    0.141628637
 -23563.000000000  -50.308386714    0.141405807
 -23561.500000000  -50.520362816    0.141237737
 -23560.000000000  -50.732124895    0.141119589
 -23558.500000000  -50.943743841    0.141045939
 -23557.000000000  -51.155281966    0.141010779
 -23555.500000000  -51.366792144    0.141007535
 -23554.000000000  -51.578316974    0.141029081
 -23552.500000000  -51.789887964    0.141067765
 -23551.000000000  -52.001524772    0.141115441
 -23549.500000000  -52.213234488    0.141163506
 -23548.000000000  -52.425010986    0.141202951
 -23546.500000000  -52.636834355    0.141224415
 -23545.000000000  -52.848670422    0.141218253
 -23543.500000000  -53.060470377    0.141174613
 -23542.000000000  -53.272170537    0.141083526
 -23540.500000000  -53.483692237    0.140935007
 -23539.000000000  -53.694941896    0.140719171
 -23537.500000000  -53.905811259    0.140426362
 -23536.000000000  -54.116177847    0.140047298
 -23534.500000000  -54.325905641    0.139573235
 -23533.000000000  -54.534846022    0.138996145
 -23531.500000000  -54.742838988    0.138308918
 -23530.000000000  -54.949714697    0.137505580
 -23528.500000000  -55.155295348    0.136581537
 -23527.000000000  -55.359397448    0.135533838
 -23525.500000000  -55.561834490    0.134361469
 -23524.000000000  -55.762420095    0.133065666
 -23522.500000000  -55.960971640    0.131650266
 -23521.000000000  -56.157314442    0.130122077
 -23519.500000000  -56.351286510    0.128491292
 -23518.000000000  -56.542743954    0.126771924
 -23516.500000000  -56.731567070    0.124982292
 -23515.000000000  -56.917667175    0.123145529
 -23513.500000000  -57.100994246    0.121290145
 -23512.000000000  -57.281545430    0.119450624
 -23510.500000000  -57.459374480    0.117668070
 -23509.000000000  -57.634602198    0.115990899
 -23507.500000000  -57.807427959    0.114475585
 -23506.000000000  -57.978142382    0.113187452
 -23504.500000000  -58.147141248    0.112201537
 -23503.000000000  -58.314940737    0.111603495
 -23501.500000000  -58.482194084    0.111490578
 -23500.000000000  -58.649709750    0.111972680
