#! FIELDS energy b1.bias der_energy
#! SET min_energy -25000
#! SET max_energy -23500
#! SET nbins_energy  1001
#! SET periodic_energy false
 -25000.000000000 -102.549344910   -0.217492077
 -24998.500000000 -102.226460481   -0.213219373
 -24997.000000000 -101.909132063   -0.210056684
 -24995.500000000 -101.595813748   -0.207847873
 -24994.000000000 -101.285182061   -0.206452305
 -24992.500000000 -100.976113583   -0.205743678
 -24991.000000000 -100.667664294   -0.205608923
 -24989.500000000 -100.359050495   -0.205947179
 -24988.000000000 -100.049631240   -0.206668815
 -24986.500000000  -99.738892170   -0.207694529
 -24985.000000000  -99.426430672   -0.208954495
 -24983.500000000  -99.111942265   -0.210387566
 -24982.000000000  -98.795208148   -0.211940529
 -24980.500000000  -98.476083828   -0.213567410
 -24979.000000000  -98.154488752   -0.215228822
 -24977.500000000  -97.830396889   -0.216891359
 -24976.000000000  -97.503828187   -0.218527034
 -24974.500000000  -97.174840841   -0.220112748
 -24973.000000000  -96.843524335   -0.221629808
 -24971.500000000  -96.509993176   -0.223063468
 -24970.000000000  -96.174381293   -0.224402510
 -24968.500000000  -95.836837040   -0.225638857
 -24967.000000000  -95.497518758   -0.226767211
 -24965.500000000  -95.156590865   -0.227784720
 -24964.000000000  -94.814220408   -0.228690673
 -24962.500000000  -94.470574077   -0.229486219
 -24961.000000000  -94.125815603   -0.230174107
 -24959.500000000  -93.780103545   -0.230758452
 -24958.000000000  -93.433589404   -0.231244514
 -24956.500000000  -93.086416052   -0.231638503
 -24955.000000000  -92.738716450   -0.231947401
 -24953.500000000  -92.390612608   -0.232178796
 -24952.000000000  -92.042214793   -0.232340737
 -24950.500000000  -91.693620940   -0.232441599
 -24949.000000000  -91.344916246   -0.232489966
 -24947.500000000  -90.996172948   -0.232494523
 -24946.000000000  -90.647450233   -0.232463965
 -24944.500000000  -90.298794301   -0.232406906
 -24943.000000000  -89.950238530   -0.232331812
 -24941.500000000  -89.601803751   -0.232246936
 -24940.000000000  -89.253498616   -0.232160259
 -24938.500000000  -88.905320037   -0.232079445
 -24937.000000000  -88.557253691   -0.232011800
 -24935.500000000  -88.209274585   -0.231964243
 -24934.000000000  -87.861347663   -0.231943270
 -24932.500000000  -87.513428444   -0.231954943
 -24931.000000000  -87.165463700   -0.232004866
 -24929.500000000  -86.817392143   -0.232098178
 -24928.000000000  -86.469145132   -0.232239544
 -24926.500000000  -86.120647383   -0.232433152
 -24925.000000000  -85.771817691   -0.232682715
 -24923.500000000  -85.422569633   -0.232991473
 -24922.000000000  -85.072812280   -0.233362199
 -24920.500000000  -84.722450886   -0.233797209
 -24919.000000000  -84.371387569   -0.234298372
 -24917.500000000  -84.019521970   -0.234867122
 -24916.000000000  -83.666751894   -0.235504476
 -24914.500000000  -83.312973927   -0.236211046
 -24913.000000000  -82.958084029   -0.236987058
 -24911.500000000  -82.601978098   -0.237832370
 -24910.000000000  -82.244552510   -0.238746491
 -24908.500000000  -81.885704627   -0.239728599
 -24907.000000000  -81.525333278   -0.240777566
 -24905.500000000  -81.163339205   -0.241891971
 -24904.000000000  -80.799625486   -0.243070126
 -24902.500000000  -80.434097917   -0.244310095
 -24901.000000000  -80.066665373   -0.245609714
 -24899.500000000  -79.697240133   -0.246966612
 -24898.000000000  -79.325738173   -0.248378233
 -24896.500000000  -78.952079434   -0.249841851
 -24895.000000000  -78.576188056   -0.251354595
 -24893.500000000  -78.197992585   -0.252913465
 -24892.000000000  -77.817426153   -0.254515350
 -24890.500000000  -77.434426628   -0.256157049
 -24889.000000000  -77.048936738   -0.257835284
 -24887.500000000  -76.660904173   -0.259546723
 -24886.000000000  -76.270281656   -0.261287988
 -24884.500000000  -75.877026997   -0.263055676
 -24883.000000000  -75.481103122   -0.264846374
 -24881.500000000  -75.082478077   -0.266656669
 -24880.000000000  -74.681125017   -0.268483163
 -24878.500000000  -74.277022175   -0.270322486
 -24877.000000000  -73.870152810   -0.272171309
 -24875.500000000  -73.460505141   -0.274026349
 -24874.000000000  -73.048072264   -0.275884388
 -24872.500000000  -72.632852056   -0.277742273
 -24871.000000000  -72.214847060   -0.279596931
 -24869.500000000  -71.794064370   -0.281445377
 -24868.000000000  -71.370515486   -0.283284714
 -24866.500000000  -70.944216181   -0.285112149
 -24865.000000000  -70.515186336   -0.286924993
 -24863.500000000  -70.083449789   -0.288720666
 -24862.000000000  -69.649034158   -0.290496704
 -24860.500000000  -69.211970668   -0.292250762
 -24859.000000000  -68.772293975   -0.293980616
 -24857.500000000  -68.330041975   -0.295684165
 -24856.000000000  -67.885255621   -0.297359437
 -24854.500000000  -67.437978728   -0.299004585
 -24853.000000000  -66.988257787   -0.300617894
 -24851.500000000  -66.536141762   -0.302197776
 -24850.000000000  -66.081681905   -0.303742771
 -24848.500000000  -65.624931558   -0.305251551
 -24847.000000000  -65.165945961   -0.306722915
 -24845.500000000  -64.704782062   -0.308155786
 -24844.000000000  -64.241498327   -0.309549215
 -24842.500000000  -63.776154554   -0.310902375
 -24841.000000000  -63.308811692   -0.312214559
 -24839.500000000  -62.839531661   -0.313485179
 -24838.000000000  -62.368377176   -0.314713762
 -24836.500000000  -61.895411578   -0.315899946
 -24835.000000000  -61.420698666   -0.317043480
 -24833.500000000  -60.944302540   -0.318144215
 -24832.000000000  -60.466287445   -0.319202105
 -24830.500000000  -59.986717622   -0.320217203
 -24829.000000000  -59.505657162   -0.321189652
 -24827.500000000  -59.023169875   -0.322119686
 -24826.000000000  -58.539319154   -0.323007623
 -24824.500000000  -58.054167856   -0.323853863
 -24823.000000000  -57.567778179   -0.324658879
 -24821.500000000  -57.080211558   -0.325423219
 -24820.000000000  -56.591528555   -0.326147495
 -24818.500000000  -56.101788769   -0.326832382
 -24817.000000000  -55.611050739   -0.327478613
 -24815.500000000  -55.119371866   -0.328086974
 -24814.000000000  -54.626808334   -0.328658301
 -24812.500000000  -54.133415043   -0.329193470
 -24811.000000000  -53.639245544   -0.329693401
 -24809.500000000  -53.144351984   -0.330159046
 -24808.000000000  -52.648785056   -0.330591390
 -24806.500000000  -52.152593959   -0.330991443
 -24805.000000000  -51.655826357   -0.331360238
 -24803.500000000  -51.158528350   -0.331698825
 -24802.000000000  -50.660744453   -0.332008271
 -24800.500000000  -50.162517572   -0.332289650
 -24799.000000000  -49.663888996   -0.332544044
 -24797.500000000  -49.164898388   -0.332772540
 -24796.000000000  -48.665583783   -0.332976222
 -24794.500000000  -48.165981590   -0.333156170
 -24793.000000000  -47.666126604   -0.333313457
 -24791.500000000  -47.166052016   -0.333449148
 -24790.000000000  -46.665789432   -0.333564293
 -24788.500000000  -46.165368893   -0.333659925
 -24787.000000000  -45.664818905   -0.333737060
 -24785.500000000  -45.164166464   -0.333796693
 -24784.000000000  -44.663437092   -0.333839794
 -24782.500000000  -44.162654875   -0.333867309
 -24781.000000000  -43.661842500   -0.333880155
 -24779.500000000  -43.161021300   -0.333879220
 -24778.000000000  -42.660211301   -0.333865361
 -24776.500000000  -42.159431266   -0.333839402
 -24775.000000000  -41.658698751   -0.333802131
 -24773.500000000  -41.158030152   -0.333754302
 -24772.000000000  -40.657440765   -0.333696632
 -24770.500000000  -40.156944837   -0.333629800
 -24769.000000000  -39.656555626   -0.333554446
 -24767.500000000  -39.156285459   -0.333471172
 -24766.000000000  -38.656145790   -0.333380537
 -24764.500000000  -38.156147265   -0.333283064
 -24763.000000000  -37.656299777   -0.333179231
 -24761.500000000  -37.156612531   -0.333069478
 -24760.000000000  -36.657094102   -0.332954203
 -24758.500000000  -36.157752503   -0.332833763
 -24757.000000000  -35.658595238   -0.332708473
 -24755.500000000  -35.159629369   -0.332578611
 -24754.000000000  -34.660861574   -0.332444411
 -24752.500000000  -34.162298206   -0.332306070
 -24751.000000000  -33.663945357   -0.332163744
 -24749.500000000  -33.165808907   -0.332017552
 -24748.000000000  -32.667894591   -0.331867576
 -24746.500000000  -32.170208049   -0.331713859
 -24745.000000000  -31.672754880   -0.331556409
 -24743.500000000  -31.175540700   -0.331395201
 -24742.000000000  -30.678571188   -0.331230172
 -24740.500000000  -30.181852139   -0.331061231
 -24739.000000000  -29.685389512   -0.330888252
 -24737.500000000  -29.189189478   -0.330711081
 -24736.000000000  -28.693258458   -0.330529532
 -24734.500000000  -28.197603174   -0.330343396
 -24733.000000000  -27.702230684   -0.330152432
 -24731.500000000  -27.207148423   -0.329956379
 -24730.000000000  -26.712364237   -0.329754949
 -24728.500000000  -26.217886419   -0.329547834
 -24727.000000000  -25.723723741   -0.329334706
 -24725.500000000  -25.229885482   -0.329115215
 -24724.000000000  -24.736381459   -0.328888997
 -24722.500000000  -24.243222046   -0.328655669
 -24721.000000000  -23.750418203   -0.328414836
 -24719.500000000  -23.257981493   -0.328166089
 -24718.000000000  -22.765924102   -0.327909008
 -24716.500000000  -22.274258853   -0.327643161
 -24715.000000000  -21.782999221   -0.327368111
 -24713.500000000  -21.292159343   -0.327083413
 -24712.000000000  -20.801754030   -0.326788616
 -24710.500000000  -20.311798770   -0.326483266
 -24709.000000000  -19.822309737   -0.326166906
 -24707.500000000  -19.333303787   -0.325839078
 -24706.000000000  -18.844798465   -0.325499326
 -24704.500000000  -18.356812000   -0.325147193
 -24703.000000000  -17.869363301   -0.324782229
 -24701.500000000  -17.382471952   -0.324403986
 -24700.000000000  -16.896158203   -0.324012022
 -24698.500000000  -16.410442963   -0.323605903
 -24697.000000000  -15.925347786   -0.323185202
 -24695.500000000  -15.440894857   -0.322749503
 -24694.000000000  -14.957106979   -0.322298400
 -24692.500000000  -14.474007557   -0.321831497
 -24691.000000000  -13.991620577   -0.321348414
 -24689.500000000  -13.509970589   -0.320848782
 -24688.000000000  -13.029082683   -0.320332247
 -24686.500000000  -12.548982468   -0.319798472
 -24685.000000000  -12.069696050   -0.319247133
 -24683.500000000  -11.591250002   -0.318677928
 -24682.000000000  -11.113671343   -0.318090568
 -24680.500000000  -10.636987509   -0.317484786
 -24679.000000000  -10.161226322   -0.316860332
 -24677.500000000   -9.686415964   -0.316216976
 -24676.000000000   -9.212584948   -0.315554511
 -24674.500000000   -8.739762083   -0.314872746
 -24673.000000000   -8.267976445   -0.314171514
 -24671.500000000   -7.797257347   -0.313450670
 -24670.000000000   -7.327634302   -0.312710090
 -24668.500000000   -6.859136996   -0.311949672
 -24667.000000000   -6.391795247   -0.311169335
 -24665.500000000   -5.925638978   -0.310369024
 -24664.000000000   -5.460698181   -0.309548702
 -24662.500000000   -4.997002882   -0.308708359
 -24661.000000000   -4.534583109   -0.307848005
 -24659.500000000   -4.073468855   -0.306967674
 -24658.000000000   -3.613690049   -0.306067420
 -24656.500000000   -3.155276516   -0.305147324
 -24655.000000000   -2.698257949   -0.304207485
 -24653.500000000   -2.242663873   -0.303248025
 -24652.000000000   -1.788523612   -0.302269090
 -24650.500000000   -1.335866257   -0.301270846
 -24649.000000000   -0.884720636   -0.300253479
 -24647.500000000   -0.435115279   -0.299217197
 -24646.000000000    0.012921612   -0.298162230
 -24644.500000000    0.459362191   -0.297088824
 -24643.000000000    0.904179000   -0.295997249
 -24641.500000000    1.347344996   -0.294887791
 -24640.000000000    1.788833583   -0.293760755
 -24638.500000000    2.228618633   -0.292616464
 -24637.000000000    2.666674516   -0.291455258
 -24635.500000000    3.102976128   -0.290277495
 -24634.000000000    3.537498910   -0.289083548
 -24632.500000000    3.970218875   -0.287873805
 -24631.000000000    4.401112630   -0.286648670
 -24629.500000000    4.830157396   -0.285408558
 -24628.000000000    5.257331031   -0.284153901
 -24626.500000000    5.682612046   -0.282885140
 -24625.000000000    6.105979627   -0.281602731
 -24623.500000000    6.527413648   -0.280307139
 -24622.000000000    6.946894691   -0.278998839
 -24620.500000000    7.364404055   -0.277678317
 -24619.000000000    7.779923777   -0.276346065
 -24617.500000000    8.193436637   -0.275002585
 -24616.000000000    8.604926173   -0.273648386
 -24614.500000000    9.014376691   -0.272283981
 -24613.000000000    9.421773273   -0.270909890
 -24611.500000000    9.827101781   -0.269526638
 -24610.000000000   10.230348871   -0.268134753
 -24608.500000000   10.631501989   -0.266734765
 -24607.000000000   11.030549382   -0.265327208
 -24605.500000000   11.427480096   -0.263912616
 -24604.000000000   11.822283979   -0.262491523
 -24602.500000000   12.214951681   -0.261064464
 -24601.000000000   12.605474654   -0.259631972
 -24599.500000000   12.993845147   -0.258194580
 -24598.000000000   13.380056207   -0.256752815
 -24596.500000000   13.764101670   -0.255307204
 -24595.000000000   14.145976158   -0.253858269
 -24593.500000000   14.525675073   -0.252406526
 -24592.000000000   14.903194587   -0.250952486
 -24590.500000000   15.278531636   -0.249496655
 -24589.000000000   15.651683907   -0.248039532
 -24587.500000000   16.022649831   -0.246581606
 -24586.000000000   16.391428567   -0.245123362
 -24584.500000000   16.758019995   -0.243665273
 -24583.000000000   17.122424698   -0.242207805
 -24581.500000000   17.484643948   -0.240751412
 -24580.000000000   17.844679694   -0.239296539
 -24578.500000000   18.202534542   -0.237843621
 -24577.000000000   18.558211744   -0.236393079
 -24575.500000000   18.911715173   -0.234945325
 -24574.000000000   19.263049312   -0.233500757
 -24572.500000000   19.612219229   -0.232059760
 -24571.000000000   19.959230565   -0.230622709
 -24569.500000000   20.304089507   -0.229189961
 -24568.000000000   20.646802771   -0.227761862
 -24566.500000000   20.987377583   -0.226338744
 -24565.000000000   21.325821652   -0.224920924
 -24563.500000000   21.662143155   -0.223508704
 -24562.000000000   21.996350708   -0.222102371
 -24560.500000000   22.328453349   -0.220702199
 -24559.000000000   22.658460514   -0.219308444
 -24557.500000000   22.986382012   -0.217921349
 -24556.000000000   23.312228003   -0.216541138
 -24554.500000000   23.636008975   -0.215168024
 -24553.000000000   23.957735719   -0.213802200
 -24551.500000000   24.277419309   -0.212443846
 -24550.000000000   24.595071074   -0.211093125
 -24548.500000000   24.910702576   -0.209750185
 -24547.000000000   25.224325586   -0.208415158
 -24545.500000000   25.535952064   -0.207088159
 -24544.000000000   25.845594128   -0.205769289
 -24542.500000000   26.153264039   -0.204458633
 -24541.000000000   26.458974171   -0.203156261
 -24539.500000000   26.762736991   -0.201862226
 -24538.000000000   27.064565037   -0.200576568
 -24536.500000000   27.364470895   -0.199299311
 -24535.000000000   27.662467175   -0.198030464
 -24533.500000000   27.958566490   -0.196770023
 -24532.000000000   28.252781436   -0.195517968
 -24530.500000000   28.545124570   -0.194274266
 -24529.000000000   28.835608389   -0.193038871
 -24527.500000000   29.124245307   -0.191811723
 -24526.000000000   29.411047643   -0.190592747
 -24524.500000000   29.696027593   -0.189381859
 -24523.000000000   29.979197215   -0.188178961
 -24521.500000000   30.260568414   -0.186983941
 -24520.000000000   30.540152918   -0.185796679
 -24518.500000000   30.817962265   -0.184617043
 -24517.000000000   31.094007786   -0.183444887
 -24515.500000000   31.368300589   -0.182280058
 -24514.000000000   31.640851544   -0.181122394
 -24512.500000000   31.911671265   -0.179971719
 -24511.000000000   32.180770105   -0.178827853
 -24509.500000000   32.448158132   -0.177690603
 -24508.000000000   32.713845124   -0.176559773
 -24506.500000000   32.977840556   -0.175435154
 -24505.000000000   33.240153585   -0.174316533
 -24503.500000000   33.500793045   -0.173203691
 -24502.000000000   33.759767434   -0.172096401
 -24500.500000000   34.017084908   -0.170994431
 -24499.000000000   34.272753269   -0.169897544
 -24497.500000000   34.526779962   -0.168805499
 -24496.000000000   34.779172064   -0.167718049
 -24494.500000000   35.029936283   -0.166634946
 -24493.000000000   35.279078949   -0.165555936
 -24491.500000000   35.526606012   -0.164480766
 -24490.000000000   35.772523037   -0.163409176
 -24488.500000000   36.016835201   -0.162340909
 -24487.000000000   36.259547295   -0.161275705
 -24485.500000000   36.500663716   -0.160213302
 -24484.000000000   36.740188472   -0.159153440
 -24482.500000000   36.978125178   -0.158095859
 -24481.000000000   37.214477060   -0.157040299
 -24479.500000000   37.449246957   -0.155986502
 -24478.000000000   37.682437318   -0.154934209
 -24476.500000000   37.914050211   -0.153883168
 -24475.000000000   38.144087322   -0.152833126
 -24473.500000000   38.372549964   -0.151783834
 -24472.000000000   38.599439077   -0.150735047
 -24470.500000000   38.824755236   -0.149686522
 -24469.000000000   39.048498655   -0.148638022
 -24467.500000000   39.270669199   -0.147589315
 -24466.000000000   39.491266383   -0.146540173
 -24464.500000000   39.710289389   -0.145490373
 -24463.000000000   39.927737065   -0.144439698
 -24461.500000000   40.143607942   -0.143387939
 -24460.000000000   40.357900236   -0.142334889
 -24458.500000000   40.570611866   -0.141280353
 -24457.000000000   40.781740456   -0.140224139
 -24455.500000000   40.991283352   -0.139166063
 -24454.000000000   41.199237627   -0.138105951
 -24452.500000000   41.405600101   -0.137043633
 -24451.000000000   41.610367342   -0.135978949
 -24449.500000000   41.813535689   -0.134911748
 -24448.000000000   42.015101255   -0.133841886
 -24446.500000000   42.215059948   -0.132769227
 -24445.000000000   42.413407476   -0.131693647
 -24443.500000000   42.610139368   -0.130615026
 -24442.000000000   42.805250981   -0.129533258
 -24440.500000000   42.998737518   -0.128448242
 -24439.000000000   43.190594040   -0.127359890
 -24437.500000000   43.380815479   -0.126268119
 -24436.000000000   43.569396654   -0.125172860
 -24434.500000000   43.756332284   -0.124074051
 -24433.000000000   43.941617004   -0.122971638
 -24431.500000000   44.125245376   -0.121865581
 -24430.000000000   44.307211906   -0.120755844
 -24428.500000000   44.487511058   -0.119642406
 -24427.000000000   44.666137265   -0.118525251
 -24425.500000000   44.843084949   -0.117404375
 -24424.000000000   45.018348531   -0.116279782
 -24422.500000000   45.191922444   -0.115151487
 -24421.000000000   45.363801151   -0.114019512
 -24419.500000000   45.533979156   -0.112883890
 -24418.000000000   45.702451019   -0.111744662
 -24416.500000000   45.869211366   -0.110601879
 -24415.000000000   46.034254907   -0.109455598
 -24413.500000000   46.197576445   -0.108305888
 -24412.000000000   46.359170893   -0.107152823
 -24410.500000000   46.519033280   -0.105996489
 -24409.000000000   46.677158770   -0.104836976
 -24407.500000000   46.833542669   -0.103674385
 -24406.000000000   46.988180440   -0.102508823
 -24404.500000000   47.141067710   -0.101340404
 -24403.000000000   47.292200285   -0.100169251
 -24401.500000000   47.441574158   -0.098995491
 -24400.000000000   47.589185521   -0.097819259
 -24398.500000000   47.735030772   -0.096640698
 -24397.000000000   47.879106525   -0.095459955
 -24395.500000000   48.021409621   -0.094277182
 -24394.000000000   48.161937135   -0.093092539
 -24392.500000000   48.300686383   -0.091906188
 -24391.000000000   48.437654931   -0.090718300
 -24389.500000000   48.572840599   -0.089529046
 -24388.000000000   48.706241473   -0.088338604
 -24386.500000000   48.837855907   -0.087147155
 -24385.000000000   48.967682527   -0.085954884
 -24383.500000000   49.095720242   -0.084761979
 -24382.000000000   49.221968242   -0.083568630
 -24380.500000000   49.346426008   -0.082375032
 -24379.000000000   49.469093310   -0.081181378
 -24377.500000000   49.589970213   -0.079987867
 -24376.000000000   49.709057082   -0.078794697
 -24374.500000000   49.826354576   -0.077602069
 -24373.000000000   49.941863660   -0.076410183
 -24371.500000000   50.055585597   -0.075219240
 -24370.000000000   50.167521952   -0.074029442
 -24368.500000000   50.277674595   -0.072840989
 -24367.000000000   50.386045693   -0.071654083
 -24365.500000000   50.492637717   -0.070468923
 -24364.000000000   50.597453434   -0.069285707
 -24362.500000000   50.700495908   -0.068104632
 -24361.000000000   50.801768498   -0.066925893
 -24359.500000000   50.901274853   -0.065749684
 -24358.000000000   50.999018908   -0.064576193
 -24356.500000000   51.095004884   -0.063405608
 -24355.000000000   51.189237279   -0.062238115
 -24353.500000000   51.281720864   -0.061073892
 -24352.000000000   51.372460679   -0.059913118
 -24350.500000000   51.461462028   -0.058755965
 -24349.000000000   51.548730469   -0.057602602
 -24347.500000000   51.634271812   -0.056453193
 -24346.000000000   51.718092106   -0.055307898
 -24344.500000000   51.800197640   -0.054166870
 -24343.000000000   51.880594926   -0.053030259
 -24341.500000000   51.959290698   -0.051898208
 -24340.000000000   52.036291899   -0.050770854
 -24338.500000000   52.111605675   -0.049648329
 -24337.000000000   52.185239364   -0.048530759
 -24335.500000000   52.257200488   -0.047418262
 -24334.000000000   52.327496743   -0.046310951
 -24332.500000000   52.396135986   -0.045208931
 -24331.000000000   52.463126232   -0.044112302
 -24329.500000000   52.528475634   -0.043021155
 -24328.000000000   52.592192481   -0.041935576
 -24326.500000000   52.654285183   -0.040855640
 -24325.000000000   52.714762259   -0.039781419
 -24323.500000000   52.773632328   -0.038712975
 -24322.000000000   52.830904099   -0.037650362
 -24320.500000000   52.886586355   -0.036593629
 -24319.000000000   52.940687946   -0.035542814
 -24317.500000000   52.993217774   -0.034497950
 -24316.000000000   53.044184784   -0.033459061
 -24314.500000000   53.093597952   -0.032426162
 -24313.000000000   53.141466272   -0.031399263
 -24311.500000000   53.187798743   -0.030378364
 -24310.000000000   53.232604361   -0.029363458
 -24308.500000000   53.275892106   -0.028354530
 -24307.000000000   53.317670929   -0.027351557
 -24305.500000000   53.357949741   -0.026354510
 -24304.000000000   53.396737402   -0.025363350
 -24302.500000000   53.434042711   -0.024378031
 -24301.000000000   53.469874391   -0.023398502
 -24299.500000000   53.504241082   -0.022424702
 -24298.000000000   53.537151328   -0.021456564
 -24296.500000000   53.568613567   -0.020494013
 -24295.000000000   53.598636119   -0.019536967
 -24293.500000000   53.627227178   -0.018585340
 -24292.000000000   53.654394801   -0.017639036
 -24290.500000000   53.680146896   -0.016697953
 -24289.000000000   53.704491217   -0.015761984
 -24287.500000000   53.727435350   -0.014831017
 -24286.000000000   53.748986707   -0.013904930
 -24284.500000000   53.769152516   -0.012983598
 -24283.000000000   53.787939815   -0.012066892
 -24281.500000000   53.805355438   -0.011154675
 -24280.000000000   53.821406014   -0.010246806
 -24278.500000000   53.836097957   -0.009343139
 -24277.000000000   53.849437458   -0.008443525
 -24275.500000000   53.861430480   -0.007547807
 -24274.000000000   53.872082750   -0.006655829
 -24272.500000000   53.881399755   -0.005767427
 -24271.000000000   53.889386736   -0.004882436
 -24269.500000000   53.896048684   -0.004000687
 -24268.000000000   53.901390332   -0.003122008
 -24266.500000000   53.905416154   -0.002246224
 -24265.000000000   53.908130362   -0.001373159
 -24263.500000000   53.909536900   -0.000502634
 -24262.000000000   53.909639443    0.000365532
 -24260.500000000   53.908441393    0.001231520
 -24259.000000000   53.905945879    0.002095514
 -24257.500000000   53.902155756    0.002957698
 -24256.000000000   53.897073600    0.003818255
 -24254.500000000   53.890701713    0.004677370
 -24253.000000000   53.883042118    0.005535228
 -24251.500000000   53.874096564    0.006392013
 -24250.000000000   53.863866523    0.007247908
 -24248.500000000   53.852353193    0.008103096
 -24247.000000000   53.839557500    0.008957756
 -24245.500000000   53.825480099    0.009812069
 -24244.000000000   53.810121379    0.010666211
 -24242.500000000   53.793481464    0.011520357
 -24241.000000000   53.775560218    0.012374681
 -24239.500000000   53.756357247    0.013229352
 -24238.000000000   53.735871906    0.014084535
 -24236.500000000   53.714103303    0.014940395
 -24235.000000000   53.691050303    0.015797091
 -24233.500000000   53.666711535    0.016654778
 -24232.000000000   53.641085399    0.017513607
 -24230.500000000   53.614170070    0.018373726
 -24229.000000000   53.585963506    0.019235276
 -24227.500000000   53.556463457    0.020098395
 -24226.000000000   53.525667469    0.020963215
 -24224.500000000   53.493572897    0.021829862
 -24223.000000000   53.460176908    0.022698458
 -24221.500000000   53.425476491    0.023569117
 -24220.000000000   53.389468470    0.024441949
 -24218.500000000   53.352149507    0.025317056
 -24217.000000000   53.313516116    0.026194535
 -24215.500000000   53.273564670    0.027074476
 -24214.000000000   53.232291414    0.027956963
 -24212.500000000   53.189692472    0.028842071
 -24211.000000000   53.145763857    0.029729869
 -24209.500000000   53.100501487    0.030620421
 -24208.000000000   53.053901189    0.031513781
 -24206.500000000   53.005958714    0.032409997
 -24205.000000000   52.956669748    0.033309109
 -24203.500000000   52.906029922    0.034211150
 -24202.000000000   52.854034822    0.035116144
 -24200.500000000   52.800680004    0.036024110
 -24199.000000000   52.745961002    0.036935057
 -24197.500000000   52.689873342    0.037848987
 -24196.000000000   52.632412552    0.038765895
 -24194.500000000   52.573574174    0.039685768
 -24193.000000000   52.513353776    0.040608584
 -24191.500000000   52.451746963    0.041534316
 -24190.000000000   52.388749389    0.042462926
 -24188.500000000   52.324356767    0.043394371
 -24187.000000000   52.258564883    0.044328600
 -24185.500000000   52.191369604    0.045265554
 -24184.000000000   52.122766892    0.046205167
 -24182.500000000   52.052752811    0.047147365
 -24181.000000000   51.981323544    0.048092068
 -24179.500000000   51.908475399    0.049039188
 -24178.000000000   51.834204818    0.049988632
 -24176.500000000   51.758508392    0.050940297
 -24175.000000000   51.681382868    0.051894077
 -24173.500000000   51.602825161    0.052849857
 -24172.000000000   51.522832357    0.053807517
 -24170.500000000   51.441401733    0.054766931
 -24169.000000000   51.358530754    0.055727966
 -24167.500000000   51.274217092    0.056690486
 -24166.000000000   51.188458625    0.057654347
 -24164.500000000   51.101253454    0.058619401
 -24163.000000000   51.012599902    0.059585495
 -24161.500000000   50.922496526    0.060552473
 -24160.000000000   50.830942124    0.061520171
 -24158.500000000   50.737935736    0.062488424
 -24157.000000000   50.643476658    0.063457063
 -24155.500000000   50.547564440    0.064425915
 -24154.000000000   50.450198896    0.065394802
 -24152.500000000   50.351380104    0.066363547
 -24151.000000000   50.251108417    0.067331967
 -24149.500000000   50.149384458    0.068299878
 -24148.000000000   50.046209129    0.069267095
 -24146.500000000   49.941583613    0.070233431
 -24145.000000000   49.835509373    0.071198695
 -24143.500000000   49.727988156    0.072162700
 -24142.000000000   49.619021997    0.073125255
 -24140.500000000   49.508613211    0.074086170
 -24139.000000000   49.396764402    0.075045254
 -24137.500000000   49.283478459    0.076002318
 -24136.000000000   49.168758553    0.076957173
 -24134.500000000   49.052608140    0.077909631
 -24133.000000000   48.935030953    0.078859506
 -24131.500000000   48.816031005    0.079806614
 -24130.000000000   48.695612584    0.080750774
 -24128.500000000   48.573780248    0.081691805
 -24127.000000000   48.450538822    0.082629531
 -24125.500000000   48.325893393    0.083563780
 -24124.000000000   48.199849306    0.084494381
 -24122.500000000   48.072412157    0.085421169
 -24121.000000000   47.943587785    0.086343984
 -24119.500000000   47.813382271    0.087262668
 -24118.000000000   47.681801923    0.088177069
 -24116.500000000   47.548853277    0.089087043
 -24115.000000000   47.414543080    0.089992447
 -24113.500000000   47.278878288    0.090893147
 -24112.000000000   47.141866055    0.091789015
 -24110.500000000   47.003513721    0.092679928
 -24109.000000000   46.863828806    0.093565771
 -24107.500000000   46.722818997    0.094446436
 -24106.000000000   46.580492138    0.095321821
 -24104.500000000   46.436856219    0.096191834
 -24103.000000000   46.291919366    0.097056388
 -24101.500000000   46.145689824    0.097915406
 -24100.000000000   45.998175952    0.098768818
 -24098.500000000   45.849386204    0.099616563
 -24097.000000000   45.699329123    0.100458589
 -24095.500000000   45.548013319    0.101294852
 -24094.000000000   45.395447465    0.102125318
 -24092.500000000   45.241640277    0.102949960
 -24091.000000000   45.086600503    0.103768764
 -24089.500000000   44.930336909    0.104581720
 -24088.000000000   44.772858265    0.105388833
 -24086.500000000   44.614173327    0.106190113
 -24085.000000000   44.454290830    0.106985583
 -24083.500000000   44.293219467    0.107775275
 -24082.000000000   44.130967876    0.108559228
 -24080.500000000   43.967544628    0.109337493
 -24079.000000000   43.802958210    0.110110132
 -24077.500000000   43.637217011    0.110877214
 -24076.000000000   43.470329307    0.111638819
 -24074.500000000   43.302303247    0.112395037
 -24073.000000000   43.133146839    0.113145967
 -24071.500000000   42.962867936    0.113891717
 -24070.000000000   42.791474218    0.114632406
 -24068.500000000   42.618973185    0.115368161
 -24067.000000000   42.445372135    0.116099118
 -24065.500000000   42.270678158    0.116825422
 -24064.000000000   42.094898117    0.117547229
 -24062.500000000   41.918038639    0.118264700
 -24061.000000000   41.740106099    0.118978007
 -24059.500000000   41.561106610    0.119687330
 -24058.000000000   41.381046007    0.120392856
 -24056.500000000   41.199929842    0.121094780
 -24055.000000000   41.017763367    0.121793304
 -24053.500000000   40.834551524    0.122488639
 -24052.000000000   40.650298937    0.123181000
 -24050.500000000   40.465009900    0.123870610
 -24049.000000000   40.278688367    0.124557699
 -24047.500000000   40.091337946    0.125242501
 -24046.000000000   39.902961887    0.125925256
 -24044.500000000   39.713563079    0.126606209
 -24043.000000000   39.523144036    0.127285610
 -24041.500000000   39.331706896    0.127963713
 -24040.000000000   39.139253416    0.128640776
 -24038.500000000   38.945784960    0.129317058
 -24037.000000000   38.751302500    0.129992824
 -24035.500000000   38.555806612    0.130668340
 -24034.000000000   38.359297471    0.131343873
 -24032.500000000   38.161774849    0.132019694
 -24031.000000000   37.963238112    0.132696070
 -24029.500000000   37.763686224    0.133373275
 -24028.000000000   37.563117740    0.134051576
 -24026.500000000   37.361530812    0.134731244
 -24025.000000000   37.158923190    0.135412547
 -24023.500000000   36.955292220    0.136095752
 -24022.000000000   36.750634851    0.136781122
 -24020.500000000   36.544947640    0.137468918
 -24019.000000000   36.338226754    0.138159399
 -24017.500000000   36.130467974    0.138852817
 -24016.000000000   35.921666708    0.139549422
 -24014.500000000   35.711817992    0.140249458
 -24013.000000000   35.500916501    0.140953161
 -24011.500000000   35.288956558    0.141660765
 -24010.000000000   35.075932144    0.142372493
 -24008.500000000   34.861836907    0.143088564
 -24007.000000000   34.646664176    0.143809185
 -24005.500000000   34.430406974    0.144534559
 -24004.000000000   34.213058028    0.145264876
 -24002.500000000   33.994609785    0.146000317
 -24001.000000000   33.775054427    0.146741056
 -23999.500000000   33.554383889    0.147487251
 -23998.000000000   33.332589871    0.148239053
 -23996.500000000   33.109663858    0.148996598
 -23995.000000000   32.885597140    0.149760013
 -23993.500000000   32.660380828    0.150529409
 -23992.000000000   32.434005872    0.151304886
 -23990.500000000   32.206463088    0.152086527
 -23989.000000000   31.977743172    0.152874405
 -23987.500000000   31.747836725    0.153668575
 -23986.000000000   31.516734278    0.154469079
 -23984.500000000   31.284426309    0.155275941
 -23983.000000000   31.050903271    0.156089172
 -23981.500000000   30.816155613    0.156908764
 -23980.000000000   30.580173811    0.157734693
 -23978.500000000   30.342948384    0.158566921
 -23977.000000000   30.104469927    0.159405389
 -23975.500000000   29.864729135    0.160250021
 -23974.000000000   29.623716829    0.161100725
 -23972.500000000   29.381423981    0.161957389
 -23971.000000000   29.137841747    0.162819884
 -23969.500000000   28.892961487    0.163688063
 -23968.000000000   28.646774800    0.164561758
 -23966.500000000   28.399273548    0.165440784
 -23965.000000000   28.150449883    0.166324939
 -23963.500000000   27.900296279    0.167213998
 -23962.000000000   27.648805558    0.168107719
 -23960.500000000   27.395970920    0.169005843
 -23959.000000000   27.141785967    0.169908089
 -23957.500000000   26.886244740    0.170814159
 -23956.000000000   26.629341737    0.171723735
 -23954.500000000   26.371071948    0.172636482
 -23953.000000000   26.111430882    0.173552045
 -23951.500000000   25.850414593    0.174470050
 -23950.000000000   25.588019706    0.175390108
 -23948.500000000   25.324243447    0.176311809
 -23947.000000000   25.059083671    0.177234726
 -23945.500000000   24.792538881    0.178158417
 -23944.000000000   24.524608262    0.179082421
 -23942.500000000   24.255291699    0.180006261
 -23941.000000000   23.984589808    0.180929443
 -23939.500000000   23.712503954    0.181851459
 -23938.000000000   23.439036276    0.182771785
 -23936.500000000   23.164189713    0.183689882
 -23935.000000000   22.887968020    0.184605199
 -23933.500000000   22.610375789    0.185517169
 -23932.000000000   22.331418475    0.186425213
 -23930.500000000   22.051102408    0.187328741
 -23929.000000000   21.769434811    0.188227150
 -23927.500000000   21.486423823    0.189119827
 -23926.000000000   21.202078506    0.190006150
 -23924.500000000   20.916408867    0.190885485
 -23923.000000000   20.629425865    0.191757193
 -23921.500000000   20.341141427    0.192620625
 -23920.000000000   20.051568456    0.193475126
 -23918.500000000   19.760720843    0.194320037
 -23917.000000000   19.468613472    0.195154692
 -23915.500000000   19.175262229    0.195978422
 -23914.000000000   18.880684004    0.196790555
 -23912.500000000   18.584896697    0.197590418
 -23911.000000000   18.287919221    0.198377337
 -23909.500000000   17.989771497    0.199150636
 -23908.000000000   17.690474460    0.199909643
 -23906.500000000   17.390050049    0.200653689
 -23905.000000000   17.088521208    0.201382105
 -23903.500000000   16.785911878    0.202094231
 -23902.000000000   16.482246988    0.202789410
 -23900.500000000   16.177552446    0.203466992
 -23899.000000000   15.871855130    0.204126337
 -23897.500000000   15.565182871    0.204766812
 -23896.000000000   15.257564439    0.205387797
 -23894.500000000   14.949029528    0.205988683
 -23893.000000000   14.639608739    0.206568871
 -23891.500000000   14.329333554    0.207127781
 -23890.000000000   14.018236319    0.207664845
 -23888.500000000   13.706350217    0.208179513
 -23887.000000000   13.393709246    0.208671251
 -23885.500000000   13.080348187    0.209139546
 -23884.000000000   12.766302577    0.209583904
 -23882.500000000   12.451608679    0.210003853
 -23881.000000000   12.136303448    0.210398943
 -23879.500000000   11.820424494    0.210768747
 -23878.000000000   11.504010050    0.211112864
 -23876.500000000   11.187098932    0.211430919
 -23875.000000000   10.869730500    0.211722561
 -23873.500000000   10.551944615    0.211987472
 -23872.000000000   10.233781598    0.212225358
 -23870.500000000    9.915282183    0.212435960
 -23869.000000000    9.596487476    0.212619046
 -23867.500000000    9.277438903    0.212774418
 -23866.000000000    8.958178161    0.212901912
 -23864.500000000    8.638747173    0.213001396
 -23863.000000000    8.319188028    0.213072773
 -23861.500000000    7.999542939    0.213115983
 -23860.000000000    7.679854177    0.213131001
 -23858.500000000    7.360164026    0.213117840
 -23857.000000000    7.040514723    0.213076550
 -23855.500000000    6.720948397    0.213007221
 -23854.000000000    6.401507018    0.212909979
 -23852.500000000    6.082232333    0.212784992
 -23851.000000000    5.763165810    0.212632469
 -23849.500000000    5.444348573    0.212452655
 -23848.000000000    5.125821346    0.212245840
 -23846.500000000    4.807624389    0.212012354
 -23845.000000000    4.489797436    0.211752566
 -23843.500000000    4.172379636    0.211466889
 -23842.000000000    3.855409486    0.211155778
 -23840.500000000    3.538924773    0.210819726
 -23839.000000000    3.222962509    0.210459271
 -23837.500000000    2.907558872    0.210074992
 -23836.000000000    2.592749138    0.209667506
 -23834.500000000    2.278567628    0.209237474
 -23833.000000000    1.965047639    0.208785598
 -23831.500000000    1.652221389    0.208312617
 -23830.000000000    1.340119952    0.207819312
 -23828.500000000    1.028773205    0.207306504
 -23827.000000000    0.718209765    0.206775049
 -23825.500000000    0.408456934    0.206225843
 -23824.000000000    0.099540645    0.205659819
 -23822.500000000   -0.208514598    0.205077945
 -23821.000000000   -0.515685767    0.204481225
 -23819.500000000   -0.821951367    0.203870695
 -23818.000000000   -1.127291481    0.203247425
 -23816.500000000   -1.431687821    0.202612516
 -23815.000000000   -1.735123774    0.201967100
 -23813.500000000   -2.037584446    0.201312337
 -23812.000000000   -2.339056703    0.200649414
 -23810.500000000   -2.639529213    0.199979544
 -23809.000000000   -2.938992479    0.199303964
 -23807.500000000   -3.237438881    0.198623935
 -23806.000000000   -3.534862698    0.197940735
 -23804.500000000   -3.831260149    0.197255663
 -23803.000000000   -4.126629409    0.196570035
 -23801.500000000   -4.420970640    0.195885180
 -23800.000000000   -4.714286006    0.195202441
 -23798.500000000   -5.006579696    0.194523170
 -23797.000000000   -5.297857932    0.193848730
 -23795.500000000   -5.588128984    0.193180485
 -23794.000000000   -5.877403172    0.192519808
 -23792.500000000   -6.165692877    0.191868069
 -23791.000000000   -6.453012533    0.191226638
 -23789.500000000   -6.739378628    0.190596882
 -23788.000000000   -7.024809695    0.189980159
 -23786.500000000   -7.309326298    0.189377821
 -23785.000000000   -7.592951019    0.188791206
 -23783.500000000   -7.875708438    0.188221638
 -23782.000000000   -8.157625109    0.187670424
 -23780.500000000   -8.438729531    0.187138851
 -23779.000000000   -8.719052115    0.186628183
 -23777.500000000   -8.998625152    0.186139659
 -23776.000000000   -9.277482768    0.185674488
 -23774.500000000   -9.555660882    0.185233849
 -23773.000000000   -9.833197155    0.184818887
 -23771.500000000  -10.110130937    0.184430710
 -23770.000000000  -10.386503211    0.184070385
 -23768.500000000  -10.662356530    0.183738937
 -23767.000000000  -10.937734951    0.183437346
 -23765.500000000  -11.212683963    0.183166544
 -23764.000000000  -11.487250417    0.182927410
 -23762.500000000  -11.761482443    0.182720773
 -23761.000000000  -12.035429369    0.182547401
 -23759.500000000  -12.309141634    0.182408006
 -23758.000000000  -12.582670701    0.182303238
 -23756.500000000  -12.856068955    0.182233682
 -23755.000000000  -13.129389613    0.182199857
 -23753.500000000  -13.402686618    0.182202213
 -23752.000000000  -13.676014534    0.182241129
 -23750.500000000  -13.949428440    0.182316910
 -23749.000000000  -14.222983814    0.182429786
 -23747.500000000  -14.496736422    0.182579908
 -23746.000000000  -14.770742199    0.182767350
 -23744.500000000  -15.045057129    0.182992103
 -23743.000000000  -15.319737119    0.183254075
 -23741.500000000  -15.594837877    0.183553091
 -23740.000000000  -15.870414784    0.183888889
 -23738.500000000  -16.146522764    0.184261121
 -23737.000000000  -16.423216149    0.184669351
 -23735.500000000  -16.700548554    0.185113052
 -23734.000000000  -16.978572735    0.185591610
 -23732.500000000  -17.257340460    0.186104318
 -23731.000000000  -17.536902369    0.186650382
 -23729.500000000  -17.817307841    0.187228913
 -23728.000000000  -18.098604855    0.187838934
 -23726.500000000  -18.380839854    0.188479376
 -23725.000000000  -18.664057613    0.189149079
 -23723.500000000  -18.948301099    0.189846795
 -23722.000000000  -19.233611337    0.190571186
 -23720.500000000  -19.520027282    0.191320826
 -23719.000000000  -19.807585683    0.192094202
 -23717.500000000  -20.096320958    0.192889717
 -23716.000000000  -20.386265064    0.193705689
 -23714.500000000  -20.677447374    0.194540356
 -23713.000000000  -20.969894559    0.195391875
 -23711.500000000  -21.263630467    0.196258327
 -23710.000000000  -21.558676012    0.197137719
 -23708.500000000  -21.855049062    0.198027985
 -23707.000000000  -22.152764339    0.198926993
 -23705.500000000  -22.451833314    0.199832544
 -23704.000000000  -22.752264114    0.200742379
 -23702.500000000  -23.054061435    0.201654181
 -23701.000000000  -23.357226457    0.202565582
 -23699.500000000  -23.661756771    0.203474162
 -23698.000000000  -23.967646301    0.204377458
 -23696.500000000  -24.274885253    0.205272969
 -23695.000000000  -24.583460049    0.206158159
 -23693.500000000  -24.893353286    0.207030462
 -23692.000000000  -25.204543697    0.207887290
 -23690.500000000  -25.517006116    0.208726037
 -23689.000000000  -25.830711459    0.209544086
 -23687.500000000  -26.145626712    0.210338813
 -23686.000000000  -26.461714925    0.211107596
 -23684.500000000  -26.778935220    0.211847821
 -23683.000000000  -27.097242808    0.212556888
 -23681.500000000  -27.416589014    0.213232217
 -23680.000000000  -27.736921313    0.213871257
 -23678.500000000  -28.058183383    0.214471494
 -23677.000000000  -28.380315155    0.215030454
 -23675.500000000  -28.703252893    0.215545714
 -23674.000000000  -29.026929265    0.216014910
 -23672.500000000  -29.351273441    0.216435742
 -23671.000000000  -29.676211195    0.216805984
 -23669.500000000  -30.001665022    0.217123488
 -23668.000000000  -30.327554262    0.217386198
 -23666.500000000  -30.653795238    0.217592152
 -23665.000000000  -30.980301409    0.217739492
 -23663.500000000  -31.306983530    0.217826471
 -23662.000000000  -31.633749825    0.217851462
 -23660.500000000  -31.960506169    0.217812964
 -23659.000000000  -32.287156286    0.217709610
 -23657.500000000  -32.613601955    0.217540175
 -23656.000000000  -32.939743227    0.217303580
 -23654.500000000  -33.265478650    0.216998902
 -23653.000000000  -33.590705510    0.216625382
 -23651.500000000  -33.915320076    0.216182426
 -23650.000000000  -34.239217857    0.215669614
 -23648.500000000  -34.562293868    0.215086709
 -23647.000000000  -34.884442906    0.214433656
 -23645.500000000  -35.205559826    0.213710591
 -23644.000000000  -35.525539835    0.212917846
 -23642.500000000  -35.844278785    0.212055951
 -23641.000000000  -36.161673474    0.211125638
 -23639.500000000  -36.477621956    0.210127846
 -23638.000000000  -36.792023844    0.209063722
 -23636.500000000  -37.104780631    0.207934623
 -23635.000000000  -37.415796005    0.206742116
 -23633.500000000  -37.724976161    0.205487981
 -23632.000000000  -38.032230128    0.204174212
 -23630.500000000  -38.337470080    0.202803013
 -23629.000000000  -38.640611653    0.201376795
 -23627.500000000  -38.941574263    0.199898181
 -23626.000000000  -39.240281407    0.198369995
 -23624.500000000  -39.536660970    0.196795262
 -23623.000000000  -39.830645525    0.195177202
 -23621.500000000  -40.122172614    0.193519225
 -23620.000000000  -40.411185034    0.191824922
 -23618.500000000  -40.697631098    0.190098060
 -23617.000000000  -40.981464896    0.188342570
 -23615.500000000  -41.262646534    0.186562540
 -23614.000000000  -41.541142359    0.184762202
 -23612.500000000  -41.816925167    0.182945922
 -23611.000000000  -42.089974396    0.181118186
 -23609.500000000  -42.360276289    0.179283583
 -23608.000000000  -42.627824049    0.177446794
 -23606.500000000  -42.892617956    0.175612575
 -23605.000000000  -43.154665465    0.173785738
 -23603.500000000  -43.413981284    0.171971131
 -23602.000000000  -43.670587407    0.170173622
 -23600.500000000  -43.924513132    0.168398077
 -23599.000000000  -44.175795042    0.166649337
 -23597.500000000  -44.424476945    0.164932197
 -23596.000000000  -44.670609795    0.163251379
 -23594.500000000  -44.914251560    0.161611512
 -23593.000000000  -45.155467064    0.160017104
 -23591.500000000  -45.394327786    0.158472516
 -23590.000000000  -45.630911617    0.156981932
 -23588.500000000  -45.865302580    0.155549337
 -23587.000000000  -46.097590504    0.154178485
 -23585.500000000  -46.327870658    0.152872870
 -23584.000000000  -46.556243340    0.151635697
 -23582.500000000  -46.782813421    0.150469855
 -23581.000000000  -47.007689847    0.149377884
 -23579.500000000  -47.230985098    0.148361948
 -23578.000000000  -47.452814595    0.147423805
 -23576.500000000  -47.673296077    0.146564776
 -23575.000000000  -47.892548918    0.145785721
 -23573.500000000  -48.110693419    0.145087009
 -23572.000000000  -48.327850050    0.144468491
 -23570.500000000  -48.544138653    0.143929476
 -23569.000000000  -48.759677612    0.143468709
 -23567.500000000  -48.974582991    0.143084345
 -23566.000000000  -49.188967635    0.142773935
 -23564.500000000  -49.402940247    0.142534405
 -23563.000000000  -49.616604446    0.142362045
 -23561.500000000  -49.830057798    0.142252495
 -23560.000000000  -50.043390842    0.142200744
 -23558.500000000  -50.256686103    0.142201118
 -23557.000000000  -50.470017109    0.142247294
 -23555.500000000  -50.683447410    0.142332297
 -23554.000000000  -50.897029618    0.142448517
 -23552.500000000  -51.110804467    0.142587730
 -23551.000000000  -51.324799907    0.142741122
 -23549.500000000  -51.539030246    0.142899323
 -23548.000000000  -51.753495347    0.143052451
 -23546.500000000  -51.968179897    0.143190161
 -23545.000000000  -52.183052755    0.143301708
 -23543.500000000  -52.398066408    0.143376019
 -23542.000000000  -52.613156537    0.143401775
 -23540.500000000  -52.828241722    0.143367508
 -23539.000000000  -53.043223295    0.143261711
 -23537.500000000  -53.257985377    0.143072962
 -23536.000000000  -53.472395101    0.142790063
 -23534.500000000  -53.686303074    0.142402198
 -23533.000000000  -53.899544068    0.141899104
 -23531.500000000  -54.111938001    0.141271272
 -23530.000000000  -54.323291221    0.140510155
 -23528.500000000  -54.533398126    0.139608408
 -23527.000000000  -54.742043158    0.138560148
 -23525.500000000  -54.949003211    0.137361240
 -23524.000000000  -55.154050478    0.136009610
 -23522.500000000  -55.356955797    0.134505584
 -23521.000000000  -55.557492528    0.132852262
 -23519.500000000  -55.755441012    0.131055921
 -23518.000000000  -55.950593659    0.129126454
 -23516.500000000  -56.142760725    0.127077844
 -23515.000000000  -56.331776828    0.124928679
 -23513.500000000  -56.517508262    0.122702705
 -23512.000000000  -56.699861184    0.120429425
 -23510.500000000  -56.878790719    0.118144743
 -23509.000000000  -57.054311079    0.115891655
 -23507.500000000  -57.226506754    0.113720996
 -23506.000000000  -57.395544859    0.111692237
 -23504.500000000  -57.561688722    0.109874339
 -23503.000000000  -57.725312802    0.108346672
 -23501.500000000  -57.886919025    0.107199993
 -23500.000000000  -58.047154645    0.106537494
