#! FIELDS energy b1.bias der_energy
#! SET min_energy -25000
#! SET max_energy -23500
#! SET nbins_energy  1001
#! SET periodic_energy false
 -25000.000000000 -102.524068028   -0.254228184
 -24998.500000000 -102.151295894   -0.243151170
 -24997.000000000 -101.793627927   -0.234048097
 -24995.500000000 -101.448283018   -0.226682900
 -24994.000000000 -101.112818035   -0.220840745
 -24992.500000000 -100.785097119   -0.216326529
 -24991.000000000 -100.463263154   -0.212963466
 -24989.500000000 -100.145711306   -0.210591755
 -24988.000000000  -99.831064491   -0.209067325
 -24986.500000000  -99.518150674   -0.208260657
 -24985.000000000  -99.205981885   -0.208055672
 -24983.500000000  -98.893734843   -0.208348695
 -24982.000000000  -98.580733098   -0.209047471
 -24980.500000000  -98.266430590   -0.210070249
 -24979.000000000  -97.950396549   -0.211344926
 -24977.500000000  -97.632301631   -0.212808237
 -24976.000000000  -97.311905232   -0.214405005
 -24974.500000000  -96.989043895   -0.216087437
 -24973.000000000  -96.663620727   -0.217814462
 -24971.500000000  -96.335595783   -0.219551124
 -24970.000000000  -96.004977330   -0.221268005
 -24968.500000000  -95.671813939   -0.222940695
 -24967.000000000  -95.336187355   -0.224549299
 -24965.500000000  -94.998206067   -0.226077973
 -24964.000000000  -94.657999562   -0.227514501
 -24962.500000000  -94.315713178   -0.228849898
 -24961.000000000  -93.971503536   -0.230078046
 -24959.500000000  -93.625534495   -0.231195358
 -24958.000000000  -93.277973597   -0.232200464
 -24956.500000000  -92.928988953   -0.233093926
 -24955.000000000  -92.578746550   -0.233877975
 -24953.500000000  -92.227407926   -0.234556270
 -24952.000000000  -91.875128199   -0.235133679
 -24950.500000000  -91.522054410   -0.235616073
 -24949.000000000  -91.168324151   -0.236010147
 -24947.500000000  -90.814064463   -0.236323251
 -24946.000000000  -90.459390960   -0.236563243
 -24944.500000000  -90.104407183   -0.236738345
 -24943.000000000  -89.749204134   -0.236857032
 -24941.500000000  -89.393859991   -0.236927912
 -24940.000000000  -89.038439976   -0.236959634
 -24938.500000000  -88.682996363   -0.236960803
 -24937.000000000  -88.327568601   -0.236939898
 -24935.500000000  -87.972183555   -0.236905211
 -24934.000000000  -87.616855832   -0.236864786
 -24932.500000000  -87.261588186   -0.236826371
 -24931.000000000  -86.906372002   -0.236797375
 -24929.500000000  -86.551187827   -0.236784833
 -24928.000000000  -86.196005954   -0.236795376
 -24926.500000000  -85.840787047   -0.236835210
 -24925.000000000  -85.485482791   -0.236910097
 -24923.500000000  -85.130036568   -0.237025343
 -24922.000000000  -84.774384154   -0.237185787
 -24920.500000000  -84.418454414   -0.237395800
 -24919.000000000  -84.062170014   -0.237659279
 -24917.500000000  -83.705448120   -0.237979656
 -24916.000000000  -83.348201106   -0.238359897
 -24914.500000000  -82.990337236   -0.238802512
 -24913.000000000  -82.631761343   -0.239309566
 -24911.500000000  -82.272375495   -0.239882690
 -24910.000000000  -81.912079626   -0.240523094
 -24908.500000000  -81.550772166   -0.241231581
 -24907.000000000  -81.188350628   -0.242008567
 -24905.500000000  -80.824712187   -0.242854096
 -24904.000000000  -80.459754217   -0.243767859
 -24902.500000000  -80.093374811   -0.244749210
 -24901.000000000  -79.725473267   -0.245797192
 -24899.500000000  -79.355950544   -0.246910549
 -24898.000000000  -78.984709692   -0.248087753
 -24896.500000000  -78.611656250   -0.249327020
 -24895.000000000  -78.236698607   -0.250626331
 -24893.500000000  -77.859748346   -0.251983455
 -24892.000000000  -77.480720547   -0.253395963
 -24890.500000000  -77.099534064   -0.254861253
 -24889.000000000  -76.716111774   -0.256376568
 -24887.500000000  -76.330380794   -0.257939013
 -24886.000000000  -75.942272674   -0.259545576
 -24884.500000000  -75.551723562   -0.261193143
 -24883.000000000  -75.158674338   -0.262878519
 -24881.500000000  -74.763070731   -0.264598441
 -24880.000000000  -74.364863400   -0.266349594
 -24878.500000000  -73.964008005   -0.268128632
 -24877.000000000  -73.560465246   -0.269932185
 -24875.500000000  -73.154200880   -0.271756879
 -24874.000000000  -72.745185724   -0.273599344
 -24872.500000000  -72.333395637   -0.275456232
 -24871.000000000  -71.918811478   -0.277324223
 -24869.500000000  -71.501419054   -0.279200043
 -24868.000000000  -71.081209049   -0.281080466
 -24866.500000000  -70.658176938   -0.282962330
 -24865.000000000  -70.232322887   -0.284842543
 -24863.500000000  -69.803651643   -0.286718092
 -24862.000000000  -69.372172409   -0.288586049
 -24860.500000000  -68.937898710   -0.290443580
 -24859.000000000  -68.500848251   -0.292287949
 -24857.500000000  -68.061042763   -0.294116523
 -24856.000000000  -67.618507844   -0.295926779
 -24854.500000000  -67.173272793   -0.297716306
 -24853.000000000  -66.725370441   -0.299482809
 -24851.500000000  -66.274836969   -0.301224112
 -24850.000000000  -65.821711733   -0.302938162
 -24848.500000000  -65.366037077   -0.304623027
 -24847.000000000  -64.907858149   -0.306276900
 -24845.500000000  -64.447222715   -0.307898099
 -24844.000000000  -63.984180968   -0.309485068
 -24842.500000000  -63.518785343   -0.311036376
 -24841.000000000  -63.051090328   -0.312550715
 -24839.500000000  -62.581152276   -0.314026904
 -24838.000000000  -62.109029224   -0.315463881
 -24836.500000000  -61.634780711   -0.316860707
 -24835.000000000  -61.158467591   -0.318216561
 -24833.500000000  -60.680151868   -0.319530738
 -24832.000000000  -60.199896514   -0.320802646
 -24830.500000000  -59.717765306   -0.322031806
 -24829.000000000  -59.233822658   -0.323217845
 -24827.500000000  -58.748133467   -0.324360495
 -24826.000000000  -58.260762952   -0.325459589
 -24824.500000000  -57.771776513   -0.326515058
 -24823.000000000  -57.281239580   -0.327526925
 -24821.500000000  -56.789217482   -0.328495305
 -24820.000000000  -56.295775312   -0.329420395
 -24818.500000000  -55.800977803   -0.330302476
 -24817.000000000  -55.304889209   -0.331141907
 -24815.500000000  -54.807573193   -0.331939117
 -24814.000000000  -54.309092720   -0.332694605
 -24812.500000000  -53.809509957   -0.333408935
 -24811.000000000  -53.308886182   -0.334082730
 -24809.500000000  -52.807281697   -0.334716667
 -24808.000000000  -52.304755747   -0.335311476
 -24806.500000000  -51.801366446   -0.335867934
 -24805.000000000  -51.297170712   -0.336386859
 -24803.500000000  -50.792224209   -0.336869107
 -24802.000000000  -50.286581285   -0.337315570
 -24800.500000000  -49.780294932   -0.337727168
 -24799.000000000  -49.273416740   -0.338104848
 -24797.500000000  -48.765996864   -0.338449577
 -24796.000000000  -48.258083991   -0.338762343
 -24794.500000000  -47.749725316   -0.339044146
 -24793.000000000  -47.240966528   -0.339295997
 -24791.500000000  -46.731851790   -0.339518915
 -24790.000000000  -46.222423738   -0.339713922
 -24788.500000000  -45.712723470   -0.339882039
 -24787.000000000  -45.202790555   -0.340024287
 -24785.500000000  -44.692663036   -0.340141679
 -24784.000000000  -44.182377442   -0.340235221
 -24782.500000000  -43.671968801   -0.340305906
 -24781.000000000  -43.161470661   -0.340354714
 -24779.500000000  -42.650915115   -0.340382608
 -24778.000000000  -42.140332823   -0.340390531
 -24776.500000000  -41.629753045   -0.340379408
 -24775.000000000  -41.119203672   -0.340350138
 -24773.500000000  -40.608711266   -0.340303596
 -24772.000000000  -40.098301094   -0.340240632
 -24770.500000000  -39.587997172   -0.340162064
 -24769.000000000  -39.077822308   -0.340068683
 -24767.500000000  -38.567798148   -0.339961249
 -24766.000000000  -38.057945222   -0.339840489
 -24764.500000000  -37.548282997   -0.339707095
 -24763.000000000  -37.038829922   -0.339561729
 -24761.500000000  -36.529603485   -0.339405013
 -24760.000000000  -36.020620264   -0.339237537
 -24758.500000000  -35.511895978   -0.339059853
 -24757.000000000  -35.003445548   -0.338872479
 -24755.500000000  -34.495283148   -0.338675892
 -24754.000000000  -33.987422257   -0.338470535
 -24752.500000000  -33.479875724   -0.338256814
 -24751.000000000  -32.972655813   -0.338035097
 -24749.500000000  -32.465774264   -0.337805715
 -24748.000000000  -31.959242350   -0.337568964
 -24746.500000000  -31.453070926   -0.337325103
 -24745.000000000  -30.947270485   -0.337074354
 -24743.500000000  -30.441851212   -0.336816906
 -24742.000000000  -29.936823038   -0.336552913
 -24740.500000000  -29.432195686   -0.336282494
 -24739.000000000  -28.927978725   -0.336005736
 -24737.500000000  -28.424181618   -0.335722695
 -24736.000000000  -27.920813771   -0.335433392
 -24734.500000000  -27.417884574   -0.335137823
 -24733.000000000  -26.915403453   -0.334835951
 -24731.500000000  -26.413379905   -0.334527711
 -24730.000000000  -25.911823547   -0.334213014
 -24728.500000000  -25.410744150   -0.333891742
 -24727.000000000  -24.910151678   -0.333563755
 -24725.500000000  -24.410056325   -0.333228887
 -24724.000000000  -23.910468550   -0.332886953
 -24722.500000000  -23.411399103   -0.332537745
 -24721.000000000  -22.912859063   -0.332181038
 -24719.500000000  -22.414859861   -0.331816586
 -24718.000000000  -21.917413307   -0.331444129
 -24716.500000000  -21.420531613   -0.331063392
 -24715.000000000  -20.924227417   -0.330674083
 -24713.500000000  -20.428513801   -0.330275901
 -24712.000000000  -19.933404307   -0.329868533
 -24710.500000000  -19.438912957   -0.329451655
 -24709.000000000  -18.945054262   -0.329024937
 -24707.500000000  -18.451843235   -0.328588041
 -24706.000000000  -17.959295400   -0.328140623
 -24704.500000000  -17.467426801   -0.327682336
 -24703.000000000  -16.976254002   -0.327212830
 -24701.500000000  -16.485794098   -0.326731752
 -24700.000000000  -15.996064709   -0.326238751
 -24698.500000000  -15.507083983   -0.325733475
 -24697.000000000  -15.018870596   -0.325215576
 -24695.500000000  -14.531443739   -0.324684709
 -24694.000000000  -14.044823123   -0.324140533
 -24692.500000000  -13.559028962   -0.323582713
 -24691.000000000  -13.074081970   -0.323010921
 -24689.500000000  -12.590003346   -0.322424837
 -24688.000000000  -12.106814762   -0.321824149
 -24686.500000000  -11.624538351   -0.321208557
 -24685.000000000  -11.143196688   -0.320577770
 -24683.500000000  -10.662812776   -0.319931510
 -24682.000000000  -10.183410029   -0.319269509
 -24680.500000000   -9.705012246   -0.318591515
 -24679.000000000   -9.227643599   -0.317897290
 -24677.500000000   -8.751328603   -0.317186610
 -24676.000000000   -8.276092102   -0.316459265
 -24674.500000000   -7.801959235   -0.315715065
 -24673.000000000   -7.328955423   -0.314953832
 -24671.500000000   -6.857106334   -0.314175410
 -24670.000000000   -6.386437860   -0.313379655
 -24668.500000000   -5.916976095   -0.312566447
 -24667.000000000   -5.448747299   -0.311735680
 -24665.500000000   -4.981777878   -0.310887269
 -24664.000000000   -4.516094349   -0.310021146
 -24662.500000000   -4.051723319   -0.309137265
 -24661.000000000   -3.588691448   -0.308235598
 -24659.500000000   -3.127025424   -0.307316135
 -24658.000000000   -2.666751935   -0.306378888
 -24656.500000000   -2.207897636   -0.305423888
 -24655.000000000   -1.750489122   -0.304451186
 -24653.500000000   -1.294552896   -0.303460851
 -24652.000000000   -0.840115342   -0.302452972
 -24650.500000000   -0.387202696   -0.301427660
 -24649.000000000    0.064158985   -0.300385042
 -24647.500000000    0.513943851   -0.299325266
 -24646.000000000    0.962126286   -0.298248497
 -24644.500000000    1.408680939   -0.297154921
 -24643.000000000    1.853582747   -0.296044740
 -24641.500000000    2.296806966   -0.294918174
 -24640.000000000    2.738329197   -0.293775463
 -24638.500000000    3.178125408   -0.292616860
 -24637.000000000    3.616171966   -0.291442637
 -24635.500000000    4.052445654   -0.290253083
 -24634.000000000    4.486923700   -0.289048500
 -24632.500000000    4.919583799   -0.287829207
 -24631.000000000    5.350404133   -0.286595537
 -24629.500000000    5.779363395   -0.285347837
 -24628.000000000    6.206440808   -0.284086466
 -24626.500000000    6.631616144   -0.282811798
 -24625.000000000    7.054869745   -0.281524218
 -24623.500000000    7.476182539   -0.280224122
 -24622.000000000    7.895536056   -0.278911916
 -24620.500000000    8.312912443   -0.277588020
 -24619.000000000    8.728294482   -0.276252858
 -24617.500000000    9.141665601   -0.274906866
 -24616.000000000    9.553009887   -0.273550488
 -24614.500000000    9.962312096   -0.272184173
 -24613.000000000   10.369557667   -0.270808380
 -24611.500000000   10.774732727   -0.269423569
 -24610.000000000   11.177824101   -0.268030210
 -24608.500000000   11.578819319   -0.266628775
 -24607.000000000   11.977706624   -0.265219738
 -24605.500000000   12.374474972   -0.263803579
 -24604.000000000   12.769114039   -0.262380777
 -24602.500000000   13.161614223   -0.260951816
 -24601.000000000   13.551966648   -0.259517177
 -24599.500000000   13.940163157   -0.258077343
 -24598.000000000   14.326196320   -0.256632796
 -24596.500000000   14.710059427   -0.255184015
 -24595.000000000   15.091746488   -0.253731480
 -24593.500000000   15.471252227   -0.252275664
 -24592.000000000   15.848572077   -0.250817041
 -24590.500000000   16.223702178   -0.249356076
 -24589.000000000   16.596639366   -0.247893233
 -24587.500000000   16.967381167   -0.246428969
 -24586.000000000   17.335925788   -0.244963735
 -24584.500000000   17.702272110   -0.243497976
 -24583.000000000   18.066419671   -0.242032127
 -24581.500000000   18.428368663   -0.240566620
 -24580.000000000   18.788119913   -0.239101875
 -24578.500000000   19.145674875   -0.237638304
 -24577.000000000   19.501035614   -0.236176310
 -24575.500000000   19.854204790   -0.234716286
 -24574.000000000   20.205185648   -0.233258614
 -24572.500000000   20.553981995   -0.231803667
 -24571.000000000   20.900598193   -0.230351806
 -24569.500000000   21.245039131   -0.228903379
 -24568.000000000   21.587310216   -0.227458725
 -24566.500000000   21.927417354   -0.226018168
 -24565.000000000   22.265366925   -0.224582021
 -24563.500000000   22.601165772   -0.223150584
 -24562.000000000   22.934821175   -0.221724144
 -24560.500000000   23.266340838   -0.220302974
 -24559.000000000   23.595732862   -0.218887333
 -24557.500000000   23.923005727   -0.217477469
 -24556.000000000   24.248168274   -0.216073613
 -24554.500000000   24.571229680   -0.214675983
 -24553.000000000   24.892199439   -0.213284783
 -24551.500000000   25.211087340   -0.211900203
 -24550.000000000   25.527903447   -0.210522418
 -24548.500000000   25.842658073   -0.209151589
 -24547.000000000   26.155361764   -0.207787861
 -24545.500000000   26.466025273   -0.206431368
 -24544.000000000   26.774659543   -0.205082226
 -24542.500000000   27.081275679   -0.203740539
 -24541.000000000   27.385884933   -0.202406396
 -24539.500000000   27.688498677   -0.201079871
 -24538.000000000   27.989128387   -0.199761026
 -24536.500000000   28.287785618   -0.198449906
 -24535.000000000   28.584481985   -0.197146545
 -24533.500000000   28.879229143   -0.195850962
 -24532.000000000   29.172038764   -0.194563163
 -24530.500000000   29.462922521   -0.193283141
 -24529.000000000   29.751892064   -0.192010874
 -24527.500000000   30.038959006   -0.190746331
 -24526.000000000   30.324134897   -0.189489466
 -24524.500000000   30.607431214   -0.188240221
 -24523.000000000   30.888859335   -0.186998526
 -24521.500000000   31.168430528   -0.185764302
 -24520.000000000   31.446155929   -0.184537455
 -24518.500000000   31.722046529   -0.183317882
 -24517.000000000   31.996113155   -0.182105470
 -24515.500000000   32.268366457   -0.180900095
 -24514.000000000   32.538816893   -0.179701624
 -24512.500000000   32.807474711   -0.178509915
 -24511.000000000   33.074349942   -0.177324814
 -24509.500000000   33.339452379   -0.176146163
 -24508.000000000   33.602791571   -0.174973793
 -24506.500000000   33.864376809   -0.173807527
 -24505.000000000   34.124217114   -0.172647183
 -24503.500000000   34.382321225   -0.171492571
 -24502.000000000   34.638697595   -0.170343495
 -24500.500000000   34.893354375   -0.169199751
 -24499.000000000   35.146299411   -0.168061133
 -24497.500000000   35.397540232   -0.166927429
 -24496.000000000   35.647084046   -0.165798420
 -24494.500000000   35.894937731   -0.164673887
 -24493.000000000   36.141107833   -0.163553605
 -24491.500000000   36.385600556   -0.162437345
 -24490.000000000   36.628421764   -0.161324878
 -24488.500000000   36.869576970   -0.160215971
 -24487.000000000   37.109071339   -0.159110390
 -24485.500000000   37.346909685   -0.158007900
 -24484.000000000   37.583096468   -0.156908265
 -24482.500000000   37.817635790   -0.155811249
 -24481.000000000   38.050531404   -0.154716614
 -24479.500000000   38.281786705   -0.153624126
 -24478.000000000   38.511404738   -0.152533550
 -24476.500000000   38.739388193   -0.151444652
 -24475.000000000   38.965739417   -0.150357201
 -24473.500000000   39.190460407   -0.149270969
 -24472.000000000   39.413552820   -0.148185729
 -24470.500000000   39.635017977   -0.147101257
 -24469.000000000   39.854856864   -0.146017333
 -24467.500000000   40.073070143   -0.144933743
 -24466.000000000   40.289658153   -0.143850273
 -24464.500000000   40.504620919   -0.142766717
 -24463.000000000   40.717958159   -0.141682872
 -24461.500000000   40.929669293   -0.140598542
 -24460.000000000   41.139753446   -0.139513534
 -24458.500000000   41.348209464   -0.138427663
 -24457.000000000   41.555035915   -0.137340750
 -24455.500000000   41.760231107   -0.136252622
 -24454.000000000   41.963793089   -0.135163111
 -24452.500000000   42.165719668   -0.134072059
 -24451.000000000   42.366008417   -0.132979313
 -24449.500000000   42.564656686   -0.131884728
 -24448.000000000   42.761661612   -0.130788167
 -24446.500000000   42.957020134   -0.129689500
 -24445.000000000   43.150729000   -0.128588607
 -24443.500000000   43.342784783   -0.127485372
 -24442.000000000   43.533183893   -0.126379692
 -24440.500000000   43.721922588   -0.125271469
 -24439.000000000   43.908996985   -0.124160615
 -24437.500000000   44.094403078   -0.123047051
 -24436.000000000   44.278136747   -0.121930705
 -24434.500000000   44.460193771   -0.120811515
 -24433.000000000   44.640569843   -0.119689428
 -24431.500000000   44.819260583   -0.118564399
 -24430.000000000   44.996261550   -0.117436392
 -24428.500000000   45.171568256   -0.116305380
 -24427.000000000   45.345176180   -0.115171346
 -24425.500000000   45.517080779   -0.114034280
 -24424.000000000   45.687277505   -0.112894182
 -24422.500000000   45.855761814   -0.111751060
 -24421.000000000   46.022529182   -0.110604931
 -24419.500000000   46.187575116   -0.109455820
 -24418.000000000   46.350895168   -0.108303762
 -24416.500000000   46.512484948   -0.107148798
 -24415.000000000   46.672340134   -0.105990979
 -24413.500000000   46.830456488   -0.104830365
 -24412.000000000   46.986829864   -0.103667021
 -24410.500000000   47.141456223   -0.102501022
 -24409.000000000   47.294331642   -0.101332449
 -24407.500000000   47.445452328   -0.100161393
 -24406.000000000   47.594814627   -0.098987949
 -24404.500000000   47.742415033   -0.097812222
 -24403.000000000   47.888250205   -0.096634321
 -24401.500000000   48.032316967   -0.095454363
 -24400.000000000   48.174612328   -0.094272472
 -24398.500000000   48.315133482   -0.093088777
 -24397.000000000   48.453877825   -0.091903413
 -24395.500000000   48.590842957   -0.090716520
 -24394.000000000   48.726026693   -0.089528244
 -24392.500000000   48.859427072   -0.088338735
 -24391.000000000   48.991042361   -0.087148150
 -24389.500000000   49.120871064   -0.085956648
 -24388.000000000   49.248911928   -0.084764393
 -24386.500000000   49.375163949   -0.083571552
 -24385.000000000   49.499626376   -0.082378296
 -24383.500000000   49.622298718   -0.081184800
 -24382.000000000   49.743180745   -0.079991241
 -24380.500000000   49.862272499   -0.078797798
 -24379.000000000   49.979574288   -0.077604653
 -24377.500000000   50.095086698   -0.076411989
 -24376.000000000   50.208810589   -0.075219992
 -24374.500000000   50.320747101   -0.074028848
 -24373.000000000   50.430897652   -0.072838743
 -24371.500000000   50.539263944   -0.071649866
 -24370.000000000   50.645847959   -0.070462404
 -24368.500000000   50.750651959   -0.069276546
 -24367.000000000   50.853678490   -0.068092477
 -24365.500000000   50.954930378   -0.066910385
 -24364.000000000   51.054410726   -0.065730455
 -24362.500000000   51.152122915   -0.064552871
 -24361.000000000   51.248070602   -0.063377815
 -24359.500000000   51.342257713   -0.062205467
 -24358.000000000   51.434688445   -0.061036005
 -24356.500000000   51.525367258   -0.059869603
 -24355.000000000   51.614298872   -0.058706436
 -24353.500000000   51.701488265   -0.057546670
 -24352.000000000   51.786940664   -0.056390471
 -24350.500000000   51.870661543   -0.055238001
 -24349.000000000   51.952656612   -0.054089418
 -24347.500000000   52.032931817   -0.052944874
 -24346.000000000   52.111493329   -0.051804519
 -24344.500000000   52.188347538   -0.050668495
 -24343.000000000   52.263501048   -0.049536941
 -24341.500000000   52.336960664   -0.048409991
 -24340.000000000   52.408733388   -0.047287773
 -24338.500000000   52.478826410   -0.046170409
 -24337.000000000   52.547247099   -0.045058014
 -24335.500000000   52.614002992   -0.043950699
 -24334.000000000   52.679101788   -0.042848568
 -24332.500000000   52.742551336   -0.041751717
 -24331.000000000   52.804359626   -0.040660239
 -24329.500000000   52.864534780   -0.039574215
 -24328.000000000   52.923085039   -0.038493725
 -24326.500000000   52.980018755   -0.037418837
 -24325.000000000   53.035344381   -0.036349614
 -24323.500000000   53.089070458   -0.035286113
 -24322.000000000   53.141205604   -0.034228381
 -24320.500000000   53.191758506   -0.033176460
 -24319.000000000   53.240737906   -0.032130383
 -24317.500000000   53.288152591   -0.031090177
 -24316.000000000   53.334011380   -0.030055859
 -24314.500000000   53.378323118   -0.029027441
 -24313.000000000   53.421096657   -0.028004927
 -24311.500000000   53.462340850   -0.026988313
 -24310.000000000   53.502064539   -0.025977586
 -24308.500000000   53.540276543   -0.024972728
 -24307.000000000   53.576985645   -0.023973712
 -24305.500000000   53.612200585   -0.022980505
 -24304.000000000   53.645930044   -0.021993064
 -24302.500000000   53.678182637   -0.021011342
 -24301.000000000   53.708966901   -0.020035282
 -24299.500000000   53.738291283   -0.019064822
 -24298.000000000   53.766164131   -0.018099891
 -24296.500000000   53.792593682   -0.017140413
 -24295.000000000   53.817588054   -0.016186304
 -24293.500000000   53.841155234   -0.015237475
 -24292.000000000   53.863303070   -0.014293828
 -24290.500000000   53.884039258   -0.013355261
 -24289.000000000   53.903371339   -0.012421665
 -24287.500000000   53.921306682   -0.011492926
 -24286.000000000   53.937852484   -0.010568922
 -24284.500000000   53.953015752   -0.009649527
 -24283.000000000   53.966803304   -0.008734611
 -24281.500000000   53.979221756   -0.007824037
 -24280.000000000   53.990277515   -0.006917663
 -24278.500000000   53.999976773   -0.006015344
 -24277.000000000   54.008325499   -0.005116929
 -24275.500000000   54.015329436   -0.004222265
 -24274.000000000   54.020994090   -0.003331192
 -24272.500000000   54.025324727   -0.002443549
 -24271.000000000   54.028326369   -0.001559171
 -24269.500000000   54.030003788   -0.000677890
 -24268.000000000   54.030361501    0.000200466
 -24266.500000000   54.029403766    0.001076070
 -24265.000000000   54.027134581    0.001949096
 -24263.500000000   54.023557676    0.002819724
 -24262.000000000   54.018676518    0.003688132
 -24260.500000000   54.012494300    0.004554500
 -24259.000000000   54.005013946    0.005419010
 -24257.500000000   53.996238107    0.006281844
 -24256.000000000   53.986169160    0.007143185
 -24254.500000000   53.974809209    0.008003214
 -24253.000000000   53.962160083    0.008862114
 -24251.500000000   53.948223340    0.009720068
 -24250.000000000   53.933000263    0.010577255
 -24248.500000000   53.916491868    0.011433856
 -24247.000000000   53.898698899    0.012290049
 -24245.500000000   53.879621836    0.013146011
 -24244.000000000   53.859260895    0.014001916
 -24242.500000000   53.837616031    0.014857935
 -24241.000000000   53.814686946    0.015714240
 -24239.500000000   53.790473085    0.016570996
 -24238.000000000   53.764973651    0.017428366
 -24236.500000000   53.738187599    0.018286511
 -24235.000000000   53.710113652    0.019145586
 -24233.500000000   53.680750300    0.020005744
 -24232.000000000   53.650095806    0.020867131
 -24230.500000000   53.618148219    0.021729892
 -24229.000000000   53.584905373    0.022594165
 -24227.500000000   53.550364903    0.023460081
 -24226.000000000   53.514524243    0.024327771
 -24224.500000000   53.477380642    0.025197355
 -24223.000000000   53.438931170    0.026068952
 -24221.500000000   53.399172726    0.026942670
 -24220.000000000   53.358102047    0.027818615
 -24218.500000000   53.315715718    0.028696885
 -24217.000000000   53.272010183    0.029577572
 -24215.500000000   53.226981752    0.030460760
 -24214.000000000   53.180626613    0.031346528
 -24212.500000000   53.132940842    0.032234947
 -24211.000000000   53.083920415    0.033126080
 -24209.500000000   53.033561216    0.034019985
 -24208.000000000   52.981859050    0.034916710
 -24206.500000000   52.928809654    0.035816298
 -24205.000000000   52.874408709    0.036718782
 -24203.500000000   52.818651848    0.037624189
 -24202.000000000   52.761534671    0.038532538
 -24200.500000000   52.703052758    0.039443840
 -24199.000000000   52.643201674    0.040358097
 -24197.500000000   52.581976990    0.041275307
 -24196.000000000   52.519374285    0.042195454
 -24194.500000000   52.455389167    0.043118521
 -24193.000000000   52.390017278    0.044044477
 -24191.500000000   52.323254310    0.044973287
 -24190.000000000   52.255096013    0.045904906
 -24188.500000000   52.185538212    0.046839284
 -24187.000000000   52.114576811    0.047776361
 -24185.500000000   52.042207813    0.048716069
 -24184.000000000   51.968427326    0.049658334
 -24182.500000000   51.893231574    0.050603074
 -24181.000000000   51.816616911    0.051550200
 -24179.500000000   51.738579830    0.052499614
 -24178.000000000   51.659116975    0.053451214
 -24176.500000000   51.578225150    0.054404889
 -24175.000000000   51.495901329    0.055360521
 -24173.500000000   51.412142669    0.056317987
 -24172.000000000   51.326946516    0.057277157
 -24170.500000000   51.240310416    0.058237893
 -24169.000000000   51.152232125    0.059200054
 -24167.500000000   51.062709616    0.060163491
 -24166.000000000   50.971741090    0.061128051
 -24164.500000000   50.879324981    0.062093575
 -24163.000000000   50.785459966    0.063059898
 -24161.500000000   50.690144972    0.064026852
 -24160.000000000   50.593379181    0.064994264
 -24158.500000000   50.495162039    0.065961956
 -24157.000000000   50.395493262    0.066929747
 -24155.500000000   50.294372841    0.067897452
 -24154.000000000   50.191801045    0.068864881
 -24152.500000000   50.087778430    0.069831845
 -24151.000000000   49.982305840    0.070798149
 -24149.500000000   49.875384412    0.071763596
 -24148.000000000   49.767015581    0.072727988
 -24146.500000000   49.657201077    0.073691124
 -24145.000000000   49.545942936    0.074652804
 -24143.500000000   49.433243494    0.075612825
 -24142.000000000   49.319105393    0.076570983
 -24140.500000000   49.203531578    0.077527075
 -24139.000000000   49.086525301    0.078480898
 -24137.500000000   48.968090119    0.079432249
 -24136.000000000   48.848229891    0.080380925
 -24134.500000000   48.726948780    0.081326726
 -24133.000000000   48.604251250    0.082269452
 -24131.500000000   48.480142061    0.083208905
 -24130.000000000   48.354626269    0.084144890
 -24128.500000000   48.227709222    0.085077214
 -24127.000000000   48.099396553    0.086005687
 -24125.500000000   47.969694179    0.086930123
 -24124.000000000   47.838608292    0.087850340
 -24122.500000000   47.706145359    0.088766157
 -24121.000000000   47.572312108    0.089677401
 -24119.500000000   47.437115527    0.090583903
 -24118.000000000   47.300562853    0.091485497
 -24116.500000000   47.162661569    0.092382025
 -24115.000000000   47.023419389    0.093273333
 -24113.500000000   46.882844254    0.094159274
 -24112.000000000   46.740944322    0.095039706
 -24110.500000000   46.597727957    0.095914496
 -24109.000000000   46.453203718    0.096783517
 -24107.500000000   46.307380351    0.097646647
 -24106.000000000   46.160266777    0.098503776
 -24104.500000000   46.011872077    0.099354797
 -24103.000000000   45.862205487    0.100199615
 -24101.500000000   45.711276378    0.101038141
 -24100.000000000   45.559094249    0.101870296
 -24098.500000000   45.405668711    0.102696008
 -24097.000000000   45.251009477    0.103515215
 -24095.500000000   45.095126344    0.104327865
 -24094.000000000   44.938029182    0.105133915
 -24092.500000000   44.779727917    0.105933330
 -24091.000000000   44.620232522    0.106726085
 -24089.500000000   44.459552998    0.107512168
 -24088.000000000   44.297699358    0.108291573
 -24086.500000000   44.134681616    0.109064305
 -24085.000000000   43.970509770    0.109830382
 -24083.500000000   43.805193786    0.110589827
 -24082.000000000   43.638743585    0.111342679
 -24080.500000000   43.471169024    0.112088983
 -24079.000000000   43.302479883    0.112828796
 -24077.500000000   43.132685848    0.113562186
 -24076.000000000   42.961796499    0.114289229
 -24074.500000000   42.789821289    0.115010015
 -24073.000000000   42.616769533    0.115724641
 -24071.500000000   42.442650391    0.116433216
 -24070.000000000   42.267472851    0.117135858
 -24068.500000000   42.091245719    0.117832696
 -24067.000000000   41.913977597    0.118523868
 -24065.500000000   41.735676875    0.119209522
 -24064.000000000   41.556351711    0.119889816
 -24062.500000000   41.376010023    0.120564918
 -24061.000000000   41.194659466    0.121235003
 -24059.500000000   41.012307428    0.121900258
 -24058.000000000   40.828961009    0.122560877
 -24056.500000000   40.644627013    0.123217062
 -24055.000000000   40.459311933    0.123869025
 -24053.500000000   40.273021939    0.124516985
 -24052.000000000   40.085762867    0.125161168
 -24050.500000000   39.897540206    0.125801809
 -24049.000000000   39.708359089    0.126439150
 -24047.500000000   39.518224283    0.127073437
 -24046.000000000   39.327140176    0.127704926
 -24044.500000000   39.135110773    0.128333877
 -24043.000000000   38.942139682    0.128960555
 -24041.500000000   38.748230110    0.129585231
 -24040.000000000   38.553384853    0.130208181
 -24038.500000000   38.357606290    0.130829685
 -24037.000000000   38.160896378    0.131450027
 -24035.500000000   37.963256648    0.132069492
 -24034.000000000   37.764688194    0.132688373
 -24032.500000000   37.565191677    0.133306959
 -24031.000000000   37.364767316    0.133925546
 -24029.500000000   37.163414890    0.134544429
 -24028.000000000   36.961133733    0.135163904
 -24026.500000000   36.757922734    0.135784268
 -24025.000000000   36.553780338    0.136405815
 -24023.500000000   36.348704547    0.137028843
 -24022.000000000   36.142692921    0.137653645
 -24020.500000000   35.935742580    0.138280512
 -24019.000000000   35.727850207    0.138909735
 -24017.500000000   35.519012054    0.139541599
 -24016.000000000   35.309223948    0.140176387
 -24014.500000000   35.098481292    0.140814378
 -24013.000000000   34.886779076    0.141455844
 -24011.500000000   34.674111887    0.142101055
 -24010.000000000   34.460473909    0.142750271
 -24008.500000000   34.245858942    0.143403749
 -24007.000000000   34.030260407    0.144061737
 -24005.500000000   33.813671357    0.144724474
 -24004.000000000   33.596084493    0.145392193
 -24002.500000000   33.377492174    0.146065118
 -24001.000000000   33.157886431    0.146743461
 -23999.500000000   32.937258981    0.147427426
 -23998.000000000   32.715601246    0.148117206
 -23996.500000000   32.492904366    0.148812982
 -23995.000000000   32.269159216    0.149514925
 -23993.500000000   32.044356427    0.150223193
 -23992.000000000   31.818486403    0.150937929
 -23990.500000000   31.591539338    0.151659267
 -23989.000000000   31.363505242    0.152387323
 -23987.500000000   31.134373957    0.153122202
 -23986.000000000   30.904135179    0.153863993
 -23984.500000000   30.672778485    0.154612769
 -23983.000000000   30.440293351    0.155368588
 -23981.500000000   30.206669177    0.156131494
 -23980.000000000   29.971895312    0.156901512
 -23978.500000000   29.735961080    0.157678651
 -23977.000000000   29.498855803    0.158462903
 -23975.500000000   29.260568826    0.159254244
 -23974.000000000   29.021089548    0.160052630
 -23972.500000000   28.780407445    0.160858000
 -23971.000000000   28.538512096    0.161670275
 -23969.500000000   28.295393215    0.162489358
 -23968.000000000   28.051040675    0.163315132
 -23966.500000000   27.805444540    0.164147462
 -23965.000000000   27.558595087    0.164986194
 -23963.500000000   27.310482843    0.165831155
 -23962.000000000   27.061098605    0.166682151
 -23960.500000000   26.810433477    0.167538972
 -23959.000000000   26.558478892    0.168401386
 -23957.500000000   26.305226647    0.169269143
 -23956.000000000   26.050668927    0.170141973
 -23954.500000000   25.794798336    0.171019587
 -23953.000000000   25.537607926    0.171901678
 -23951.500000000   25.279091226    0.172787919
 -23950.000000000   25.019242268    0.173677963
 -23948.500000000   24.758055617    0.174571447
 -23947.000000000   24.495526398    0.175467987
 -23945.500000000   24.231650326    0.176367184
 -23944.000000000   23.966423729    0.177268617
 -23942.500000000   23.699843574    0.178171851
 -23941.000000000   23.431907500    0.179076434
 -23939.500000000   23.162613835    0.179981893
 -23938.000000000   22.891961625    0.180887744
 -23936.500000000   22.619950657    0.181793484
 -23935.000000000   22.346581485    0.182698596
 -23933.500000000   22.071855449    0.183602548
 -23932.000000000   21.795774695    0.184504792
 -23930.500000000   21.518342205    0.185404770
 -23929.000000000   21.239561805    0.186301908
 -23927.500000000   20.959438192    0.187195621
 -23926.000000000   20.677976952    0.188085313
 -23924.500000000   20.395184569    0.188970375
 -23923.000000000   20.111068451    0.189850190
 -23921.500000000   19.825636937    0.190724131
 -23920.000000000   19.538899314    0.191591563
 -23918.500000000   19.250865826    0.192451842
 -23917.000000000   18.961547687    0.193304320
 -23915.500000000   18.670957093    0.194148341
 -23914.000000000   18.379107222    0.194983245
 -23912.500000000   18.086012248    0.195808367
 -23911.000000000   17.791687344    0.196623041
 -23909.500000000   17.496148682    0.197426599
 -23908.000000000   17.199413441    0.198218369
 -23906.500000000   16.901499803    0.198997684
 -23905.000000000   16.602426952    0.199763875
 -23903.500000000   16.302215074    0.200516276
 -23902.000000000   16.000885351    0.201254225
 -23900.500000000   15.698459954    0.201977065
 -23899.000000000   15.394962036    0.202684145
 -23897.500000000   15.090415723    0.203374819
 -23896.000000000   14.784846101    0.204048450
 -23894.500000000   14.478279206    0.204704412
 -23893.000000000   14.170742007    0.205342088
 -23891.500000000   13.862262388    0.205960872
 -23890.000000000   13.552869134    0.206560172
 -23888.500000000   13.242591905    0.207139408
 -23887.000000000   12.931461222    0.207698019
 -23885.500000000   12.619508435    0.208235457
 -23884.000000000   12.306765703    0.208751192
 -23882.500000000   11.993265966    0.209244714
 -23881.000000000   11.679042913    0.209715533
 -23879.500000000   11.364130956    0.210163177
 -23878.000000000   11.048565193    0.210587201
 -23876.500000000   10.732381377    0.210987179
 -23875.000000000   10.415615880    0.211362711
 -23873.500000000   10.098305653    0.211713424
 -23872.000000000    9.780488192    0.212038969
 -23870.500000000    9.462201490    0.212339026
 -23869.000000000    9.143484003    0.212613304
 -23867.500000000    8.824374599    0.212861540
 -23866.000000000    8.504912519    0.213083503
 -23864.500000000    8.185137325    0.213278994
 -23863.000000000    7.865088859    0.213447843
 -23861.500000000    7.544807185    0.213589917
 -23860.000000000    7.224332547    0.213705115
 -23858.500000000    6.903705310    0.213793373
 -23857.000000000    6.582965915    0.213854658
 -23855.500000000    6.262154819    0.213888979
 -23854.000000000    5.941312441    0.213896377
 -23852.500000000    5.620479111    0.213876932
 -23851.000000000    5.299695008    0.213830763
 -23849.500000000    4.979000105    0.213758027
 -23848.000000000    4.658434113    0.213658918
 -23846.500000000    4.338036420    0.213533672
 -23845.000000000    4.017846030    0.213382561
 -23843.500000000    3.697901511    0.213205901
 -23842.000000000    3.378240928    0.213004043
 -23840.500000000    3.058901786    0.212777381
 -23839.000000000    2.739920971    0.212526349
 -23837.500000000    2.421334688    0.212251420
 -23836.000000000    2.103178404    0.211953106
 -23834.500000000    1.785486786    0.211631961
 -23833.000000000    1.468293640    0.211288577
 -23831.500000000    1.151631859    0.210923584
 -23830.000000000    0.835533357    0.210537653
 -23828.500000000    0.520029016    0.210131491
 -23827.000000000    0.205148627    0.209705844
 -23825.500000000   -0.109079164    0.209261494
 -23824.000000000   -0.422626912    0.208799260
 -23822.500000000   -0.735468429    0.208319997
 -23821.000000000   -1.047578832    0.207824593
 -23819.500000000   -1.358934597    0.207313970
 -23818.000000000   -1.669513609    0.206789083
 -23816.500000000   -1.979295208    0.206250920
 -23815.000000000   -2.288260238    0.205700497
 -23813.500000000   -2.596391090    0.205138859
 -23812.000000000   -2.903671743    0.204567080
 -23810.500000000   -3.210087808    0.203986259
 -23809.000000000   -3.515626562    0.203397522
 -23807.500000000   -3.820276988    0.202802014
 -23806.000000000   -4.124029804    0.202200906
 -23804.500000000   -4.426877499    0.201595385
 -23803.000000000   -4.728814357    0.200986659
 -23801.500000000   -5.029836484    0.200375949
 -23800.000000000   -5.329941829    0.199764491
 -23798.500000000   -5.629130208    0.199153535
 -23797.000000000   -5.927403314    0.198544339
 -23795.500000000   -6.224764737    0.197938168
 -23794.000000000   -6.521219966    0.197336294
 -23792.500000000   -6.816776405    0.196739993
 -23791.000000000   -7.111443368    0.196150539
 -23789.500000000   -7.405232084    0.195569208
 -23788.000000000   -7.698155689    0.194997270
 -23786.500000000   -7.990229222    0.194435988
 -23785.000000000   -8.281469611    0.193886619
 -23783.500000000   -8.571895658    0.193350406
 -23782.000000000   -8.861528022    0.192828578
 -23780.500000000   -9.150389192    0.192322349
 -23779.000000000   -9.438503466    0.191832913
 -23777.500000000   -9.725896913    0.191361441
 -23776.000000000  -10.012597344    0.190909080
 -23774.500000000  -10.298634269    0.190476950
 -23773.000000000  -10.584038854    0.190066140
 -23771.500000000  -10.868843879    0.189677708
 -23770.000000000  -11.153083679    0.189312675
 -23768.500000000  -11.436794095    0.188972023
 -23767.000000000  -11.720012412    0.188656695
 -23765.500000000  -12.002777294    0.188367590
 -23764.000000000  -12.285128721    0.188105560
 -23762.500000000  -12.567107913    0.187871408
 -23761.000000000  -12.848757261    0.187665887
 -23759.500000000  -13.130120239    0.187489695
 -23758.000000000  -13.411241332    0.187343474
 -23756.500000000  -13.692165940    0.187227808
 -23755.000000000  -13.972940295    0.187143218
 -23753.500000000  -14.253611363    0.187090163
 -23752.000000000  -14.534226750    0.187069037
 -23750.500000000  -14.814834603    0.187080165
 -23749.000000000  -15.095483501    0.187123802
 -23747.500000000  -15.376222358    0.187200133
 -23746.000000000  -15.657100304    0.187309268
 -23744.500000000  -15.938166583    0.187451242
 -23743.000000000  -16.219470432    0.187626015
 -23741.500000000  -16.501060968    0.187833466
 -23740.000000000  -16.782987071    0.188073396
 -23738.500000000  -17.065297258    0.188345526
 -23737.000000000  -17.348039568    0.188649493
 -23735.500000000  -17.631261435    0.188984853
 -23734.000000000  -17.915009560    0.189351078
 -23732.500000000  -18.199329795    0.189747555
 -23731.000000000  -18.484267006    0.190173590
 -23729.500000000  -18.769864954    0.190628400
 -23728.000000000  -19.056166163    0.191111120
 -23726.500000000  -19.343211795    0.191620799
 -23725.000000000  -19.631041525    0.192156404
 -23723.500000000  -19.919693411    0.192716816
 -23722.000000000  -20.209203776    0.193300833
 -23720.500000000  -20.499607074    0.193907174
 -23719.000000000  -20.790935779    0.194534474
 -23717.500000000  -21.083220256    0.195181291
 -23716.000000000  -21.376488650    0.195846102
 -23714.500000000  -21.670766764    0.196527313
 -23713.000000000  -21.966077953    0.197223251
 -23711.500000000  -22.262443010    0.197932174
 -23710.000000000  -22.559880063    0.198652271
 -23708.500000000  -22.858404472    0.199381664
 -23707.000000000  -23.158028734    0.200118412
 -23705.500000000  -23.458762387    0.200860514
 -23704.000000000  -23.760611925    0.201605911
 -23702.500000000  -24.063580713    0.202352492
 -23701.000000000  -24.367668914    0.203098098
 -23699.500000000  -24.672873417    0.203840523
 -23698.000000000  -24.979187771    0.204577521
 -23696.500000000  -25.286602128    0.205306812
 -23695.000000000  -25.595103196    0.206026081
 -23693.500000000  -25.904674192    0.206732991
 -23692.000000000  -26.215294809    0.207425181
 -23690.500000000  -26.526941188    0.208100276
 -23689.000000000  -26.839585898    0.208755892
 -23687.500000000  -27.153197929    0.209389639
 -23686.000000000  -27.467742686    0.209999130
 -23684.500000000  -27.783182002    0.210581987
 -23683.000000000  -28.099474148    0.211135846
 -23681.500000000  -28.416573869    0.211658364
 -23680.000000000  -28.734432411    0.212147226
 -23678.500000000  -29.052997577    0.212600151
 -23677.000000000  -29.372213775    0.213014900
 -23675.500000000  -29.692022093    0.213389283
 -23674.000000000  -30.012360372    0.213721163
 -23672.500000000  -30.333163294    0.214008469
 -23671.000000000  -30.654362488    0.214249196
 -23669.500000000  -30.975886630    0.214441420
 -23668.000000000  -31.297661572    0.214583296
 -23666.500000000  -31.619610469    0.214673076
 -23665.000000000  -31.941653923    0.214709106
 -23663.500000000  -32.263710136    0.214689839
 -23662.000000000  -32.585695074    0.214613842
 -23660.500000000  -32.907522638    0.214479799
 -23659.000000000  -33.229104852    0.214286523
 -23657.500000000  -33.550352058    0.214032956
 -23656.000000000  -33.871173116    0.213718185
 -23654.500000000  -34.191475622    0.213341437
 -23653.000000000  -34.511166126    0.212902094
 -23651.500000000  -34.830150372    0.212399694
 -23650.000000000  -35.148333528    0.211833939
 -23648.500000000  -35.465620442    0.211204698
 -23647.000000000  -35.781915895    0.210512012
 -23645.500000000  -36.097124864    0.209756102
 -23644.000000000  -36.411152786    0.208937367
 -23642.500000000  -36.723905840    0.208056391
 -23641.000000000  -37.035291220    0.207113946
 -23639.500000000  -37.345217423    0.206110996
 -23638.000000000  -37.653594529    0.205048694
 -23636.500000000  -37.960334498    0.203928387
 -23635.000000000  -38.265351454    0.202751616
 -23633.500000000  -38.568561980    0.201520119
 -23632.000000000  -38.869885407    0.200235822
 -23630.500000000  -39.169244105    0.198900849
 -23629.000000000  -39.466563768    0.197517510
 -23627.500000000  -39.761773698    0.196088304
 -23626.000000000  -40.054807083    0.194615912
 -23624.500000000  -40.345601271    0.193103198
 -23623.000000000  -40.634098030    0.191553195
 -23621.500000000  -40.920243809    0.189969105
 -23620.000000000  -41.203989982    0.188354293
 -23618.500000000  -41.485293082    0.186712273
 -23617.000000000  -41.764115023    0.185046702
 -23615.500000000  -42.040423306    0.183361372
 -23614.000000000  -42.314191214    0.181660196
 -23612.500000000  -42.585397982    0.179947198
 -23611.000000000  -42.854028955    0.178226496
 -23609.500000000  -43.120075720    0.176502295
 -23608.000000000  -43.383536224    0.174778864
 -23606.500000000  -43.644414859    0.173060527
 -23605.000000000  -43.902722529    0.171351639
 -23603.500000000  -44.158476688    0.169656574
 -23602.000000000  -44.411701350    0.167979704
 -23600.500000000  -44.662427073    0.166325377
 -23599.000000000  -44.910690905    0.164697896
 -23597.500000000  -45.156536306    0.163101503
 -23596.000000000  -45.400013034    0.161540347
 -23594.500000000  -45.641176990    0.160018471
 -23593.000000000  -45.880090041    0.158539778
 -23591.500000000  -46.116819791    0.157108013
 -23590.000000000  -46.351439326    0.155726735
 -23588.500000000  -46.584026916    0.154399291
 -23587.000000000  -46.814665676    0.153128792
 -23585.500000000  -47.043443193    0.151918084
 -23584.000000000  -47.270451108    0.150769723
 -23582.500000000  -47.495784659    0.149685946
 -23581.000000000  -47.719542191    0.148668649
 -23579.500000000  -47.941824614    0.147719356
 -23578.000000000  -48.162734834    0.146839199
 -23576.500000000  -48.382377141    0.146028887
 -23575.000000000  -48.600856560    0.145288687
 -23573.500000000  -48.818278167    0.144618399
 -23572.000000000  -49.034746376    0.144017333
 -23570.500000000  -49.250364188    0.143484294
 -23569.000000000  -49.465232421    0.143017562
 -23567.500000000  -49.679448905    0.142614874
 -23566.000000000  -49.893107666    0.142273415
 -23564.500000000  -50.106298086    0.141989809
 -23563.000000000  -50.319104054    0.141760107
 -23561.500000000  -50.531603111    0.141579793
 -23560.000000000  -50.743865592    0.141443778
 -23558.500000000  -50.955953780    0.141346413
 -23557.000000000  -51.167921065    0.141281497
 -23555.500000000  -51.379811136    0.141242295
 -23554.000000000  -51.591657195    0.141221566
 -23552.500000000  -51.803481219    0.141211591
 -23551.000000000  -52.015293272    0.141204211
 -23549.500000000  -52.227090882    0.141190880
 -23548.000000000  -52.438858498    0.141162714
 -23546.500000000  -52.650567036    0.141110565
 -23545.000000000  -52.862173534    0.141025094
 -23543.500000000  -53.073620936    0.140896859
 -23542.000000000  -53.284838009    0.140716422
 -23540.500000000  -53.495739435    0.140474458
 -23539.000000000  -53.706226074    0.140161888
 -23537.500000000  -53.916185444    0.139770026
 -23536.000000000  -54.125492425    0.139290735
 -23534.500000000  -54.334010220    0.138716617
 -23533.000000000  -54.541591608    0.138041203
 -23531.500000000  -54.748080502    0.137259180
 -23530.000000000  -54.953313859    0.136366633
 -23528.500000000  -55.157123978    0.135361306
 -23527.000000000  -55.359341199    0.134242900
 -23525.500000000  -55.559797080    0.133013388
 -23524.000000000  -55.758328055    0.131677362
 -23522.500000000  -55.954779646    0.130242411
 -23521.000000000  -56.149011259    0.128719531
 -23519.500000000  -56.340901624    0.127123566
 -23518.000000000  -56.530354923    0.125473693
 -23516.500000000  -56.717307672    0.123793937
 -23515.000000000  -56.901736409    0.122113731
 -23513.500000000  -57.083666254    0.120468523
 -23512.000000000  -57.263180409    0.118900421
 -23510.500000000  -57.440430667    0.117458891
 -23509.000000000  -57.615649005    0.116201507
 -23507.500000000  -57.789160340    0.115194754
 -23506.000000000  -57.961396532    0.114514887
 -23504.500000000  -58.132911722    0.114248851
 -23503.000000000  -58.304399098    0.114495266
 -23501.500000000  -58.476709186    0.115365477
 -23500.000000000  -58.650869772    0.116984677
