#! FIELDS energy b1.bias der_energy
#! SET min_energy -25000
#! SET max_energy -23500
#! SET nbins_energy  1001
#! SET periodic_energy false
 -25000.000000000 -102.115029786   -0.203282472
 -24998.500000000 -101.811622954   -0.201416575
 -24997.000000000 -101.510348174   -0.200414991
 -24995.500000000 -101.210016357   -0.200137154
 -24994.000000000 -100.909637849   -0.200457506
 -24992.500000000 -100.608400819   -0.201264320
 -24991.000000000 -100.305651358   -0.202458584
 -24989.500000000 -100.000875187   -0.203952965
 -24988.000000000  -99.693680880   -0.205670838
 -24986.500000000  -99.383784491   -0.207545372
 -24985.000000000  -99.070995513   -0.209518679
 -24983.500000000  -98.755204062   -0.211541018
 -24982.000000000  -98.436369221   -0.213570056
 -24980.500000000  -98.114508457   -0.215570171
 -24979.000000000  -97.789688037   -0.217511812
 -24977.500000000  -97.462014381   -0.219370897
 -24976.000000000  -97.131626280   -0.221128259
 -24974.500000000  -96.798687915   -0.222769128
 -24973.000000000  -96.463382628   -0.224282650
 -24971.500000000  -96.125907376   -0.225661452
 -24970.000000000  -95.786467832   -0.226901224
 -24968.500000000  -95.445274067   -0.228000349
 -24967.000000000  -95.102536778   -0.228959554
 -24965.500000000  -94.758464020   -0.229781587
 -24964.000000000  -94.413258386   -0.230470932
 -24962.500000000  -94.067114616   -0.231033534
 -24961.000000000  -93.720217587   -0.231476562
 -24959.500000000  -93.372740649   -0.231808178
 -24958.000000000  -93.024844288   -0.232037343
 -24956.500000000  -92.676675067   -0.232173629
 -24955.000000000  -92.328364836   -0.232227056
 -24953.500000000  -91.980030173   -0.232207942
 -24952.000000000  -91.631772037   -0.232126774
 -24950.500000000  -91.283675611   -0.231994084
 -24949.000000000  -90.935810306   -0.231820348
 -24947.500000000  -90.588229922   -0.231615893
 -24946.000000000  -90.240972933   -0.231390815
 -24944.500000000  -89.894062884   -0.231154910
 -24943.000000000  -89.547508893   -0.230917611
 -24941.500000000  -89.201306228   -0.230687942
 -24940.000000000  -88.855436959   -0.230474471
 -24938.500000000  -88.509870668   -0.230285275
 -24937.000000000  -88.164565206   -0.230127915
 -24935.500000000  -87.819467485   -0.230009411
 -24934.000000000  -87.474514302   -0.229936229
 -24932.500000000  -87.129633177   -0.229914269
 -24931.000000000  -86.784743208   -0.229948862
 -24929.500000000  -86.439755928   -0.230044763
 -24928.000000000  -86.094576161   -0.230206163
 -24926.500000000  -85.749102868   -0.230436687
 -24925.000000000  -85.403229993   -0.230739407
 -24923.500000000  -85.056847274   -0.231116856
 -24922.000000000  -84.709841051   -0.231571037
 -24920.500000000  -84.362095040   -0.232103447
 -24919.000000000  -84.013491086   -0.232715089
 -24917.500000000  -83.663909882   -0.233406497
 -24916.000000000  -83.313231663   -0.234177754
 -24914.500000000  -82.961336862   -0.235028514
 -24913.000000000  -82.608106735   -0.235958031
 -24911.500000000  -82.253423950   -0.236965175
 -24910.000000000  -81.897173135   -0.238048461
 -24908.500000000  -81.539241399   -0.239206074
 -24907.000000000  -81.179518806   -0.240435891
 -24905.500000000  -80.817898820   -0.241735509
 -24904.000000000  -80.454278706   -0.243102265
 -24902.500000000  -80.088559899   -0.244533266
 -24901.000000000  -79.720648334   -0.246025409
 -24899.500000000  -79.350454743   -0.247575406
 -24898.000000000  -78.977894913   -0.249179807
 -24896.500000000  -78.602889913   -0.250835023
 -24895.000000000  -78.225366289   -0.252537347
 -24893.500000000  -77.845256219   -0.254282976
 -24892.000000000  -77.462497646   -0.256068031
 -24890.500000000  -77.077034380   -0.257888576
 -24889.000000000  -76.688816161   -0.259740637
 -24887.500000000  -76.297798707   -0.261620221
 -24886.000000000  -75.903943733   -0.263523333
 -24884.500000000  -75.507218937   -0.265445989
 -24883.000000000  -75.107597971   -0.267384236
 -24881.500000000  -74.705060389   -0.269334164
 -24880.000000000  -74.299591569   -0.271291916
 -24878.500000000  -73.891182623   -0.273253708
 -24877.000000000  -73.479830280   -0.275215834
 -24875.500000000  -73.065536763   -0.277174680
 -24874.000000000  -72.648309639   -0.279126732
 -24872.500000000  -72.228161666   -0.281068588
 -24871.000000000  -71.805110619   -0.282996960
 -24869.500000000  -71.379179109   -0.284908689
 -24868.000000000  -70.950394390   -0.286800745
 -24866.500000000  -70.518788157   -0.288670237
 -24865.000000000  -70.084396340   -0.290514412
 -24863.500000000  -69.647258883   -0.292330668
 -24862.000000000  -69.207419526   -0.294116549
 -24860.500000000  -68.764925578   -0.295869752
 -24859.000000000  -68.319827687   -0.297588126
 -24857.500000000  -67.872179612   -0.299269680
 -24856.000000000  -67.422037981   -0.300912573
 -24854.500000000  -66.969462066   -0.302515125
 -24853.000000000  -66.514513544   -0.304075808
 -24851.500000000  -66.057256264   -0.305593252
 -24850.000000000  -65.597756018   -0.307066239
 -24848.500000000  -65.136080312   -0.308493701
 -24847.000000000  -64.672298137   -0.309874723
 -24845.500000000  -64.206479752   -0.311208532
 -24844.000000000  -63.738696463   -0.312494502
 -24842.500000000  -63.269020413   -0.313732144
 -24841.000000000  -62.797524371   -0.314921109
 -24839.500000000  -62.324281536   -0.316061177
 -24838.000000000  -61.849365337   -0.317152256
 -24836.500000000  -61.372849247   -0.318194380
 -24835.000000000  -60.894806602   -0.319187698
 -24833.500000000  -60.415310425   -0.320132476
 -24832.000000000  -59.934433260   -0.321029086
 -24830.500000000  -59.452247015   -0.321878004
 -24829.000000000  -58.968822807   -0.322679805
 -24827.500000000  -58.484230825   -0.323435156
 -24826.000000000  -57.998540189   -0.324144810
 -24824.500000000  -57.511818828   -0.324809602
 -24823.000000000  -57.024133360   -0.325430443
 -24821.500000000  -56.535548986   -0.326008313
 -24820.000000000  -56.046129384   -0.326544259
 -24818.500000000  -55.555936620   -0.327039385
 -24817.000000000  -55.065031063   -0.327494847
 -24815.500000000  -54.573471307   -0.327911853
 -24814.000000000  -54.081314109   -0.328291649
 -24812.500000000  -53.588614322   -0.328635521
 -24811.000000000  -53.095424851   -0.328944784
 -24809.500000000  -52.601796602   -0.329220783
 -24808.000000000  -52.107778453   -0.329464880
 -24806.500000000  -51.613417222   -0.329678458
 -24805.000000000  -51.118757643   -0.329862908
 -24803.500000000  -50.623842360   -0.330019631
 -24802.000000000  -50.128711914   -0.330150027
 -24800.500000000  -49.633404742   -0.330255498
 -24799.000000000  -49.137957187   -0.330337436
 -24797.500000000  -48.642403509   -0.330397225
 -24796.000000000  -48.146775902   -0.330436235
 -24794.500000000  -47.651104519   -0.330455817
 -24793.000000000  -47.155417501   -0.330457301
 -24791.500000000  -46.659741010   -0.330441994
 -24790.000000000  -46.164099274   -0.330411174
 -24788.500000000  -45.668514623   -0.330366086
 -24787.000000000  -45.173007543   -0.330307944
 -24785.500000000  -44.677596727   -0.330237927
 -24784.000000000  -44.182299131   -0.330157171
 -24782.500000000  -43.687130032   -0.330066776
 -24781.000000000  -43.192103094   -0.329967796
 -24779.500000000  -42.697230429   -0.329861242
 -24778.000000000  -42.202522672   -0.329748077
 -24776.500000000  -41.707989045   -0.329629217
 -24775.000000000  -41.213637434   -0.329505530
 -24773.500000000  -40.719474461   -0.329377831
 -24772.000000000  -40.225505563   -0.329246887
 -24770.500000000  -39.731735066   -0.329113410
 -24769.000000000  -39.238166266   -0.328978062
 -24767.500000000  -38.744801510   -0.328841450
 -24766.000000000  -38.251642270   -0.328704128
 -24764.500000000  -37.758689228   -0.328566598
 -24763.000000000  -37.265942356   -0.328429305
 -24761.500000000  -36.773400996   -0.328292645
 -24760.000000000  -36.281063935   -0.328156957
 -24758.500000000  -35.788929493   -0.328022530
 -24757.000000000  -35.296995596   -0.327889600
 -24755.500000000  -34.805259852   -0.327758351
 -24754.000000000  -34.313719635   -0.327628917
 -24752.500000000  -33.822372151   -0.327501382
 -24751.000000000  -33.331214519   -0.327375782
 -24749.500000000  -32.840243841   -0.327252105
 -24748.000000000  -32.349457272   -0.327130291
 -24746.500000000  -31.858852088   -0.327010237
 -24745.000000000  -31.368425755   -0.326891795
 -24743.500000000  -30.878175991   -0.326774776
 -24742.000000000  -30.388100831   -0.326658949
 -24740.500000000  -29.898198683   -0.326544044
 -24739.000000000  -29.408468391   -0.326429754
 -24737.500000000  -28.918909284   -0.326315736
 -24736.000000000  -28.429521234   -0.326201613
 -24734.500000000  -27.940304701   -0.326086976
 -24733.000000000  -27.451260783   -0.325971384
 -24731.500000000  -26.962391259   -0.325854370
 -24730.000000000  -26.473698630   -0.325735439
 -24728.500000000  -25.985186160   -0.325614071
 -24727.000000000  -25.496857906   -0.325489724
 -24725.500000000  -25.008718759   -0.325361834
 -24724.000000000  -24.520774465   -0.325229821
 -24722.500000000  -24.033031658   -0.325093084
 -24721.000000000  -23.545497882   -0.324951010
 -24719.500000000  -23.058181611   -0.324802972
 -24718.000000000  -22.571092267   -0.324648333
 -24716.500000000  -22.084240237   -0.324486445
 -24715.000000000  -21.597636884   -0.324316655
 -24713.500000000  -21.111294554   -0.324138303
 -24712.000000000  -20.625226588   -0.323950726
 -24710.500000000  -20.139447320   -0.323753261
 -24709.000000000  -19.653972083   -0.323545242
 -24707.500000000  -19.168817202   -0.323326008
 -24706.000000000  -18.683999996   -0.323094900
 -24704.500000000  -18.199538765   -0.322851266
 -24703.000000000  -17.715452784   -0.322594459
 -24701.500000000  -17.231762293   -0.322323842
 -24700.000000000  -16.748488478   -0.322038787
 -24698.500000000  -16.265653458   -0.321738680
 -24697.000000000  -15.783280265   -0.321422918
 -24695.500000000  -15.301392825   -0.321090913
 -24694.000000000  -14.820015934   -0.320742093
 -24692.500000000  -14.339175232   -0.320375903
 -24691.000000000  -13.858897179   -0.319991806
 -24689.500000000  -13.379209025   -0.319589287
 -24688.000000000  -12.900138779   -0.319167847
 -24686.500000000  -12.421715181   -0.318727012
 -24685.000000000  -11.943967666   -0.318266331
 -24683.500000000  -11.466926328   -0.317785373
 -24682.000000000  -10.990621888   -0.317283735
 -24680.500000000  -10.515085655   -0.316761036
 -24679.000000000  -10.040349487   -0.316216923
 -24677.500000000   -9.566445755   -0.315651070
 -24676.000000000   -9.093407299   -0.315063174
 -24674.500000000   -8.621267390   -0.314452965
 -24673.000000000   -8.150059685   -0.313820196
 -24671.500000000   -7.679818191   -0.313164650
 -24670.000000000   -7.210577217   -0.312486141
 -24668.500000000   -6.742371330   -0.311784509
 -24667.000000000   -6.275235317   -0.311059624
 -24665.500000000   -5.809204137   -0.310311384
 -24664.000000000   -5.344312878   -0.309539719
 -24662.500000000   -4.880596714   -0.308744586
 -24661.000000000   -4.418090860   -0.307925972
 -24659.500000000   -3.956830530   -0.307083894
 -24658.000000000   -3.496850890   -0.306218395
 -24656.500000000   -3.038187019   -0.305329550
 -24655.000000000   -2.580873863   -0.304417461
 -24653.500000000   -2.124946195   -0.303482258
 -24652.000000000   -1.670438568   -0.302524099
 -24650.500000000   -1.217385282   -0.301543171
 -24649.000000000   -0.765820336   -0.300539684
 -24647.500000000   -0.315777391   -0.299513878
 -24646.000000000    0.132710269   -0.298466017
 -24644.500000000    0.579609777   -0.297396391
 -24643.000000000    1.024888717   -0.296305314
 -24641.500000000    1.468515164   -0.295193125
 -24640.000000000    1.910457716   -0.294060184
 -24638.500000000    2.350685532   -0.292906876
 -24637.000000000    2.789168363   -0.291733606
 -24635.500000000    3.225876581   -0.290540799
 -24634.000000000    3.660781216   -0.289328904
 -24632.500000000    4.093853981   -0.288098385
 -24631.000000000    4.525067300   -0.286849725
 -24629.500000000    4.954394337   -0.285583427
 -24628.000000000    5.381809020   -0.284300007
 -24626.500000000    5.807286065   -0.283000000
 -24625.000000000    6.230800999   -0.281683952
 -24623.500000000    6.652330182   -0.280352426
 -24622.000000000    7.071850823   -0.279005994
 -24620.500000000    7.489341004   -0.277645243
 -24619.000000000    7.904779690   -0.276270768
 -24617.500000000    8.318146750   -0.274883176
 -24616.000000000    8.729422967   -0.273483081
 -24614.500000000    9.138590051   -0.272071104
 -24613.000000000    9.545630652   -0.270647874
 -24611.500000000    9.950528365   -0.269214026
 -24610.000000000   10.353267739   -0.267770197
 -24608.500000000   10.753834286   -0.266317029
 -24607.000000000   11.152214480   -0.264855168
 -24605.500000000   11.548395767   -0.263385260
 -24604.000000000   11.942366560   -0.261907951
 -24602.500000000   12.334116242   -0.260423887
 -24601.000000000   12.723635165   -0.258933713
 -24599.500000000   13.110914647   -0.257438072
 -24598.000000000   13.495946967   -0.255937604
 -24596.500000000   13.878725362   -0.254432943
 -24595.000000000   14.259244015   -0.252924719
 -24593.500000000   14.637498051   -0.251413558
 -24592.000000000   15.013483528   -0.249900076
 -24590.500000000   15.387197424   -0.248384883
 -24589.000000000   15.758637624   -0.246868581
 -24587.500000000   16.127802909   -0.245351762
 -24586.000000000   16.494692942   -0.243835008
 -24584.500000000   16.859308251   -0.242318891
 -24583.000000000   17.221650214   -0.240803971
 -24581.500000000   17.581721037   -0.239290796
 -24580.000000000   17.939523744   -0.237779902
 -24578.500000000   18.295062147   -0.236271811
 -24577.000000000   18.648340833   -0.234767031
 -24575.500000000   18.999365142   -0.233266055
 -24574.000000000   19.348141141   -0.231769363
 -24572.500000000   19.694675604   -0.230277416
 -24571.000000000   20.038975987   -0.228790663
 -24569.500000000   20.381050406   -0.227309534
 -24568.000000000   20.720907609   -0.225834442
 -24566.500000000   21.058556951   -0.224365785
 -24565.000000000   21.394008370   -0.222903940
 -24563.500000000   21.727272359   -0.221449270
 -24562.000000000   22.058359938   -0.220002116
 -24560.500000000   22.387282628   -0.218562804
 -24559.000000000   22.714052424   -0.217131639
 -24557.500000000   23.038681764   -0.215708909
 -24556.000000000   23.361183503   -0.214294881
 -24554.500000000   23.681570884   -0.212889805
 -24553.000000000   23.999857508   -0.211493910
 -24551.500000000   24.316057309   -0.210107407
 -24550.000000000   24.630184521   -0.208730488
 -24548.500000000   24.942253650   -0.207363324
 -24547.000000000   25.252279448   -0.206006069
 -24545.500000000   25.560276880   -0.204658857
 -24544.000000000   25.866261100   -0.203321803
 -24542.500000000   26.170247417   -0.201995003
 -24541.000000000   26.472251274   -0.200678534
 -24539.500000000   26.772288214   -0.199372454
 -24538.000000000   27.070373852   -0.198076805
 -24536.500000000   27.366523855   -0.196791608
 -24535.000000000   27.660753906   -0.195516869
 -24533.500000000   27.953079683   -0.194252573
 -24532.000000000   28.243516832   -0.192998691
 -24530.500000000   28.532080938   -0.191755175
 -24529.000000000   28.818787507   -0.190521961
 -24527.500000000   29.103651933   -0.189298970
 -24526.000000000   29.386689479   -0.188086105
 -24524.500000000   29.667915255   -0.186883255
 -24523.000000000   29.947344190   -0.185690295
 -24521.500000000   30.224991014   -0.184507083
 -24520.000000000   30.500870236   -0.183333465
 -24518.500000000   30.774996122   -0.182169272
 -24517.000000000   31.047382675   -0.181014324
 -24515.500000000   31.318043619   -0.179868426
 -24514.000000000   31.586992376   -0.178731373
 -24512.500000000   31.854242052   -0.177602948
 -24511.000000000   32.119805419   -0.176482922
 -24509.500000000   32.383694899   -0.175371057
 -24508.000000000   32.645922547   -0.174267105
 -24506.500000000   32.906500042   -0.173170808
 -24505.000000000   33.165438667   -0.172081901
 -24503.500000000   33.422749303   -0.171000109
 -24502.000000000   33.678442413   -0.169925152
 -24500.500000000   33.932528031   -0.168856739
 -24499.000000000   34.185015756   -0.167794578
 -24497.500000000   34.435914741   -0.166738368
 -24496.000000000   34.685233684   -0.165687804
 -24494.500000000   34.932980822   -0.164642577
 -24493.000000000   35.179163926   -0.163602373
 -24491.500000000   35.423790293   -0.162566875
 -24490.000000000   35.666866746   -0.161535766
 -24488.500000000   35.908399624   -0.160508723
 -24487.000000000   36.148394788   -0.159485425
 -24485.500000000   36.386857610   -0.158465548
 -24484.000000000   36.623792980   -0.157448769
 -24482.500000000   36.859205303   -0.156434764
 -24481.000000000   37.093098498   -0.155423212
 -24479.500000000   37.325476005   -0.154413792
 -24478.000000000   37.556340781   -0.153406186
 -24476.500000000   37.785695311   -0.152400076
 -24475.000000000   38.013541603   -0.151395152
 -24473.500000000   38.239881203   -0.150391102
 -24472.000000000   38.464715194   -0.149387622
 -24470.500000000   38.688044205   -0.148384412
 -24469.000000000   38.909868418   -0.147381176
 -24467.500000000   39.130187575   -0.146377624
 -24466.000000000   39.349000989   -0.145373472
 -24464.500000000   39.566307552   -0.144368443
 -24463.000000000   39.782105744   -0.143362266
 -24461.500000000   39.996393646   -0.142354679
 -24460.000000000   40.209168947   -0.141345424
 -24458.500000000   40.420428962   -0.140334256
 -24457.000000000   40.630170638   -0.139320934
 -24455.500000000   40.838390573   -0.138305229
 -24454.000000000   41.045085022   -0.137286918
 -24452.500000000   41.250249919   -0.136265790
 -24451.000000000   41.453880884   -0.135241643
 -24449.500000000   41.655973241   -0.134214283
 -24448.000000000   41.856522034   -0.133183528
 -24446.500000000   42.055522041   -0.132149206
 -24445.000000000   42.252967788   -0.131111156
 -24443.500000000   42.448853567   -0.130069226
 -24442.000000000   42.643173455   -0.129023276
 -24440.500000000   42.835921322   -0.127973179
 -24439.000000000   43.027090857   -0.126918815
 -24437.500000000   43.216675580   -0.125860078
 -24436.000000000   43.404668858   -0.124796874
 -24434.500000000   43.591063925   -0.123729118
 -24433.000000000   43.775853899   -0.122656738
 -24431.500000000   43.959031796   -0.121579673
 -24430.000000000   44.140590551   -0.120497874
 -24428.500000000   44.320523034   -0.119411304
 -24427.000000000   44.498822064   -0.118319935
 -24425.500000000   44.675480432   -0.117223753
 -24424.000000000   44.850490914   -0.116122754
 -24422.500000000   45.023846288   -0.115016945
 -24421.000000000   45.195539355   -0.113906347
 -24419.500000000   45.365562948   -0.112790987
 -24418.000000000   45.533909955   -0.111670907
 -24416.500000000   45.700573334   -0.110546158
 -24415.000000000   45.865546127   -0.109416803
 -24413.500000000   46.028821475   -0.108282913
 -24412.000000000   46.190392639   -0.107144571
 -24410.500000000   46.350253007   -0.106001869
 -24409.000000000   46.508396117   -0.104854910
 -24407.500000000   46.664815663   -0.103703804
 -24406.000000000   46.819505516   -0.102548674
 -24404.500000000   46.972459736   -0.101389648
 -24403.000000000   47.123672581   -0.100226865
 -24401.500000000   47.273138525   -0.099060471
 -24400.000000000   47.420852266   -0.097890622
 -24398.500000000   47.566808744   -0.096717480
 -24397.000000000   47.711003144   -0.095541214
 -24395.500000000   47.853430912   -0.094362002
 -24394.000000000   47.994087767   -0.093180027
 -24392.500000000   48.132969706   -0.091995478
 -24391.000000000   48.270073014   -0.090808553
 -24389.500000000   48.405394276   -0.089619451
 -24388.000000000   48.538930383   -0.088428381
 -24386.500000000   48.670678540   -0.087235553
 -24385.000000000   48.800636270   -0.086041183
 -24383.500000000   48.928801427   -0.084845491
 -24382.000000000   49.055172193   -0.083648700
 -24380.500000000   49.179747091   -0.082451038
 -24379.000000000   49.302524985   -0.081252734
 -24377.500000000   49.423505086   -0.080054019
 -24376.000000000   49.542686954   -0.078855128
 -24374.500000000   49.660070501   -0.077656297
 -24373.000000000   49.775655994   -0.076457762
 -24371.500000000   49.889444054   -0.075259760
 -24370.000000000   50.001435660   -0.074062530
 -24368.500000000   50.111632149   -0.072866309
 -24367.000000000   50.220035211   -0.071671334
 -24365.500000000   50.326646893   -0.070477843
 -24364.000000000   50.431469598   -0.069286069
 -24362.500000000   50.534506076   -0.068096247
 -24361.000000000   50.635759430   -0.066908608
 -24359.500000000   50.735233106   -0.065723381
 -24358.000000000   50.832930892   -0.064540792
 -24356.500000000   50.928856913   -0.063361065
 -24355.000000000   51.023015626   -0.062184418
 -24353.500000000   51.115411815   -0.061011067
 -24352.000000000   51.206050582   -0.059841224
 -24350.500000000   51.294937345   -0.058675095
 -24349.000000000   51.382077826   -0.057512883
 -24347.500000000   51.467478049   -0.056354782
 -24346.000000000   51.551144325   -0.055200985
 -24344.500000000   51.633083249   -0.054051677
 -24343.000000000   51.713301689   -0.052907036
 -24341.500000000   51.791806776   -0.051767234
 -24340.000000000   51.868605894   -0.050632438
 -24338.500000000   51.943706672   -0.049502806
 -24337.000000000   52.017116971   -0.048378490
 -24335.500000000   52.088844874   -0.047259635
 -24334.000000000   52.158898673   -0.046146375
 -24332.500000000   52.227286861   -0.045038841
 -24331.000000000   52.294018118   -0.043937152
 -24329.500000000   52.359101296   -0.042841421
 -24328.000000000   52.422545411   -0.041751752
 -24326.500000000   52.484359629   -0.040668240
 -24325.000000000   52.544553252   -0.039590972
 -24323.500000000   52.603135705   -0.038520025
 -24322.000000000   52.660116524   -0.037455470
 -24320.500000000   52.715505341   -0.036397365
 -24319.000000000   52.769311871   -0.035345763
 -24317.500000000   52.821545901   -0.034300704
 -24316.000000000   52.872217271   -0.033262221
 -24314.500000000   52.921335863   -0.032230338
 -24313.000000000   52.968911591   -0.031205068
 -24311.500000000   53.014954378   -0.030186418
 -24310.000000000   53.059474153   -0.029174383
 -24308.500000000   53.102480827   -0.028168948
 -24307.000000000   53.143984287   -0.027170093
 -24305.500000000   53.183994379   -0.026177785
 -24304.000000000   53.222520895   -0.025191983
 -24302.500000000   53.259573557   -0.024212638
 -24301.000000000   53.295162009   -0.023239693
 -24299.500000000   53.329295801   -0.022273079
 -24298.000000000   53.361984373   -0.021312721
 -24296.500000000   53.393237049   -0.020358535
 -24295.000000000   53.423063019   -0.019410429
 -24293.500000000   53.451471327   -0.018468303
 -24292.000000000   53.478470864   -0.017532048
 -24290.500000000   53.504070350   -0.016601549
 -24289.000000000   53.528278326   -0.015676681
 -24287.500000000   53.551103142   -0.014757314
 -24286.000000000   53.572552948   -0.013843310
 -24284.500000000   53.592635681   -0.012934524
 -24283.000000000   53.611359055   -0.012030806
 -24281.500000000   53.628730554   -0.011131998
 -24280.000000000   53.644757421   -0.010237935
 -24278.500000000   53.659446648   -0.009348450
 -24277.000000000   53.672804971   -0.008463366
 -24275.500000000   53.684838857   -0.007582504
 -24274.000000000   53.695554502   -0.006705680
 -24272.500000000   53.704957821   -0.005832704
 -24271.000000000   53.713054441   -0.004963382
 -24269.500000000   53.719849695   -0.004097517
 -24268.000000000   53.725348619   -0.003234908
 -24266.500000000   53.729555945   -0.002375351
 -24265.000000000   53.732476095   -0.001518639
 -24263.500000000   53.734113179   -0.000664562
 -24262.000000000   53.734470993    0.000187091
 -24260.500000000   53.733553011    0.001036534
 -24259.000000000   53.731362388    0.001883982
 -24257.500000000   53.727901954    0.002729651
 -24256.000000000   53.723174215    0.003573758
 -24254.500000000   53.717181352    0.004416520
 -24253.000000000   53.709925221    0.005258153
 -24251.500000000   53.701407349    0.006098875
 -24250.000000000   53.691628943    0.006938902
 -24248.500000000   53.680590885    0.007778448
 -24247.000000000   53.668293733    0.008617727
 -24245.500000000   53.654737731    0.009456951
 -24244.000000000   53.639922804    0.010296328
 -24242.500000000   53.623848566    0.011136067
 -24241.000000000   53.606514322    0.011976370
 -24239.500000000   53.587919074    0.012817438
 -24238.000000000   53.568061526    0.013659470
 -24236.500000000   53.546940087    0.014502657
 -24235.000000000   53.524552881    0.015347190
 -24233.500000000   53.500897752    0.016193252
 -24232.000000000   53.475972270    0.017041024
 -24230.500000000   53.449773739    0.017890679
 -24229.000000000   53.422299206    0.018742387
 -24227.500000000   53.393545470    0.019596311
 -24226.000000000   53.363509087    0.020452608
 -24224.500000000   53.332186383    0.021311430
 -24223.000000000   53.299573463    0.022172920
 -24221.500000000   53.265666221    0.023037216
 -24220.000000000   53.230460348    0.023904448
 -24218.500000000   53.193951347    0.024774740
 -24217.000000000   53.156134540    0.025648207
 -24215.500000000   53.117005083    0.026524958
 -24214.000000000   53.076557975    0.027405092
 -24212.500000000   53.034788071    0.028288701
 -24211.000000000   52.991690093    0.029175869
 -24209.500000000   52.947258646    0.030066671
 -24208.000000000   52.901488228    0.030961175
 -24206.500000000   52.854373242    0.031859438
 -24205.000000000   52.805908011    0.032761509
 -24203.500000000   52.756086791    0.033667429
 -24202.000000000   52.704903783    0.034577230
 -24200.500000000   52.652353149    0.035490934
 -24199.000000000   52.598429024    0.036408553
 -24197.500000000   52.543125528    0.037330094
 -24196.000000000   52.486436784    0.038255550
 -24194.500000000   52.428356928    0.039184908
 -24193.000000000   52.368880123    0.040118143
 -24191.500000000   52.308000574    0.041055225
 -24190.000000000   52.245712544    0.041996112
 -24188.500000000   52.182010362    0.042940752
 -24187.000000000   52.116888441    0.043889087
 -24185.500000000   52.050341289    0.044841048
 -24184.000000000   51.982363523    0.045796558
 -24182.500000000   51.912949883    0.046755531
 -24181.000000000   51.842095245    0.047717873
 -24179.500000000   51.769794632    0.048683480
 -24178.000000000   51.696043227    0.049652243
 -24176.500000000   51.620836386    0.050624041
 -24175.000000000   51.544169650    0.051598747
 -24173.500000000   51.466038758    0.052576227
 -24172.000000000   51.386439654    0.053556338
 -24170.500000000   51.305368503    0.054538931
 -24169.000000000   51.222821698    0.055523849
 -24167.500000000   51.138795875    0.056510928
 -24166.000000000   51.053287917    0.057500000
 -24164.500000000   50.966294968    0.058490886
 -24163.000000000   50.877814441    0.059483407
 -24161.500000000   50.787844026    0.060477372
 -24160.000000000   50.696381698    0.061472591
 -24158.500000000   50.603425726    0.062468863
 -24157.000000000   50.508974681    0.063465988
 -24155.500000000   50.413027441    0.064463756
 -24154.000000000   50.315583196    0.065461958
 -24152.500000000   50.216641458    0.066460378
 -24151.000000000   50.116202062    0.067458798
 -24149.500000000   50.014265174    0.068456997
 -24148.000000000   49.910831292    0.069454752
 -24146.500000000   49.805901252    0.070451837
 -24145.000000000   49.699476229    0.071448025
 -24143.500000000   49.591557741    0.072443086
 -24142.000000000   49.482147650    0.073436791
 -24140.500000000   49.371248161    0.074428910
 -24139.000000000   49.258861828    0.075419212
 -24137.500000000   49.144991548    0.076407468
 -24136.000000000   49.029640562    0.077393448
 -24134.500000000   48.912812457    0.078376923
 -24133.000000000   48.794511158    0.079357667
 -24131.500000000   48.674740932    0.080335456
 -24130.000000000   48.553506379    0.081310067
 -24128.500000000   48.430812431    0.082281279
 -24127.000000000   48.306664348    0.083248878
 -24125.500000000   48.181067711    0.084212650
 -24124.000000000   48.054028417    0.085172386
 -24122.500000000   47.925552674    0.086127882
 -24121.000000000   47.795646992    0.087078938
 -24119.500000000   47.664318176    0.088025361
 -24118.000000000   47.531573320    0.088966961
 -24116.500000000   47.397419795    0.089903557
 -24115.000000000   47.261865241    0.090834971
 -24113.500000000   47.124917559    0.091761034
 -24112.000000000   46.986584897    0.092681583
 -24110.500000000   46.846875644    0.093596464
 -24109.000000000   46.705798413    0.094505529
 -24107.500000000   46.563362033    0.095408640
 -24106.000000000   46.419575536    0.096305665
 -24104.500000000   46.274448142    0.097196482
 -24103.000000000   46.127989250    0.098080979
 -24101.500000000   45.980208418    0.098959051
 -24100.000000000   45.831115355    0.099830606
 -24098.500000000   45.680719902    0.100695557
 -24097.000000000   45.529032021    0.101553832
 -24095.500000000   45.376061776    0.102405366
 -24094.000000000   45.221819320    0.103250106
 -24092.500000000   45.066314877    0.104088009
 -24091.000000000   44.909558729    0.104919042
 -24089.500000000   44.751561196    0.105743186
 -24088.000000000   44.592332621    0.106560430
 -24086.500000000   44.431883356    0.107370775
 -24085.000000000   44.270223738    0.108174235
 -24083.500000000   44.107364081    0.108970834
 -24082.000000000   43.943314650    0.109760607
 -24080.500000000   43.778085651    0.110543601
 -24079.000000000   43.611687207    0.111319876
 -24077.500000000   43.444129347    0.112089502
 -24076.000000000   43.275421985    0.112852561
 -24074.500000000   43.105574902    0.113609146
 -24073.000000000   42.934597731    0.114359363
 -24071.500000000   42.762499940    0.115103327
 -24070.000000000   42.589290813    0.115841166
 -24068.500000000   42.414979434    0.116573020
 -24067.000000000   42.239574672    0.117299037
 -24065.500000000   42.063085160    0.118019379
 -24064.000000000   41.885519286    0.118734217
 -24062.500000000   41.706885170    0.119443733
 -24061.000000000   41.527190654    0.120148118
 -24059.500000000   41.346443282    0.120847575
 -24058.000000000   41.164650289    0.121542315
 -24056.500000000   40.981818585    0.122232560
 -24055.000000000   40.797954741    0.122918540
 -24053.500000000   40.613064978    0.123600494
 -24052.000000000   40.427155148    0.124278670
 -24050.500000000   40.240230729    0.124953323
 -24049.000000000   40.052296809    0.125624717
 -24047.500000000   39.863358073    0.126293122
 -24046.000000000   39.673418798    0.126958816
 -24044.500000000   39.482482839    0.127622082
 -24043.000000000   39.290553620    0.128283211
 -24041.500000000   39.097634126    0.128942498
 -24040.000000000   38.903726896    0.129600243
 -24038.500000000   38.708834015    0.130256751
 -24037.000000000   38.512957108    0.130912330
 -24035.500000000   38.316097333    0.131567293
 -24034.000000000   38.118255379    0.132221954
 -24032.500000000   37.919431462    0.132876632
 -24031.000000000   37.719625317    0.133531644
 -24029.500000000   37.518836204    0.134187310
 -24028.000000000   37.317062899    0.134843952
 -24026.500000000   37.114303701    0.135501889
 -24025.000000000   36.910556426    0.136161441
 -24023.500000000   36.705818412    0.136822926
 -24022.000000000   36.500086523    0.137486661
 -24020.500000000   36.293357149    0.138152958
 -24019.000000000   36.085626212    0.138822129
 -24017.500000000   35.876889173    0.139494479
 -24016.000000000   35.667141036    0.140170309
 -24014.500000000   35.456376357    0.140849917
 -24013.000000000   35.244589252    0.141533591
 -24011.500000000   35.031773408    0.142221616
 -24010.000000000   34.817922090    0.142914268
 -24008.500000000   34.603028156    0.143611815
 -24007.000000000   34.387084068    0.144314516
 -24005.500000000   34.170081906    0.145022622
 -24004.000000000   33.952013380    0.145736373
 -24002.500000000   33.732869850    0.146455998
 -24001.000000000   33.512642339    0.147181716
 -23999.500000000   33.291321553    0.147913732
 -23998.000000000   33.068897896    0.148652242
 -23996.500000000   32.845361491    0.149397424
 -23995.000000000   32.620702202    0.150149447
 -23993.500000000   32.394909653    0.150908462
 -23992.000000000   32.167973250    0.151674607
 -23990.500000000   31.939882205    0.152448004
 -23989.000000000   31.710625558    0.153228759
 -23987.500000000   31.480192204    0.154016960
 -23986.000000000   31.248570917    0.154812681
 -23984.500000000   31.015750374    0.155615975
 -23983.000000000   30.781719187    0.156426879
 -23981.500000000   30.546465924    0.157245410
 -23980.000000000   30.309979144    0.158071568
 -23978.500000000   30.072247419    0.158905331
 -23977.000000000   29.833259368    0.159746660
 -23975.500000000   29.593003685    0.160595494
 -23974.000000000   29.351469173    0.161451752
 -23972.500000000   29.108644767    0.162315333
 -23971.000000000   28.864519575    0.163186113
 -23969.500000000   28.619082902    0.164063948
 -23968.000000000   28.372324285    0.164948674
 -23966.500000000   28.124233529    0.165840102
 -23965.000000000   27.874800731    0.166738025
 -23963.500000000   27.624016323    0.167642210
 -23962.000000000   27.371871096    0.168552405
 -23960.500000000   27.118356240    0.169468335
 -23959.000000000   26.863463370    0.170389704
 -23957.500000000   26.607184569    0.171316191
 -23956.000000000   26.349512409    0.172247456
 -23954.500000000   26.090439994    0.173183135
 -23953.000000000   25.829960988    0.174122845
 -23951.500000000   25.568069647    0.175066179
 -23950.000000000   25.304760853    0.176012709
 -23948.500000000   25.040030147    0.176961986
 -23947.000000000   24.773873756    0.177913542
 -23945.500000000   24.506288627    0.178866886
 -23944.000000000   24.237272459    0.179821508
 -23942.500000000   23.966823728    0.180776879
 -23941.000000000   23.694941722    0.181732450
 -23939.500000000   23.421626563    0.182687652
 -23938.000000000   23.146879241    0.183641901
 -23936.500000000   22.870701637    0.184594594
 -23935.000000000   22.593096549    0.185545109
 -23933.500000000   22.314067718    0.186492810
 -23932.000000000   22.033619853    0.187437044
 -23930.500000000   21.751758652    0.188377146
 -23929.000000000   21.468490823    0.189312432
 -23927.500000000   21.183824110    0.190242209
 -23926.000000000   20.897767304    0.191165770
 -23924.500000000   20.610330267    0.192082395
 -23923.000000000   20.321523949    0.192991357
 -23921.500000000   20.031360399    0.193891914
 -23920.000000000   19.739852782    0.194783321
 -23918.500000000   19.447015391    0.195664820
 -23917.000000000   19.152863655    0.196535652
 -23915.500000000   18.857414153    0.197395047
 -23914.000000000   18.560684618    0.198242234
 -23912.500000000   18.262693942    0.199076438
 -23911.000000000   17.963462183    0.199896882
 -23909.500000000   17.663010566    0.200702787
 -23908.000000000   17.361361480    0.201493376
 -23906.500000000   17.058538483    0.202267873
 -23905.000000000   16.754566294    0.203025504
 -23903.500000000   16.449470789    0.203765501
 -23902.000000000   16.143278991    0.204487099
 -23900.500000000   15.836019068    0.205189544
 -23899.000000000   15.527720312    0.205872085
 -23897.500000000   15.218413134    0.206533984
 -23896.000000000   14.908129044    0.207174514
 -23894.500000000   14.596900635    0.207792959
 -23893.000000000   14.284761562    0.208388616
 -23891.500000000   13.971746523    0.208960800
 -23890.000000000   13.657891234    0.209508840
 -23888.500000000   13.343232402    0.210032084
 -23887.000000000   13.027807697    0.210529899
 -23885.500000000   12.711655726    0.211001672
 -23884.000000000   12.394815996    0.211446815
 -23882.500000000   12.077328881    0.211864760
 -23881.000000000   11.759235586    0.212254965
 -23879.500000000   11.440578112    0.212616916
 -23878.000000000   11.121399210    0.212950124
 -23876.500000000   10.801742340    0.213254131
 -23875.000000000   10.481651632    0.213528508
 -23873.500000000   10.161171832    0.213772857
 -23872.000000000    9.840348258    0.213986815
 -23870.500000000    9.519226750    0.214170050
 -23869.000000000    9.197853617    0.214322268
 -23867.500000000    8.876275585    0.214443209
 -23866.000000000    8.554539739    0.214532653
 -23864.500000000    8.232693467    0.214590416
 -23863.000000000    7.910784403    0.214616355
 -23861.500000000    7.588860365    0.214610368
 -23860.000000000    7.266969295    0.214572392
 -23858.500000000    6.945159193    0.214502410
 -23857.000000000    6.623478058    0.214400445
 -23855.500000000    6.301973815    0.214266567
 -23854.000000000    5.980694256    0.214100890
 -23852.500000000    5.659686967    0.213903571
 -23851.000000000    5.338999262    0.213674816
 -23849.500000000    5.018678112    0.213414877
 -23848.000000000    4.698770076    0.213124052
 -23846.500000000    4.379321226    0.212802689
 -23845.000000000    4.060377083    0.212451180
 -23843.500000000    3.741982537    0.212069970
 -23842.000000000    3.424181780    0.211659547
 -23840.500000000    3.107018232    0.211220452
 -23839.000000000    2.790534466    0.210753273
 -23837.500000000    2.474772139    0.210258644
 -23836.000000000    2.159771917    0.209737251
 -23834.500000000    1.845573403    0.209189826
 -23833.000000000    1.532215067    0.208617148
 -23831.500000000    1.219734172    0.208020046
 -23830.000000000    0.908166705    0.207399393
 -23828.500000000    0.597547308    0.206756110
 -23827.000000000    0.287909208    0.206091163
 -23825.500000000   -0.020715852    0.205405562
 -23824.000000000   -0.328297678    0.204700363
 -23822.500000000   -0.634807689    0.203976663
 -23821.000000000   -0.940218984    0.203235601
 -23819.500000000   -1.244506401    0.202478358
 -23818.000000000   -1.547646579    0.201706155
 -23816.500000000   -1.849618014    0.200920248
 -23815.000000000   -2.150401118    0.200121933
 -23813.500000000   -2.449978273    0.199312539
 -23812.000000000   -2.748333878    0.198493431
 -23810.500000000   -3.045454405    0.197666003
 -23809.000000000   -3.341328438    0.196831680
 -23807.500000000   -3.635946724    0.195991916
 -23806.000000000   -3.929302205    0.195148191
 -23804.500000000   -4.221390066    0.194302007
 -23803.000000000   -4.512207759    0.193454890
 -23801.500000000   -4.801755040    0.192608384
 -23800.000000000   -5.090033996    0.191764051
 -23798.500000000   -5.377049067    0.190923468
 -23797.000000000   -5.662807067    0.190088222
 -23795.500000000   -5.947317202    0.189259913
 -23794.000000000   -6.230591077    0.188440145
 -23792.500000000   -6.512642711    0.187630527
 -23791.000000000   -6.793488538    0.186832669
 -23789.500000000   -7.073147404    0.186048181
 -23788.000000000   -7.351640567    0.185278666
 -23786.500000000   -7.628991686    0.184525721
 -23785.000000000   -7.905226807    0.183790931
 -23783.500000000   -8.180374345    0.183075870
 -23782.000000000   -8.454465060    0.182382093
 -23780.500000000   -8.727532033    0.181711134
 -23779.000000000   -8.999610629    0.181064506
 -23777.500000000   -9.270738460    0.180443694
 -23776.000000000   -9.540955347    0.179850153
 -23774.500000000   -9.810303267    0.179285306
 -23773.000000000  -10.078826305    0.178750538
 -23771.500000000  -10.346570594    0.178247195
 -23770.000000000  -10.613584255    0.177776580
 -23768.500000000  -10.879917328    0.177339950
 -23767.000000000  -11.145621700    0.176938509
 -23765.500000000  -11.410751029    0.176573413
 -23764.000000000  -11.675360661    0.176245758
 -23762.500000000  -11.939507544    0.175956582
 -23761.000000000  -12.203250134    0.175706858
 -23759.500000000  -12.466648301    0.175497497
 -23758.000000000  -12.729763227    0.175329337
 -23756.500000000  -12.992657299    0.175203147
 -23755.000000000  -13.255394001    0.175119620
 -23753.500000000  -13.518037799    0.175079370
 -23752.000000000  -13.780654020    0.175082933
 -23750.500000000  -14.043308730    0.175130758
 -23749.000000000  -14.306068609    0.175223212
 -23747.500000000  -14.569000820    0.175360571
 -23746.000000000  -14.832172870    0.175543022
 -23744.500000000  -15.095652479    0.175770657
 -23743.000000000  -15.359507435    0.176043476
 -23741.500000000  -15.623805451    0.176361379
 -23740.000000000  -15.888614017    0.176724169
 -23738.500000000  -16.154000254    0.177131548
 -23737.000000000  -16.420030759    0.177583117
 -23735.500000000  -16.686771450    0.178078372
 -23734.000000000  -16.954287417    0.178616707
 -23732.500000000  -17.222642758    0.179197410
 -23731.000000000  -17.491900425    0.179819663
 -23729.500000000  -17.762122062    0.180482541
 -23728.000000000  -18.033367847    0.181185014
 -23726.500000000  -18.305696334    0.181925944
 -23725.000000000  -18.579164288    0.182704088
 -23723.500000000  -18.853826532    0.183518096
 -23722.000000000  -19.129735782    0.184366512
 -23720.500000000  -19.406942494    0.185247777
 -23719.000000000  -19.685494707    0.186160227
 -23717.500000000  -19.965437888    0.187102099
 -23716.000000000  -20.246814784    0.188071527
 -23714.500000000  -20.529665266    0.189066547
 -23713.000000000  -20.814026192    0.190085101
 -23711.500000000  -21.099931260    0.191125035
 -23710.000000000  -21.387410868    0.192184107
 -23708.500000000  -21.676491986    0.193259986
 -23707.000000000  -21.967198023    0.194350256
 -23705.500000000  -22.259548705    0.195452423
 -23704.000000000  -22.553559954    0.196563913
 -23702.500000000  -22.849243783    0.197682082
 -23701.000000000  -23.146608184    0.198804217
 -23699.500000000  -23.445657032    0.199927544
 -23698.000000000  -23.746389996    0.201049229
 -23696.500000000  -24.048802455    0.202166385
 -23695.000000000  -24.352885423    0.203276081
 -23693.500000000  -24.658625481    0.204375341
 -23692.000000000  -24.966004725    0.205461158
 -23690.500000000  -25.275000716    0.206530495
 -23689.000000000  -25.585586442    0.207580294
 -23687.500000000  -25.897730292    0.208607481
 -23686.000000000  -26.211396039    0.209608976
 -23684.500000000  -26.526542834    0.210581699
 -23683.000000000  -26.843125214    0.211522579
 -23681.500000000  -27.161093119    0.212428557
 -23680.000000000  -27.480391918    0.213296602
 -23678.500000000  -27.800962456    0.214123712
 -23677.000000000  -28.122741105    0.214906927
 -23675.500000000  -28.445659833    0.215643336
 -23674.000000000  -28.769646283    0.216330085
 -23672.500000000  -29.094623865    0.216964388
 -23671.000000000  -29.420511866    0.217543532
 -23669.500000000  -29.747225567    0.218064891
 -23668.000000000  -30.074676379    0.218525933
 -23666.500000000  -30.402771989    0.218924225
 -23665.000000000  -30.731416518    0.219257450
 -23663.500000000  -31.060510704    0.219523410
 -23662.000000000  -31.389952079    0.219720037
 -23660.500000000  -31.719635180    0.219845402
 -23659.000000000  -32.049451760    0.219897724
 -23657.500000000  -32.379291014    0.219875378
 -23656.000000000  -32.709039827    0.219776906
 -23654.500000000  -33.038583022    0.219601020
 -23653.000000000  -33.367803626    0.219346618
 -23651.500000000  -33.696583155    0.219012783
 -23650.000000000  -34.024801897    0.218598799
 -23648.500000000  -34.352339217    0.218104152
 -23647.000000000  -34.679073867    0.217528541
 -23645.500000000  -35.004884311    0.216871880
 -23644.000000000  -35.329649050    0.216134311
 -23642.500000000  -35.653246971    0.215316202
 -23641.000000000  -35.975557685    0.214418157
 -23639.500000000  -36.296461892    0.213441019
 -23638.000000000  -36.615841734    0.212385872
 -23636.500000000  -36.933581164    0.211254047
 -23635.000000000  -37.249566322    0.210047125
 -23633.500000000  -37.563685901    0.208766935
 -23632.000000000  -37.875831530    0.207415558
 -23630.500000000  -38.185898145    0.205995327
 -23629.000000000  -38.493784372    0.204508825
 -23627.500000000  -38.799392897    0.202958884
 -23626.000000000  -39.102630841    0.201348584
 -23624.500000000  -39.403410126    0.199681246
 -23623.000000000  -39.701647836    0.197960431
 -23621.500000000  -39.997266574    0.196189933
 -23620.000000000  -40.290194801    0.194373773
 -23618.500000000  -40.580367177    0.192516189
 -23617.000000000  -40.867724875    0.190621628
 -23615.500000000  -41.152215895    0.188694740
 -23614.000000000  -41.433795346    0.186740359
 -23612.500000000  -41.712425729    0.184763497
 -23611.000000000  -41.988077181    0.182769326
 -23609.500000000  -42.260727711    0.180763165
 -23608.000000000  -42.530363405    0.178750463
 -23606.500000000  -42.796978608    0.176736779
 -23605.000000000  -43.060576078    0.174727768
 -23603.500000000  -43.321167109    0.172729153
 -23602.000000000  -43.578771624    0.170746712
 -23600.500000000  -43.833418232    0.168786246
 -23599.000000000  -44.085144253    0.166853561
 -23597.500000000  -44.333995699    0.164954441
 -23596.000000000  -44.580027224    0.163094616
 -23594.500000000  -44.823302025    0.161279743
 -23593.000000000  -45.063891704    0.159515367
 -23591.500000000  -45.301876081    0.157806896
 -23590.000000000  -45.537342967    0.156159569
 -23588.500000000  -45.770387881    0.154578421
 -23587.000000000  -46.001113725    0.153068253
 -23585.500000000  -46.229630400    0.151633593
 -23584.000000000  -46.456054376    0.150278665
 -23582.500000000  -46.680508208    0.149007352
 -23581.000000000  -46.903119997    0.147823157
 -23579.500000000  -47.124022793    0.146729174
 -23578.000000000  -47.343353951    0.145728041
 -23576.500000000  -47.561254428    0.144821914
 -23575.000000000  -47.777868019    0.144012421
 -23573.500000000  -47.993340555    0.143300635
 -23572.000000000  -48.207819027    0.142687032
 -23570.500000000  -48.421450678    0.142171460
 -23569.000000000  -48.634382027    0.141753104
 -23567.500000000  -48.846757856    0.141430457
 -23566.000000000  -49.058720149    0.141201288
 -23564.500000000  -49.270406981    0.141062616
 -23563.000000000  -49.481951378    0.141010683
 -23561.500000000  -49.693480136    0.141040935
 -23560.000000000  -49.905112606    0.141148002
 -23558.500000000  -50.116959462    0.141325681
 -23557.000000000  -50.329121446    0.141566929
 -23555.500000000  -50.541688102    0.141863857
 -23554.000000000  -50.754736503    0.142207729
 -23552.500000000  -50.968329986    0.142588968
 -23551.000000000  -51.182516903    0.142997172
 -23549.500000000  -51.397329391    0.143421129
 -23548.000000000  -51.612782184    0.143848850
 -23546.500000000  -51.828871471    0.144267606
 -23545.000000000  -52.045573819    0.144663974
 -23543.500000000  -52.262845177    0.145023893
 -23542.000000000  -52.480619968    0.145332738
 -23540.500000000  -52.698810305    0.145575400
 -23539.000000000  -52.917305331    0.145736380
 -23537.500000000  -53.135970718    0.145799901
 -23536.000000000  -53.354648342    0.145750036
 -23534.500000000  -53.573156163    0.145570848
 -23533.000000000  -53.791288327    0.145246552
 -23531.500000000  -54.008815532    0.144761700
 -23530.000000000  -54.225485679    0.144101379
 -23528.500000000  -54.441024843    0.143251440
 -23527.000000000  -54.655138599    0.142198745
 -23525.500000000  -54.867513748    0.140931445
 -23524.000000000  -55.077820471    0.139439282
 -23522.500000000  -55.285714958    0.137713922
 -23521.000000000  -55.490842569    0.135749318
 -23519.500000000  -55.692841559    0.133542112
 -23518.000000000  -55.891347425    0.131092065
 -23516.500000000  -56.085997942    0.128402530
 -23515.000000000  -56.276438924    0.125480965
 -23513.500000000  -56.462330794    0.122339486
 -23512.000000000  -56.643356015    0.118995469
 -23510.500000000  -56.819227462    0.115472195
 -23509.000000000  -56.989697794    0.111799555
 -23507.500000000  -57.154569931    0.108014797
 -23506.000000000  -57.313708687    0.104163342
 -23504.500000000  -57.467053673    0.100299649
 -23503.000000000  -57.614633548    0.096488151
 -23501.500000000  -57.756581726    0.092804257
 -23500.000000000  -57.893153632    0.089335427
